=== Run information ===

Scheme:       weka.classifiers.trees.J48 -C 0.25 -M 2
Relation:     use_large_v5_200t
Instances:    102198
Attributes:   513
              [list of attributes omitted]
Test mode:    split 70.0% train, remainder test

=== Classifier model (full training set) ===

J48 pruned tree
------------------

f267 <= -0.0613
|   f364 <= -0.042757
|   |   f14 <= -0.027098
|   |   |   f143 <= -0.002121
|   |   |   |   f339 <= 0.058077
|   |   |   |   |   f179 <= 0.074224
|   |   |   |   |   |   f470 <= 0.078266
|   |   |   |   |   |   |   f453 <= -0.03544: not_question (21.0)
|   |   |   |   |   |   |   f453 > -0.03544
|   |   |   |   |   |   |   |   f152 <= -0.0121
|   |   |   |   |   |   |   |   |   f500 <= -0.052062: question (10.0)
|   |   |   |   |   |   |   |   |   f500 > -0.052062
|   |   |   |   |   |   |   |   |   |   f407 <= 0.027333
|   |   |   |   |   |   |   |   |   |   |   f232 <= 0.046604
|   |   |   |   |   |   |   |   |   |   |   |   f115 <= 0.051436
|   |   |   |   |   |   |   |   |   |   |   |   |   f435 <= 0.049865
|   |   |   |   |   |   |   |   |   |   |   |   |   |   f267 <= -0.117664
|   |   |   |   |   |   |   |   |   |   |   |   |   |   |   f6 <= -0.021198: not_question (2.0)
|   |   |   |   |   |   |   |   |   |   |   |   |   |   |   f6 > -0.021198: question (7.0)
|   |   |   |   |   |   |   |   |   |   |   |   |   |   f267 > -0.117664
|   |   |   |   |   |   |   |   |   |   |   |   |   |   |   f495 <= -0.094403
|   |   |   |   |   |   |   |   |   |   |   |   |   |   |   |   f253 <= 0.012888: question (4.0)
|   |   |   |   |   |   |   |   |   |   |   |   |   |   |   |   f253 > 0.012888: not_question (2.0)
|   |   |   |   |   |   |   |   |   |   |   |   |   |   |   f495 > -0.094403
|   |   |   |   |   |   |   |   |   |   |   |   |   |   |   |   f5 <= 0.056183: not_question (79.0)
|   |   |   |   |   |   |   |   |   |   |   |   |   |   |   |   f5 > 0.056183
|   |   |   |   |   |   |   |   |   |   |   |   |   |   |   |   |   f100 <= 0.02864: not_question (7.0)
|   |   |   |   |   |   |   |   |   |   |   |   |   |   |   |   |   f100 > 0.02864: question (4.0)
|   |   |   |   |   |   |   |   |   |   |   |   |   f435 > 0.049865: question (7.0/1.0)
|   |   |   |   |   |   |   |   |   |   |   |   f115 > 0.051436: question (7.0/1.0)
|   |   |   |   |   |   |   |   |   |   |   f232 > 0.046604
|   |   |   |   |   |   |   |   |   |   |   |   f0 <= 0.065254: question (10.0)
|   |   |   |   |   |   |   |   |   |   |   |   f0 > 0.065254: not_question (2.0)
|   |   |   |   |   |   |   |   |   |   f407 > 0.027333
|   |   |   |   |   |   |   |   |   |   |   f3 <= 0.066408: question (17.0)
|   |   |   |   |   |   |   |   |   |   |   f3 > 0.066408: not_question (4.0/1.0)
|   |   |   |   |   |   |   |   f152 > -0.0121
|   |   |   |   |   |   |   |   |   f338 <= 0.025002
|   |   |   |   |   |   |   |   |   |   f348 <= -0.071413
|   |   |   |   |   |   |   |   |   |   |   f6 <= 0.024622: not_question (5.0)
|   |   |   |   |   |   |   |   |   |   |   f6 > 0.024622: question (2.0)
|   |   |   |   |   |   |   |   |   |   f348 > -0.071413
|   |   |   |   |   |   |   |   |   |   |   f88 <= -0.082005: not_question (4.0/1.0)
|   |   |   |   |   |   |   |   |   |   |   f88 > -0.082005
|   |   |   |   |   |   |   |   |   |   |   |   f471 <= 0.072837: question (55.0)
|   |   |   |   |   |   |   |   |   |   |   |   f471 > 0.072837
|   |   |   |   |   |   |   |   |   |   |   |   |   f51 <= 0.003084: not_question (3.0)
|   |   |   |   |   |   |   |   |   |   |   |   |   f51 > 0.003084: question (6.0)
|   |   |   |   |   |   |   |   |   f338 > 0.025002
|   |   |   |   |   |   |   |   |   |   f20 <= 0.033104: not_question (8.0)
|   |   |   |   |   |   |   |   |   |   f20 > 0.033104: question (2.0)
|   |   |   |   |   |   f470 > 0.078266: question (17.0)
|   |   |   |   |   f179 > 0.074224: not_question (16.0)
|   |   |   |   f339 > 0.058077
|   |   |   |   |   f241 <= 0.022915
|   |   |   |   |   |   f364 <= -0.055542: question (53.0)
|   |   |   |   |   |   f364 > -0.055542
|   |   |   |   |   |   |   f324 <= 0.032077: question (20.0/1.0)
|   |   |   |   |   |   |   f324 > 0.032077: not_question (6.0/1.0)
|   |   |   |   |   f241 > 0.022915: not_question (5.0/1.0)
|   |   |   f143 > -0.002121
|   |   |   |   f339 <= 0.070541
|   |   |   |   |   f478 <= -0.085114
|   |   |   |   |   |   f503 <= 0.043757
|   |   |   |   |   |   |   f198 <= -0.02697
|   |   |   |   |   |   |   |   f9 <= 0.029892: question (11.0)
|   |   |   |   |   |   |   |   f9 > 0.029892: not_question (2.0)
|   |   |   |   |   |   |   f198 > -0.02697
|   |   |   |   |   |   |   |   f59 <= -0.047481: question (3.0)
|   |   |   |   |   |   |   |   f59 > -0.047481
|   |   |   |   |   |   |   |   |   f184 <= -0.075279: question (4.0/1.0)
|   |   |   |   |   |   |   |   |   f184 > -0.075279: not_question (28.0)
|   |   |   |   |   |   f503 > 0.043757: question (7.0)
|   |   |   |   |   f478 > -0.085114
|   |   |   |   |   |   f274 <= 0.056697
|   |   |   |   |   |   |   f393 <= -0.012929
|   |   |   |   |   |   |   |   f268 <= -0.003881
|   |   |   |   |   |   |   |   |   f342 <= -0.012386: question (10.0)
|   |   |   |   |   |   |   |   |   f342 > -0.012386
|   |   |   |   |   |   |   |   |   |   f267 <= -0.095769
|   |   |   |   |   |   |   |   |   |   |   f161 <= 0.014921: not_question (3.0)
|   |   |   |   |   |   |   |   |   |   |   f161 > 0.014921: question (7.0)
|   |   |   |   |   |   |   |   |   |   f267 > -0.095769: not_question (16.0)
|   |   |   |   |   |   |   |   f268 > -0.003881
|   |   |   |   |   |   |   |   |   f53 <= -0.026595
|   |   |   |   |   |   |   |   |   |   f128 <= -0.014479: question (3.0)
|   |   |   |   |   |   |   |   |   |   f128 > -0.014479: not_question (5.0)
|   |   |   |   |   |   |   |   |   f53 > -0.026595: not_question (53.0)
|   |   |   |   |   |   |   f393 > -0.012929
|   |   |   |   |   |   |   |   f161 <= 0.03017
|   |   |   |   |   |   |   |   |   f481 <= 0.026624
|   |   |   |   |   |   |   |   |   |   f105 <= 0.000901
|   |   |   |   |   |   |   |   |   |   |   f364 <= -0.067604: question (6.0/1.0)
|   |   |   |   |   |   |   |   |   |   |   f364 > -0.067604
|   |   |   |   |   |   |   |   |   |   |   |   f465 <= 0.067926: not_question (35.0)
|   |   |   |   |   |   |   |   |   |   |   |   f465 > 0.067926: question (4.0/1.0)
|   |   |   |   |   |   |   |   |   |   f105 > 0.000901: not_question (59.0)
|   |   |   |   |   |   |   |   |   f481 > 0.026624
|   |   |   |   |   |   |   |   |   |   f118 <= -0.025478: not_question (2.0)
|   |   |   |   |   |   |   |   |   |   f118 > -0.025478: question (5.0)
|   |   |   |   |   |   |   |   f161 > 0.03017: not_question (304.0/2.0)
|   |   |   |   |   |   f274 > 0.056697
|   |   |   |   |   |   |   f266 <= 0.013483
|   |   |   |   |   |   |   |   f327 <= 0.066098: not_question (16.0)
|   |   |   |   |   |   |   |   f327 > 0.066098: question (4.0)
|   |   |   |   |   |   |   f266 > 0.013483: question (8.0)
|   |   |   |   f339 > 0.070541
|   |   |   |   |   f462 <= -0.018428: not_question (10.0/1.0)
|   |   |   |   |   f462 > -0.018428
|   |   |   |   |   |   f42 <= -0.066463: not_question (2.0)
|   |   |   |   |   |   f42 > -0.066463: question (20.0)
|   |   f14 > -0.027098
|   |   |   f414 <= 0.056085
|   |   |   |   f105 <= 0.026231
|   |   |   |   |   f267 <= -0.086331
|   |   |   |   |   |   f161 <= 0.087842
|   |   |   |   |   |   |   f268 <= 0.002911
|   |   |   |   |   |   |   |   f311 <= -0.085231
|   |   |   |   |   |   |   |   |   f159 <= 0.010193
|   |   |   |   |   |   |   |   |   |   f184 <= -0.053346: question (6.0)
|   |   |   |   |   |   |   |   |   |   f184 > -0.053346
|   |   |   |   |   |   |   |   |   |   |   f141 <= -0.04837: question (3.0)
|   |   |   |   |   |   |   |   |   |   |   f141 > -0.04837: not_question (19.0/1.0)
|   |   |   |   |   |   |   |   |   f159 > 0.010193: question (17.0)
|   |   |   |   |   |   |   |   f311 > -0.085231
|   |   |   |   |   |   |   |   |   f393 <= 0.050823
|   |   |   |   |   |   |   |   |   |   f241 <= 0.037622
|   |   |   |   |   |   |   |   |   |   |   f266 <= 0.01251
|   |   |   |   |   |   |   |   |   |   |   |   f152 <= -0.025729
|   |   |   |   |   |   |   |   |   |   |   |   |   f339 <= 0.045014
|   |   |   |   |   |   |   |   |   |   |   |   |   |   f351 <= -0.023361: question (26.0)
|   |   |   |   |   |   |   |   |   |   |   |   |   |   f351 > -0.023361
|   |   |   |   |   |   |   |   |   |   |   |   |   |   |   f455 <= -0.043513
|   |   |   |   |   |   |   |   |   |   |   |   |   |   |   |   f117 <= -0.057746
|   |   |   |   |   |   |   |   |   |   |   |   |   |   |   |   |   f324 <= -0.000255
|   |   |   |   |   |   |   |   |   |   |   |   |   |   |   |   |   |   f450 <= -0.021264: not_question (2.0)
|   |   |   |   |   |   |   |   |   |   |   |   |   |   |   |   |   |   f450 > -0.021264: question (18.0)
|   |   |   |   |   |   |   |   |   |   |   |   |   |   |   |   |   f324 > -0.000255: not_question (7.0)
|   |   |   |   |   |   |   |   |   |   |   |   |   |   |   |   f117 > -0.057746
|   |   |   |   |   |   |   |   |   |   |   |   |   |   |   |   |   f399 <= 0.017989: question (73.0)
|   |   |   |   |   |   |   |   |   |   |   |   |   |   |   |   |   f399 > 0.017989
|   |   |   |   |   |   |   |   |   |   |   |   |   |   |   |   |   |   f70 <= -0.02233: not_question (3.0)
|   |   |   |   |   |   |   |   |   |   |   |   |   |   |   |   |   |   f70 > -0.02233: question (6.0)
|   |   |   |   |   |   |   |   |   |   |   |   |   |   |   f455 > -0.043513
|   |   |   |   |   |   |   |   |   |   |   |   |   |   |   |   f55 <= 0.042583
|   |   |   |   |   |   |   |   |   |   |   |   |   |   |   |   |   f186 <= 0.022018
|   |   |   |   |   |   |   |   |   |   |   |   |   |   |   |   |   |   f44 <= 0.00589
|   |   |   |   |   |   |   |   |   |   |   |   |   |   |   |   |   |   |   f40 <= 0.062567
|   |   |   |   |   |   |   |   |   |   |   |   |   |   |   |   |   |   |   |   f63 <= 0.06187
|   |   |   |   |   |   |   |   |   |   |   |   |   |   |   |   |   |   |   |   |   f166 <= 0.087597
|   |   |   |   |   |   |   |   |   |   |   |   |   |   |   |   |   |   |   |   |   |   f406 <= 0.032331
|   |   |   |   |   |   |   |   |   |   |   |   |   |   |   |   |   |   |   |   |   |   |   f212 <= 0.052795
|   |   |   |   |   |   |   |   |   |   |   |   |   |   |   |   |   |   |   |   |   |   |   |   f478 <= -0.095871
|   |   |   |   |   |   |   |   |   |   |   |   |   |   |   |   |   |   |   |   |   |   |   |   |   f255 <= -0.029078: not_question (3.0)
|   |   |   |   |   |   |   |   |   |   |   |   |   |   |   |   |   |   |   |   |   |   |   |   |   f255 > -0.029078
|   |   |   |   |   |   |   |   |   |   |   |   |   |   |   |   |   |   |   |   |   |   |   |   |   |   f426 <= 0.027071: question (36.0)
|   |   |   |   |   |   |   |   |   |   |   |   |   |   |   |   |   |   |   |   |   |   |   |   |   |   f426 > 0.027071
|   |   |   |   |   |   |   |   |   |   |   |   |   |   |   |   |   |   |   |   |   |   |   |   |   |   |   f78 <= 0.007461: question (6.0)
|   |   |   |   |   |   |   |   |   |   |   |   |   |   |   |   |   |   |   |   |   |   |   |   |   |   |   f78 > 0.007461: not_question (4.0)
|   |   |   |   |   |   |   |   |   |   |   |   |   |   |   |   |   |   |   |   |   |   |   |   f478 > -0.095871
|   |   |   |   |   |   |   |   |   |   |   |   |   |   |   |   |   |   |   |   |   |   |   |   |   f225 <= 0.027096
|   |   |   |   |   |   |   |   |   |   |   |   |   |   |   |   |   |   |   |   |   |   |   |   |   |   f135 <= -0.035536: question (5.0)
|   |   |   |   |   |   |   |   |   |   |   |   |   |   |   |   |   |   |   |   |   |   |   |   |   |   f135 > -0.035536
|   |   |   |   |   |   |   |   |   |   |   |   |   |   |   |   |   |   |   |   |   |   |   |   |   |   |   f201 <= 0.061495
|   |   |   |   |   |   |   |   |   |   |   |   |   |   |   |   |   |   |   |   |   |   |   |   |   |   |   |   f80 <= -0.053601: question (3.0/1.0)
|   |   |   |   |   |   |   |   |   |   |   |   |   |   |   |   |   |   |   |   |   |   |   |   |   |   |   |   f80 > -0.053601: not_question (21.0)
|   |   |   |   |   |   |   |   |   |   |   |   |   |   |   |   |   |   |   |   |   |   |   |   |   |   |   f201 > 0.061495: question (3.0)
|   |   |   |   |   |   |   |   |   |   |   |   |   |   |   |   |   |   |   |   |   |   |   |   |   f225 > 0.027096: question (7.0)
|   |   |   |   |   |   |   |   |   |   |   |   |   |   |   |   |   |   |   |   |   |   |   f212 > 0.052795: not_question (7.0)
|   |   |   |   |   |   |   |   |   |   |   |   |   |   |   |   |   |   |   |   |   |   f406 > 0.032331: question (19.0)
|   |   |   |   |   |   |   |   |   |   |   |   |   |   |   |   |   |   |   |   |   f166 > 0.087597: not_question (6.0)
|   |   |   |   |   |   |   |   |   |   |   |   |   |   |   |   |   |   |   |   f63 > 0.06187: not_question (7.0)
|   |   |   |   |   |   |   |   |   |   |   |   |   |   |   |   |   |   |   f40 > 0.062567: not_question (8.0)
|   |   |   |   |   |   |   |   |   |   |   |   |   |   |   |   |   |   f44 > 0.00589
|   |   |   |   |   |   |   |   |   |   |   |   |   |   |   |   |   |   |   f440 <= 0.000892
|   |   |   |   |   |   |   |   |   |   |   |   |   |   |   |   |   |   |   |   f503 <= -0.07127: not_question (7.0)
|   |   |   |   |   |   |   |   |   |   |   |   |   |   |   |   |   |   |   |   f503 > -0.07127
|   |   |   |   |   |   |   |   |   |   |   |   |   |   |   |   |   |   |   |   |   f337 <= 0.070617
|   |   |   |   |   |   |   |   |   |   |   |   |   |   |   |   |   |   |   |   |   |   f241 <= -0.007261: question (25.0)
|   |   |   |   |   |   |   |   |   |   |   |   |   |   |   |   |   |   |   |   |   |   f241 > -0.007261
|   |   |   |   |   |   |   |   |   |   |   |   |   |   |   |   |   |   |   |   |   |   |   f497 <= 0.026666
|   |   |   |   |   |   |   |   |   |   |   |   |   |   |   |   |   |   |   |   |   |   |   |   f457 <= -0.027317: question (7.0)
|   |   |   |   |   |   |   |   |   |   |   |   |   |   |   |   |   |   |   |   |   |   |   |   f457 > -0.027317
|   |   |   |   |   |   |   |   |   |   |   |   |   |   |   |   |   |   |   |   |   |   |   |   |   f424 <= 0.04337: not_question (15.0/1.0)
|   |   |   |   |   |   |   |   |   |   |   |   |   |   |   |   |   |   |   |   |   |   |   |   |   f424 > 0.04337: question (4.0)
|   |   |   |   |   |   |   |   |   |   |   |   |   |   |   |   |   |   |   |   |   |   |   f497 > 0.026666: question (12.0)
|   |   |   |   |   |   |   |   |   |   |   |   |   |   |   |   |   |   |   |   |   f337 > 0.070617: not_question (5.0)
|   |   |   |   |   |   |   |   |   |   |   |   |   |   |   |   |   |   |   f440 > 0.000892
|   |   |   |   |   |   |   |   |   |   |   |   |   |   |   |   |   |   |   |   f256 <= -0.047186
|   |   |   |   |   |   |   |   |   |   |   |   |   |   |   |   |   |   |   |   |   f48 <= -0.060515: not_question (5.0)
|   |   |   |   |   |   |   |   |   |   |   |   |   |   |   |   |   |   |   |   |   f48 > -0.060515
|   |   |   |   |   |   |   |   |   |   |   |   |   |   |   |   |   |   |   |   |   |   f332 <= 0.039916: question (21.0/1.0)
|   |   |   |   |   |   |   |   |   |   |   |   |   |   |   |   |   |   |   |   |   |   f332 > 0.039916: not_question (3.0)
|   |   |   |   |   |   |   |   |   |   |   |   |   |   |   |   |   |   |   |   f256 > -0.047186
|   |   |   |   |   |   |   |   |   |   |   |   |   |   |   |   |   |   |   |   |   f126 <= -0.049314
|   |   |   |   |   |   |   |   |   |   |   |   |   |   |   |   |   |   |   |   |   |   f0 <= -0.04335: not_question (2.0)
|   |   |   |   |   |   |   |   |   |   |   |   |   |   |   |   |   |   |   |   |   |   f0 > -0.04335: question (3.0)
|   |   |   |   |   |   |   |   |   |   |   |   |   |   |   |   |   |   |   |   |   f126 > -0.049314: question (82.0)
|   |   |   |   |   |   |   |   |   |   |   |   |   |   |   |   |   f186 > 0.022018
|   |   |   |   |   |   |   |   |   |   |   |   |   |   |   |   |   |   f156 <= 0.010327: question (6.0/1.0)
|   |   |   |   |   |   |   |   |   |   |   |   |   |   |   |   |   |   f156 > 0.010327: not_question (13.0)
|   |   |   |   |   |   |   |   |   |   |   |   |   |   |   |   f55 > 0.042583: question (36.0/1.0)
|   |   |   |   |   |   |   |   |   |   |   |   |   f339 > 0.045014: question (67.0/1.0)
|   |   |   |   |   |   |   |   |   |   |   |   f152 > -0.025729
|   |   |   |   |   |   |   |   |   |   |   |   |   f344 <= 0.011633
|   |   |   |   |   |   |   |   |   |   |   |   |   |   f232 <= -0.05389
|   |   |   |   |   |   |   |   |   |   |   |   |   |   |   f234 <= 0.028609
|   |   |   |   |   |   |   |   |   |   |   |   |   |   |   |   f311 <= -0.053357: not_question (4.0)
|   |   |   |   |   |   |   |   |   |   |   |   |   |   |   |   f311 > -0.053357
|   |   |   |   |   |   |   |   |   |   |   |   |   |   |   |   |   f19 <= -0.034434: not_question (3.0)
|   |   |   |   |   |   |   |   |   |   |   |   |   |   |   |   |   f19 > -0.034434
|   |   |   |   |   |   |   |   |   |   |   |   |   |   |   |   |   |   f339 <= 0.091776
|   |   |   |   |   |   |   |   |   |   |   |   |   |   |   |   |   |   |   f372 <= 0.02314: question (42.0)
|   |   |   |   |   |   |   |   |   |   |   |   |   |   |   |   |   |   |   f372 > 0.02314
|   |   |   |   |   |   |   |   |   |   |   |   |   |   |   |   |   |   |   |   f361 <= -0.019933: not_question (5.0/1.0)
|   |   |   |   |   |   |   |   |   |   |   |   |   |   |   |   |   |   |   |   f361 > -0.019933: question (7.0)
|   |   |   |   |   |   |   |   |   |   |   |   |   |   |   |   |   |   f339 > 0.091776: not_question (3.0)
|   |   |   |   |   |   |   |   |   |   |   |   |   |   |   f234 > 0.028609: not_question (9.0/1.0)
|   |   |   |   |   |   |   |   |   |   |   |   |   |   f232 > -0.05389
|   |   |   |   |   |   |   |   |   |   |   |   |   |   |   f356 <= -0.091425
|   |   |   |   |   |   |   |   |   |   |   |   |   |   |   |   f357 <= -0.032928: not_question (6.0)
|   |   |   |   |   |   |   |   |   |   |   |   |   |   |   |   f357 > -0.032928
|   |   |   |   |   |   |   |   |   |   |   |   |   |   |   |   |   f32 <= 0.065771: question (16.0/1.0)
|   |   |   |   |   |   |   |   |   |   |   |   |   |   |   |   |   f32 > 0.065771: not_question (3.0)
|   |   |   |   |   |   |   |   |   |   |   |   |   |   |   f356 > -0.091425
|   |   |   |   |   |   |   |   |   |   |   |   |   |   |   |   f440 <= 0.093235
|   |   |   |   |   |   |   |   |   |   |   |   |   |   |   |   |   f128 <= 0.000911
|   |   |   |   |   |   |   |   |   |   |   |   |   |   |   |   |   |   f100 <= -0.083274
|   |   |   |   |   |   |   |   |   |   |   |   |   |   |   |   |   |   |   f378 <= -0.010763
|   |   |   |   |   |   |   |   |   |   |   |   |   |   |   |   |   |   |   |   f14 <= 0.014711: question (2.0)
|   |   |   |   |   |   |   |   |   |   |   |   |   |   |   |   |   |   |   |   f14 > 0.014711: not_question (8.0)
|   |   |   |   |   |   |   |   |   |   |   |   |   |   |   |   |   |   |   f378 > -0.010763: question (17.0)
|   |   |   |   |   |   |   |   |   |   |   |   |   |   |   |   |   |   f100 > -0.083274
|   |   |   |   |   |   |   |   |   |   |   |   |   |   |   |   |   |   |   f92 <= 0.034723
|   |   |   |   |   |   |   |   |   |   |   |   |   |   |   |   |   |   |   |   f285 <= -0.017216: question (93.0)
|   |   |   |   |   |   |   |   |   |   |   |   |   |   |   |   |   |   |   |   f285 > -0.017216
|   |   |   |   |   |   |   |   |   |   |   |   |   |   |   |   |   |   |   |   |   f199 <= 0.02228
|   |   |   |   |   |   |   |   |   |   |   |   |   |   |   |   |   |   |   |   |   |   f456 <= 0.066535
|   |   |   |   |   |   |   |   |   |   |   |   |   |   |   |   |   |   |   |   |   |   |   f274 <= -0.068747
|   |   |   |   |   |   |   |   |   |   |   |   |   |   |   |   |   |   |   |   |   |   |   |   f18 <= -0.029751: question (3.0)
|   |   |   |   |   |   |   |   |   |   |   |   |   |   |   |   |   |   |   |   |   |   |   |   f18 > -0.029751: not_question (5.0)
|   |   |   |   |   |   |   |   |   |   |   |   |   |   |   |   |   |   |   |   |   |   |   f274 > -0.068747
|   |   |   |   |   |   |   |   |   |   |   |   |   |   |   |   |   |   |   |   |   |   |   |   f265 <= 0.058794
|   |   |   |   |   |   |   |   |   |   |   |   |   |   |   |   |   |   |   |   |   |   |   |   |   f486 <= -0.053329
|   |   |   |   |   |   |   |   |   |   |   |   |   |   |   |   |   |   |   |   |   |   |   |   |   |   f184 <= -0.037976: not_question (5.0/1.0)
|   |   |   |   |   |   |   |   |   |   |   |   |   |   |   |   |   |   |   |   |   |   |   |   |   |   f184 > -0.037976: question (11.0)
|   |   |   |   |   |   |   |   |   |   |   |   |   |   |   |   |   |   |   |   |   |   |   |   |   f486 > -0.053329: question (103.0/1.0)
|   |   |   |   |   |   |   |   |   |   |   |   |   |   |   |   |   |   |   |   |   |   |   |   f265 > 0.058794
|   |   |   |   |   |   |   |   |   |   |   |   |   |   |   |   |   |   |   |   |   |   |   |   |   f364 <= -0.063859: not_question (7.0/1.0)
|   |   |   |   |   |   |   |   |   |   |   |   |   |   |   |   |   |   |   |   |   |   |   |   |   f364 > -0.063859: question (7.0)
|   |   |   |   |   |   |   |   |   |   |   |   |   |   |   |   |   |   |   |   |   |   f456 > 0.066535
|   |   |   |   |   |   |   |   |   |   |   |   |   |   |   |   |   |   |   |   |   |   |   f48 <= 0.018554: not_question (7.0)
|   |   |   |   |   |   |   |   |   |   |   |   |   |   |   |   |   |   |   |   |   |   |   f48 > 0.018554: question (3.0)
|   |   |   |   |   |   |   |   |   |   |   |   |   |   |   |   |   |   |   |   |   f199 > 0.02228: question (95.0/1.0)
|   |   |   |   |   |   |   |   |   |   |   |   |   |   |   |   |   |   |   f92 > 0.034723: question (247.0)
|   |   |   |   |   |   |   |   |   |   |   |   |   |   |   |   |   f128 > 0.000911
|   |   |   |   |   |   |   |   |   |   |   |   |   |   |   |   |   |   f501 <= -0.055919
|   |   |   |   |   |   |   |   |   |   |   |   |   |   |   |   |   |   |   f445 <= 0.021057
|   |   |   |   |   |   |   |   |   |   |   |   |   |   |   |   |   |   |   |   f235 <= 0.016792
|   |   |   |   |   |   |   |   |   |   |   |   |   |   |   |   |   |   |   |   |   f344 <= -0.000187: question (31.0/1.0)
|   |   |   |   |   |   |   |   |   |   |   |   |   |   |   |   |   |   |   |   |   f344 > -0.000187: not_question (3.0)
|   |   |   |   |   |   |   |   |   |   |   |   |   |   |   |   |   |   |   |   f235 > 0.016792: not_question (4.0)
|   |   |   |   |   |   |   |   |   |   |   |   |   |   |   |   |   |   |   f445 > 0.021057
|   |   |   |   |   |   |   |   |   |   |   |   |   |   |   |   |   |   |   |   f28 <= -0.036413: question (2.0)
|   |   |   |   |   |   |   |   |   |   |   |   |   |   |   |   |   |   |   |   f28 > -0.036413: not_question (11.0)
|   |   |   |   |   |   |   |   |   |   |   |   |   |   |   |   |   |   f501 > -0.055919
|   |   |   |   |   |   |   |   |   |   |   |   |   |   |   |   |   |   |   f401 <= 0.037019
|   |   |   |   |   |   |   |   |   |   |   |   |   |   |   |   |   |   |   |   f132 <= -0.073424
|   |   |   |   |   |   |   |   |   |   |   |   |   |   |   |   |   |   |   |   |   f192 <= 0.033546
|   |   |   |   |   |   |   |   |   |   |   |   |   |   |   |   |   |   |   |   |   |   f3 <= -0.043376: not_question (2.0)
|   |   |   |   |   |   |   |   |   |   |   |   |   |   |   |   |   |   |   |   |   |   f3 > -0.043376: question (12.0)
|   |   |   |   |   |   |   |   |   |   |   |   |   |   |   |   |   |   |   |   |   f192 > 0.033546: not_question (6.0)
|   |   |   |   |   |   |   |   |   |   |   |   |   |   |   |   |   |   |   |   f132 > -0.073424
|   |   |   |   |   |   |   |   |   |   |   |   |   |   |   |   |   |   |   |   |   f510 <= -0.005256
|   |   |   |   |   |   |   |   |   |   |   |   |   |   |   |   |   |   |   |   |   |   f460 <= 0.06383: question (174.0)
|   |   |   |   |   |   |   |   |   |   |   |   |   |   |   |   |   |   |   |   |   |   f460 > 0.06383
|   |   |   |   |   |   |   |   |   |   |   |   |   |   |   |   |   |   |   |   |   |   |   f109 <= -0.023689: not_question (3.0)
|   |   |   |   |   |   |   |   |   |   |   |   |   |   |   |   |   |   |   |   |   |   |   f109 > -0.023689: question (20.0)
|   |   |   |   |   |   |   |   |   |   |   |   |   |   |   |   |   |   |   |   |   f510 > -0.005256
|   |   |   |   |   |   |   |   |   |   |   |   |   |   |   |   |   |   |   |   |   |   f122 <= 0.010064: question (32.0)
|   |   |   |   |   |   |   |   |   |   |   |   |   |   |   |   |   |   |   |   |   |   f122 > 0.010064
|   |   |   |   |   |   |   |   |   |   |   |   |   |   |   |   |   |   |   |   |   |   |   f213 <= -0.021453: question (9.0)
|   |   |   |   |   |   |   |   |   |   |   |   |   |   |   |   |   |   |   |   |   |   |   f213 > -0.021453
|   |   |   |   |   |   |   |   |   |   |   |   |   |   |   |   |   |   |   |   |   |   |   |   f147 <= -0.048291
|   |   |   |   |   |   |   |   |   |   |   |   |   |   |   |   |   |   |   |   |   |   |   |   |   f7 <= 0.074354: question (6.0)
|   |   |   |   |   |   |   |   |   |   |   |   |   |   |   |   |   |   |   |   |   |   |   |   |   f7 > 0.074354: not_question (2.0)
|   |   |   |   |   |   |   |   |   |   |   |   |   |   |   |   |   |   |   |   |   |   |   |   f147 > -0.048291: not_question (9.0)
|   |   |   |   |   |   |   |   |   |   |   |   |   |   |   |   |   |   |   f401 > 0.037019
|   |   |   |   |   |   |   |   |   |   |   |   |   |   |   |   |   |   |   |   f50 <= -0.067858: not_question (5.0)
|   |   |   |   |   |   |   |   |   |   |   |   |   |   |   |   |   |   |   |   f50 > -0.067858
|   |   |   |   |   |   |   |   |   |   |   |   |   |   |   |   |   |   |   |   |   f316 <= 0.062013
|   |   |   |   |   |   |   |   |   |   |   |   |   |   |   |   |   |   |   |   |   |   f17 <= -0.050601: not_question (2.0)
|   |   |   |   |   |   |   |   |   |   |   |   |   |   |   |   |   |   |   |   |   |   f17 > -0.050601: question (25.0/1.0)
|   |   |   |   |   |   |   |   |   |   |   |   |   |   |   |   |   |   |   |   |   f316 > 0.062013: not_question (4.0)
|   |   |   |   |   |   |   |   |   |   |   |   |   |   |   |   f440 > 0.093235
|   |   |   |   |   |   |   |   |   |   |   |   |   |   |   |   |   f184 <= -0.006006
|   |   |   |   |   |   |   |   |   |   |   |   |   |   |   |   |   |   f93 <= -0.010509: not_question (4.0)
|   |   |   |   |   |   |   |   |   |   |   |   |   |   |   |   |   |   f93 > -0.010509: question (15.0)
|   |   |   |   |   |   |   |   |   |   |   |   |   |   |   |   |   f184 > -0.006006: not_question (6.0)
|   |   |   |   |   |   |   |   |   |   |   |   |   f344 > 0.011633
|   |   |   |   |   |   |   |   |   |   |   |   |   |   f194 <= -0.035531
|   |   |   |   |   |   |   |   |   |   |   |   |   |   |   f24 <= 0.027658: question (15.0/1.0)
|   |   |   |   |   |   |   |   |   |   |   |   |   |   |   f24 > 0.027658: not_question (3.0)
|   |   |   |   |   |   |   |   |   |   |   |   |   |   f194 > -0.035531
|   |   |   |   |   |   |   |   |   |   |   |   |   |   |   f359 <= 0.074324: question (199.0)
|   |   |   |   |   |   |   |   |   |   |   |   |   |   |   f359 > 0.074324
|   |   |   |   |   |   |   |   |   |   |   |   |   |   |   |   f111 <= -0.020651: not_question (2.0)
|   |   |   |   |   |   |   |   |   |   |   |   |   |   |   |   f111 > -0.020651: question (9.0)
|   |   |   |   |   |   |   |   |   |   |   f266 > 0.01251
|   |   |   |   |   |   |   |   |   |   |   |   f77 <= 0.03779
|   |   |   |   |   |   |   |   |   |   |   |   |   f174 <= 0.112031
|   |   |   |   |   |   |   |   |   |   |   |   |   |   f339 <= 0.051333
|   |   |   |   |   |   |   |   |   |   |   |   |   |   |   f114 <= -0.05794
|   |   |   |   |   |   |   |   |   |   |   |   |   |   |   |   f329 <= 0.065889
|   |   |   |   |   |   |   |   |   |   |   |   |   |   |   |   |   f333 <= 0.005161
|   |   |   |   |   |   |   |   |   |   |   |   |   |   |   |   |   |   f289 <= 0.057164
|   |   |   |   |   |   |   |   |   |   |   |   |   |   |   |   |   |   |   f126 <= -0.059776
|   |   |   |   |   |   |   |   |   |   |   |   |   |   |   |   |   |   |   |   f106 <= -0.003222: question (4.0)
|   |   |   |   |   |   |   |   |   |   |   |   |   |   |   |   |   |   |   |   f106 > -0.003222: not_question (2.0)
|   |   |   |   |   |   |   |   |   |   |   |   |   |   |   |   |   |   |   f126 > -0.059776: question (98.0)
|   |   |   |   |   |   |   |   |   |   |   |   |   |   |   |   |   |   f289 > 0.057164
|   |   |   |   |   |   |   |   |   |   |   |   |   |   |   |   |   |   |   f42 <= -0.013977: not_question (3.0)
|   |   |   |   |   |   |   |   |   |   |   |   |   |   |   |   |   |   |   f42 > -0.013977: question (3.0)
|   |   |   |   |   |   |   |   |   |   |   |   |   |   |   |   |   f333 > 0.005161
|   |   |   |   |   |   |   |   |   |   |   |   |   |   |   |   |   |   f510 <= -0.003384
|   |   |   |   |   |   |   |   |   |   |   |   |   |   |   |   |   |   |   f137 <= -0.049237: not_question (3.0)
|   |   |   |   |   |   |   |   |   |   |   |   |   |   |   |   |   |   |   f137 > -0.049237
|   |   |   |   |   |   |   |   |   |   |   |   |   |   |   |   |   |   |   |   f50 <= -0.005645: question (30.0)
|   |   |   |   |   |   |   |   |   |   |   |   |   |   |   |   |   |   |   |   f50 > -0.005645: not_question (3.0/1.0)
|   |   |   |   |   |   |   |   |   |   |   |   |   |   |   |   |   |   f510 > -0.003384: not_question (9.0/1.0)
|   |   |   |   |   |   |   |   |   |   |   |   |   |   |   |   f329 > 0.065889
|   |   |   |   |   |   |   |   |   |   |   |   |   |   |   |   |   f511 <= -0.043166: question (5.0)
|   |   |   |   |   |   |   |   |   |   |   |   |   |   |   |   |   f511 > -0.043166: not_question (11.0/1.0)
|   |   |   |   |   |   |   |   |   |   |   |   |   |   |   f114 > -0.05794
|   |   |   |   |   |   |   |   |   |   |   |   |   |   |   |   f427 <= 0.050131
|   |   |   |   |   |   |   |   |   |   |   |   |   |   |   |   |   f473 <= 0.046071
|   |   |   |   |   |   |   |   |   |   |   |   |   |   |   |   |   |   f22 <= -0.031585
|   |   |   |   |   |   |   |   |   |   |   |   |   |   |   |   |   |   |   f380 <= 0.022822
|   |   |   |   |   |   |   |   |   |   |   |   |   |   |   |   |   |   |   |   f397 <= 0.06638
|   |   |   |   |   |   |   |   |   |   |   |   |   |   |   |   |   |   |   |   |   f497 <= 0.051659
|   |   |   |   |   |   |   |   |   |   |   |   |   |   |   |   |   |   |   |   |   |   f269 <= 0.043313
|   |   |   |   |   |   |   |   |   |   |   |   |   |   |   |   |   |   |   |   |   |   |   f470 <= 0.069066
|   |   |   |   |   |   |   |   |   |   |   |   |   |   |   |   |   |   |   |   |   |   |   |   f23 <= -0.068788
|   |   |   |   |   |   |   |   |   |   |   |   |   |   |   |   |   |   |   |   |   |   |   |   |   f9 <= -0.025711: question (3.0)
|   |   |   |   |   |   |   |   |   |   |   |   |   |   |   |   |   |   |   |   |   |   |   |   |   f9 > -0.025711: not_question (5.0)
|   |   |   |   |   |   |   |   |   |   |   |   |   |   |   |   |   |   |   |   |   |   |   |   f23 > -0.068788
|   |   |   |   |   |   |   |   |   |   |   |   |   |   |   |   |   |   |   |   |   |   |   |   |   f335 <= 0.011805
|   |   |   |   |   |   |   |   |   |   |   |   |   |   |   |   |   |   |   |   |   |   |   |   |   |   f44 <= 0.072076
|   |   |   |   |   |   |   |   |   |   |   |   |   |   |   |   |   |   |   |   |   |   |   |   |   |   |   f38 <= 0.066418
|   |   |   |   |   |   |   |   |   |   |   |   |   |   |   |   |   |   |   |   |   |   |   |   |   |   |   |   f506 <= -0.051924
|   |   |   |   |   |   |   |   |   |   |   |   |   |   |   |   |   |   |   |   |   |   |   |   |   |   |   |   |   f36 <= -0.010448: not_question (4.0)
|   |   |   |   |   |   |   |   |   |   |   |   |   |   |   |   |   |   |   |   |   |   |   |   |   |   |   |   |   f36 > -0.010448: question (7.0)
|   |   |   |   |   |   |   |   |   |   |   |   |   |   |   |   |   |   |   |   |   |   |   |   |   |   |   |   f506 > -0.051924: question (30.0)
|   |   |   |   |   |   |   |   |   |   |   |   |   |   |   |   |   |   |   |   |   |   |   |   |   |   |   f38 > 0.066418: not_question (3.0)
|   |   |   |   |   |   |   |   |   |   |   |   |   |   |   |   |   |   |   |   |   |   |   |   |   |   f44 > 0.072076: not_question (3.0)
|   |   |   |   |   |   |   |   |   |   |   |   |   |   |   |   |   |   |   |   |   |   |   |   |   f335 > 0.011805: question (78.0/1.0)
|   |   |   |   |   |   |   |   |   |   |   |   |   |   |   |   |   |   |   |   |   |   |   f470 > 0.069066
|   |   |   |   |   |   |   |   |   |   |   |   |   |   |   |   |   |   |   |   |   |   |   |   f106 <= -0.005558: not_question (6.0)
|   |   |   |   |   |   |   |   |   |   |   |   |   |   |   |   |   |   |   |   |   |   |   |   f106 > -0.005558: question (3.0)
|   |   |   |   |   |   |   |   |   |   |   |   |   |   |   |   |   |   |   |   |   |   f269 > 0.043313
|   |   |   |   |   |   |   |   |   |   |   |   |   |   |   |   |   |   |   |   |   |   |   f271 <= -0.002384: not_question (9.0)
|   |   |   |   |   |   |   |   |   |   |   |   |   |   |   |   |   |   |   |   |   |   |   f271 > -0.002384
|   |   |   |   |   |   |   |   |   |   |   |   |   |   |   |   |   |   |   |   |   |   |   |   f36 <= -0.040606: not_question (2.0)
|   |   |   |   |   |   |   |   |   |   |   |   |   |   |   |   |   |   |   |   |   |   |   |   f36 > -0.040606: question (8.0)
|   |   |   |   |   |   |   |   |   |   |   |   |   |   |   |   |   |   |   |   |   f497 > 0.051659: question (38.0)
|   |   |   |   |   |   |   |   |   |   |   |   |   |   |   |   |   |   |   |   f397 > 0.06638
|   |   |   |   |   |   |   |   |   |   |   |   |   |   |   |   |   |   |   |   |   f481 <= 0.012097: not_question (12.0/1.0)
|   |   |   |   |   |   |   |   |   |   |   |   |   |   |   |   |   |   |   |   |   f481 > 0.012097: question (9.0/1.0)
|   |   |   |   |   |   |   |   |   |   |   |   |   |   |   |   |   |   |   f380 > 0.022822: question (47.0)
|   |   |   |   |   |   |   |   |   |   |   |   |   |   |   |   |   |   f22 > -0.031585
|   |   |   |   |   |   |   |   |   |   |   |   |   |   |   |   |   |   |   f85 <= 0.033836
|   |   |   |   |   |   |   |   |   |   |   |   |   |   |   |   |   |   |   |   f354 <= 0.055215
|   |   |   |   |   |   |   |   |   |   |   |   |   |   |   |   |   |   |   |   |   f392 <= 0.054048
|   |   |   |   |   |   |   |   |   |   |   |   |   |   |   |   |   |   |   |   |   |   f63 <= -0.052597: question (115.0)
|   |   |   |   |   |   |   |   |   |   |   |   |   |   |   |   |   |   |   |   |   |   f63 > -0.052597
|   |   |   |   |   |   |   |   |   |   |   |   |   |   |   |   |   |   |   |   |   |   |   f484 <= 0.021765
|   |   |   |   |   |   |   |   |   |   |   |   |   |   |   |   |   |   |   |   |   |   |   |   f364 <= -0.058018
|   |   |   |   |   |   |   |   |   |   |   |   |   |   |   |   |   |   |   |   |   |   |   |   |   f173 <= -0.05409: question (73.0/1.0)
|   |   |   |   |   |   |   |   |   |   |   |   |   |   |   |   |   |   |   |   |   |   |   |   |   f173 > -0.05409
|   |   |   |   |   |   |   |   |   |   |   |   |   |   |   |   |   |   |   |   |   |   |   |   |   |   f370 <= -0.075085
|   |   |   |   |   |   |   |   |   |   |   |   |   |   |   |   |   |   |   |   |   |   |   |   |   |   |   f151 <= 0.009175
|   |   |   |   |   |   |   |   |   |   |   |   |   |   |   |   |   |   |   |   |   |   |   |   |   |   |   |   f47 <= 0.026504: not_question (9.0)
|   |   |   |   |   |   |   |   |   |   |   |   |   |   |   |   |   |   |   |   |   |   |   |   |   |   |   |   f47 > 0.026504: question (2.0)
|   |   |   |   |   |   |   |   |   |   |   |   |   |   |   |   |   |   |   |   |   |   |   |   |   |   |   f151 > 0.009175
|   |   |   |   |   |   |   |   |   |   |   |   |   |   |   |   |   |   |   |   |   |   |   |   |   |   |   |   f389 <= 0.014753: question (15.0)
|   |   |   |   |   |   |   |   |   |   |   |   |   |   |   |   |   |   |   |   |   |   |   |   |   |   |   |   f389 > 0.014753: not_question (2.0)
|   |   |   |   |   |   |   |   |   |   |   |   |   |   |   |   |   |   |   |   |   |   |   |   |   |   f370 > -0.075085
|   |   |   |   |   |   |   |   |   |   |   |   |   |   |   |   |   |   |   |   |   |   |   |   |   |   |   f53 <= -0.0304
|   |   |   |   |   |   |   |   |   |   |   |   |   |   |   |   |   |   |   |   |   |   |   |   |   |   |   |   f28 <= 0.01106: question (10.0)
|   |   |   |   |   |   |   |   |   |   |   |   |   |   |   |   |   |   |   |   |   |   |   |   |   |   |   |   f28 > 0.01106
|   |   |   |   |   |   |   |   |   |   |   |   |   |   |   |   |   |   |   |   |   |   |   |   |   |   |   |   |   f23 <= -0.017194: question (2.0)
|   |   |   |   |   |   |   |   |   |   |   |   |   |   |   |   |   |   |   |   |   |   |   |   |   |   |   |   |   f23 > -0.017194: not_question (7.0)
|   |   |   |   |   |   |   |   |   |   |   |   |   |   |   |   |   |   |   |   |   |   |   |   |   |   |   f53 > -0.0304
|   |   |   |   |   |   |   |   |   |   |   |   |   |   |   |   |   |   |   |   |   |   |   |   |   |   |   |   f42 <= -0.07286
|   |   |   |   |   |   |   |   |   |   |   |   |   |   |   |   |   |   |   |   |   |   |   |   |   |   |   |   |   f2 <= 0.024982: not_question (3.0)
|   |   |   |   |   |   |   |   |   |   |   |   |   |   |   |   |   |   |   |   |   |   |   |   |   |   |   |   |   f2 > 0.024982: question (3.0)
|   |   |   |   |   |   |   |   |   |   |   |   |   |   |   |   |   |   |   |   |   |   |   |   |   |   |   |   f42 > -0.07286
|   |   |   |   |   |   |   |   |   |   |   |   |   |   |   |   |   |   |   |   |   |   |   |   |   |   |   |   |   f50 <= -0.060779
|   |   |   |   |   |   |   |   |   |   |   |   |   |   |   |   |   |   |   |   |   |   |   |   |   |   |   |   |   |   f256 <= 0.011117: question (9.0)
|   |   |   |   |   |   |   |   |   |   |   |   |   |   |   |   |   |   |   |   |   |   |   |   |   |   |   |   |   |   f256 > 0.011117: not_question (3.0)
|   |   |   |   |   |   |   |   |   |   |   |   |   |   |   |   |   |   |   |   |   |   |   |   |   |   |   |   |   f50 > -0.060779: question (95.0)
|   |   |   |   |   |   |   |   |   |   |   |   |   |   |   |   |   |   |   |   |   |   |   |   f364 > -0.058018: question (61.0)
|   |   |   |   |   |   |   |   |   |   |   |   |   |   |   |   |   |   |   |   |   |   |   f484 > 0.021765: question (88.0)
|   |   |   |   |   |   |   |   |   |   |   |   |   |   |   |   |   |   |   |   |   f392 > 0.054048
|   |   |   |   |   |   |   |   |   |   |   |   |   |   |   |   |   |   |   |   |   |   f153 <= 0.06631
|   |   |   |   |   |   |   |   |   |   |   |   |   |   |   |   |   |   |   |   |   |   |   f69 <= -0.033661
|   |   |   |   |   |   |   |   |   |   |   |   |   |   |   |   |   |   |   |   |   |   |   |   f37 <= -0.023187: not_question (6.0)
|   |   |   |   |   |   |   |   |   |   |   |   |   |   |   |   |   |   |   |   |   |   |   |   f37 > -0.023187: question (6.0/1.0)
|   |   |   |   |   |   |   |   |   |   |   |   |   |   |   |   |   |   |   |   |   |   |   f69 > -0.033661
|   |   |   |   |   |   |   |   |   |   |   |   |   |   |   |   |   |   |   |   |   |   |   |   f484 <= -0.049092
|   |   |   |   |   |   |   |   |   |   |   |   |   |   |   |   |   |   |   |   |   |   |   |   |   f122 <= 0.026462: not_question (4.0)
|   |   |   |   |   |   |   |   |   |   |   |   |   |   |   |   |   |   |   |   |   |   |   |   |   f122 > 0.026462: question (4.0)
|   |   |   |   |   |   |   |   |   |   |   |   |   |   |   |   |   |   |   |   |   |   |   |   f484 > -0.049092: question (59.0/1.0)
|   |   |   |   |   |   |   |   |   |   |   |   |   |   |   |   |   |   |   |   |   |   f153 > 0.06631: not_question (5.0)
|   |   |   |   |   |   |   |   |   |   |   |   |   |   |   |   |   |   |   |   f354 > 0.055215
|   |   |   |   |   |   |   |   |   |   |   |   |   |   |   |   |   |   |   |   |   f91 <= 0.035889
|   |   |   |   |   |   |   |   |   |   |   |   |   |   |   |   |   |   |   |   |   |   f178 <= 0.056301
|   |   |   |   |   |   |   |   |   |   |   |   |   |   |   |   |   |   |   |   |   |   |   f276 <= -0.088545: not_question (4.0/1.0)
|   |   |   |   |   |   |   |   |   |   |   |   |   |   |   |   |   |   |   |   |   |   |   f276 > -0.088545
|   |   |   |   |   |   |   |   |   |   |   |   |   |   |   |   |   |   |   |   |   |   |   |   f396 <= -0.046275
|   |   |   |   |   |   |   |   |   |   |   |   |   |   |   |   |   |   |   |   |   |   |   |   |   f6 <= 0.016661: not_question (3.0)
|   |   |   |   |   |   |   |   |   |   |   |   |   |   |   |   |   |   |   |   |   |   |   |   |   f6 > 0.016661: question (5.0)
|   |   |   |   |   |   |   |   |   |   |   |   |   |   |   |   |   |   |   |   |   |   |   |   f396 > -0.046275: question (60.0)
|   |   |   |   |   |   |   |   |   |   |   |   |   |   |   |   |   |   |   |   |   |   f178 > 0.056301
|   |   |   |   |   |   |   |   |   |   |   |   |   |   |   |   |   |   |   |   |   |   |   f13 <= 0.005286: question (2.0)
|   |   |   |   |   |   |   |   |   |   |   |   |   |   |   |   |   |   |   |   |   |   |   f13 > 0.005286: not_question (6.0)
|   |   |   |   |   |   |   |   |   |   |   |   |   |   |   |   |   |   |   |   |   f91 > 0.035889: not_question (6.0)
|   |   |   |   |   |   |   |   |   |   |   |   |   |   |   |   |   |   |   f85 > 0.033836
|   |   |   |   |   |   |   |   |   |   |   |   |   |   |   |   |   |   |   |   f497 <= -0.011326
|   |   |   |   |   |   |   |   |   |   |   |   |   |   |   |   |   |   |   |   |   f144 <= 0.049917
|   |   |   |   |   |   |   |   |   |   |   |   |   |   |   |   |   |   |   |   |   |   f225 <= -0.046023
|   |   |   |   |   |   |   |   |   |   |   |   |   |   |   |   |   |   |   |   |   |   |   f15 <= 0.039547: question (3.0)
|   |   |   |   |   |   |   |   |   |   |   |   |   |   |   |   |   |   |   |   |   |   |   f15 > 0.039547: not_question (3.0)
|   |   |   |   |   |   |   |   |   |   |   |   |   |   |   |   |   |   |   |   |   |   f225 > -0.046023: question (92.0/1.0)
|   |   |   |   |   |   |   |   |   |   |   |   |   |   |   |   |   |   |   |   |   f144 > 0.049917
|   |   |   |   |   |   |   |   |   |   |   |   |   |   |   |   |   |   |   |   |   |   f25 <= -0.007028: not_question (4.0)
|   |   |   |   |   |   |   |   |   |   |   |   |   |   |   |   |   |   |   |   |   |   f25 > -0.007028: question (3.0)
|   |   |   |   |   |   |   |   |   |   |   |   |   |   |   |   |   |   |   |   f497 > -0.011326: question (221.0)
|   |   |   |   |   |   |   |   |   |   |   |   |   |   |   |   |   f473 > 0.046071: question (240.0/4.0)
|   |   |   |   |   |   |   |   |   |   |   |   |   |   |   |   f427 > 0.050131
|   |   |   |   |   |   |   |   |   |   |   |   |   |   |   |   |   f238 <= 0.052782: question (279.0)
|   |   |   |   |   |   |   |   |   |   |   |   |   |   |   |   |   f238 > 0.052782
|   |   |   |   |   |   |   |   |   |   |   |   |   |   |   |   |   |   f105 <= -0.070667: not_question (2.0)
|   |   |   |   |   |   |   |   |   |   |   |   |   |   |   |   |   |   f105 > -0.070667: question (13.0)
|   |   |   |   |   |   |   |   |   |   |   |   |   |   f339 > 0.051333
|   |   |   |   |   |   |   |   |   |   |   |   |   |   |   f98 <= 0.052893
|   |   |   |   |   |   |   |   |   |   |   |   |   |   |   |   f337 <= 0.042396: question (429.0/1.0)
|   |   |   |   |   |   |   |   |   |   |   |   |   |   |   |   f337 > 0.042396
|   |   |   |   |   |   |   |   |   |   |   |   |   |   |   |   |   f190 <= 0.037169: question (36.0)
|   |   |   |   |   |   |   |   |   |   |   |   |   |   |   |   |   f190 > 0.037169
|   |   |   |   |   |   |   |   |   |   |   |   |   |   |   |   |   |   f185 <= -0.002746: not_question (4.0)
|   |   |   |   |   |   |   |   |   |   |   |   |   |   |   |   |   |   f185 > -0.002746: question (5.0)
|   |   |   |   |   |   |   |   |   |   |   |   |   |   |   f98 > 0.052893
|   |   |   |   |   |   |   |   |   |   |   |   |   |   |   |   f198 <= 0.057823: question (23.0/1.0)
|   |   |   |   |   |   |   |   |   |   |   |   |   |   |   |   f198 > 0.057823: not_question (4.0)
|   |   |   |   |   |   |   |   |   |   |   |   |   f174 > 0.112031
|   |   |   |   |   |   |   |   |   |   |   |   |   |   f77 <= 0.019103
|   |   |   |   |   |   |   |   |   |   |   |   |   |   |   f205 <= -0.06872: not_question (3.0)
|   |   |   |   |   |   |   |   |   |   |   |   |   |   |   f205 > -0.06872
|   |   |   |   |   |   |   |   |   |   |   |   |   |   |   |   f343 <= 0.029267: question (26.0)
|   |   |   |   |   |   |   |   |   |   |   |   |   |   |   |   f343 > 0.029267
|   |   |   |   |   |   |   |   |   |   |   |   |   |   |   |   |   f38 <= 0.009322: not_question (4.0)
|   |   |   |   |   |   |   |   |   |   |   |   |   |   |   |   |   f38 > 0.009322: question (3.0)
|   |   |   |   |   |   |   |   |   |   |   |   |   |   f77 > 0.019103: not_question (4.0)
|   |   |   |   |   |   |   |   |   |   |   |   f77 > 0.03779
|   |   |   |   |   |   |   |   |   |   |   |   |   f355 <= -0.016488
|   |   |   |   |   |   |   |   |   |   |   |   |   |   f10 <= 0.015075: not_question (9.0)
|   |   |   |   |   |   |   |   |   |   |   |   |   |   f10 > 0.015075: question (4.0)
|   |   |   |   |   |   |   |   |   |   |   |   |   f355 > -0.016488
|   |   |   |   |   |   |   |   |   |   |   |   |   |   f282 <= -0.027563: question (43.0)
|   |   |   |   |   |   |   |   |   |   |   |   |   |   f282 > -0.027563
|   |   |   |   |   |   |   |   |   |   |   |   |   |   |   f506 <= -0.063973
|   |   |   |   |   |   |   |   |   |   |   |   |   |   |   |   f13 <= 0.024444: question (4.0)
|   |   |   |   |   |   |   |   |   |   |   |   |   |   |   |   f13 > 0.024444: not_question (7.0)
|   |   |   |   |   |   |   |   |   |   |   |   |   |   |   f506 > -0.063973
|   |   |   |   |   |   |   |   |   |   |   |   |   |   |   |   f502 <= 0.036783
|   |   |   |   |   |   |   |   |   |   |   |   |   |   |   |   |   f452 <= 0.071387: question (62.0/1.0)
|   |   |   |   |   |   |   |   |   |   |   |   |   |   |   |   |   f452 > 0.071387
|   |   |   |   |   |   |   |   |   |   |   |   |   |   |   |   |   |   f243 <= -0.016237: not_question (5.0)
|   |   |   |   |   |   |   |   |   |   |   |   |   |   |   |   |   |   f243 > -0.016237: question (6.0)
|   |   |   |   |   |   |   |   |   |   |   |   |   |   |   |   f502 > 0.036783
|   |   |   |   |   |   |   |   |   |   |   |   |   |   |   |   |   f19 <= -0.0019: question (3.0)
|   |   |   |   |   |   |   |   |   |   |   |   |   |   |   |   |   f19 > -0.0019: not_question (5.0)
|   |   |   |   |   |   |   |   |   |   f241 > 0.037622
|   |   |   |   |   |   |   |   |   |   |   f245 <= 0.024988
|   |   |   |   |   |   |   |   |   |   |   |   f467 <= -0.082741: not_question (5.0)
|   |   |   |   |   |   |   |   |   |   |   |   f467 > -0.082741
|   |   |   |   |   |   |   |   |   |   |   |   |   f181 <= -0.036939: not_question (7.0/1.0)
|   |   |   |   |   |   |   |   |   |   |   |   |   f181 > -0.036939
|   |   |   |   |   |   |   |   |   |   |   |   |   |   f267 <= -0.092749
|   |   |   |   |   |   |   |   |   |   |   |   |   |   |   f278 <= -0.02799
|   |   |   |   |   |   |   |   |   |   |   |   |   |   |   |   f226 <= 0.01057: question (6.0)
|   |   |   |   |   |   |   |   |   |   |   |   |   |   |   |   f226 > 0.01057: not_question (4.0)
|   |   |   |   |   |   |   |   |   |   |   |   |   |   |   f278 > -0.02799: question (57.0)
|   |   |   |   |   |   |   |   |   |   |   |   |   |   f267 > -0.092749
|   |   |   |   |   |   |   |   |   |   |   |   |   |   |   f4 <= 0.026612: not_question (6.0)
|   |   |   |   |   |   |   |   |   |   |   |   |   |   |   f4 > 0.026612: question (2.0)
|   |   |   |   |   |   |   |   |   |   |   f245 > 0.024988: not_question (7.0)
|   |   |   |   |   |   |   |   |   f393 > 0.050823
|   |   |   |   |   |   |   |   |   |   f494 <= -0.029866
|   |   |   |   |   |   |   |   |   |   |   f55 <= 0.030637
|   |   |   |   |   |   |   |   |   |   |   |   f279 <= -0.056226: question (3.0)
|   |   |   |   |   |   |   |   |   |   |   |   f279 > -0.056226
|   |   |   |   |   |   |   |   |   |   |   |   |   f365 <= -0.055326
|   |   |   |   |   |   |   |   |   |   |   |   |   |   f6 <= 0.00097: not_question (2.0)
|   |   |   |   |   |   |   |   |   |   |   |   |   |   f6 > 0.00097: question (4.0)
|   |   |   |   |   |   |   |   |   |   |   |   |   f365 > -0.055326: not_question (19.0)
|   |   |   |   |   |   |   |   |   |   |   f55 > 0.030637: question (6.0)
|   |   |   |   |   |   |   |   |   |   f494 > -0.029866
|   |   |   |   |   |   |   |   |   |   |   f182 <= -0.059363
|   |   |   |   |   |   |   |   |   |   |   |   f143 <= -0.029683
|   |   |   |   |   |   |   |   |   |   |   |   |   f16 <= 0.03064: question (8.0)
|   |   |   |   |   |   |   |   |   |   |   |   |   f16 > 0.03064: not_question (2.0)
|   |   |   |   |   |   |   |   |   |   |   |   f143 > -0.029683: not_question (12.0)
|   |   |   |   |   |   |   |   |   |   |   f182 > -0.059363
|   |   |   |   |   |   |   |   |   |   |   |   f206 <= 0.051657
|   |   |   |   |   |   |   |   |   |   |   |   |   f30 <= -0.101919: question (40.0)
|   |   |   |   |   |   |   |   |   |   |   |   |   f30 > -0.101919
|   |   |   |   |   |   |   |   |   |   |   |   |   |   f469 <= 0.025244
|   |   |   |   |   |   |   |   |   |   |   |   |   |   |   f14 <= -0.009914
|   |   |   |   |   |   |   |   |   |   |   |   |   |   |   |   f10 <= 0.051461: not_question (11.0/1.0)
|   |   |   |   |   |   |   |   |   |   |   |   |   |   |   |   f10 > 0.051461: question (3.0)
|   |   |   |   |   |   |   |   |   |   |   |   |   |   |   f14 > -0.009914
|   |   |   |   |   |   |   |   |   |   |   |   |   |   |   |   f263 <= -0.066429: question (29.0)
|   |   |   |   |   |   |   |   |   |   |   |   |   |   |   |   f263 > -0.066429
|   |   |   |   |   |   |   |   |   |   |   |   |   |   |   |   |   f360 <= -0.058768: question (18.0)
|   |   |   |   |   |   |   |   |   |   |   |   |   |   |   |   |   f360 > -0.058768
|   |   |   |   |   |   |   |   |   |   |   |   |   |   |   |   |   |   f113 <= 0.042696
|   |   |   |   |   |   |   |   |   |   |   |   |   |   |   |   |   |   |   f203 <= -0.055929
|   |   |   |   |   |   |   |   |   |   |   |   |   |   |   |   |   |   |   |   f3 <= -0.015189: question (2.0)
|   |   |   |   |   |   |   |   |   |   |   |   |   |   |   |   |   |   |   |   f3 > -0.015189: not_question (7.0)
|   |   |   |   |   |   |   |   |   |   |   |   |   |   |   |   |   |   |   f203 > -0.055929
|   |   |   |   |   |   |   |   |   |   |   |   |   |   |   |   |   |   |   |   f35 <= -0.001581
|   |   |   |   |   |   |   |   |   |   |   |   |   |   |   |   |   |   |   |   |   f142 <= -0.046877
|   |   |   |   |   |   |   |   |   |   |   |   |   |   |   |   |   |   |   |   |   |   f20 <= -0.036772: not_question (5.0/1.0)
|   |   |   |   |   |   |   |   |   |   |   |   |   |   |   |   |   |   |   |   |   |   f20 > -0.036772: question (6.0)
|   |   |   |   |   |   |   |   |   |   |   |   |   |   |   |   |   |   |   |   |   f142 > -0.046877: question (59.0)
|   |   |   |   |   |   |   |   |   |   |   |   |   |   |   |   |   |   |   |   f35 > -0.001581
|   |   |   |   |   |   |   |   |   |   |   |   |   |   |   |   |   |   |   |   |   f44 <= 0.055778
|   |   |   |   |   |   |   |   |   |   |   |   |   |   |   |   |   |   |   |   |   |   f364 <= -0.050382
|   |   |   |   |   |   |   |   |   |   |   |   |   |   |   |   |   |   |   |   |   |   |   f278 <= -0.038118: not_question (5.0)
|   |   |   |   |   |   |   |   |   |   |   |   |   |   |   |   |   |   |   |   |   |   |   f278 > -0.038118
|   |   |   |   |   |   |   |   |   |   |   |   |   |   |   |   |   |   |   |   |   |   |   |   f160 <= 0.033956
|   |   |   |   |   |   |   |   |   |   |   |   |   |   |   |   |   |   |   |   |   |   |   |   |   f423 <= 0.022185: question (25.0)
|   |   |   |   |   |   |   |   |   |   |   |   |   |   |   |   |   |   |   |   |   |   |   |   |   f423 > 0.022185
|   |   |   |   |   |   |   |   |   |   |   |   |   |   |   |   |   |   |   |   |   |   |   |   |   |   f5 <= -0.060762: question (2.0)
|   |   |   |   |   |   |   |   |   |   |   |   |   |   |   |   |   |   |   |   |   |   |   |   |   |   f5 > -0.060762: not_question (4.0)
|   |   |   |   |   |   |   |   |   |   |   |   |   |   |   |   |   |   |   |   |   |   |   |   f160 > 0.033956
|   |   |   |   |   |   |   |   |   |   |   |   |   |   |   |   |   |   |   |   |   |   |   |   |   f275 <= -0.031572: question (2.0)
|   |   |   |   |   |   |   |   |   |   |   |   |   |   |   |   |   |   |   |   |   |   |   |   |   f275 > -0.031572: not_question (7.0)
|   |   |   |   |   |   |   |   |   |   |   |   |   |   |   |   |   |   |   |   |   |   f364 > -0.050382: not_question (8.0)
|   |   |   |   |   |   |   |   |   |   |   |   |   |   |   |   |   |   |   |   |   f44 > 0.055778: question (15.0)
|   |   |   |   |   |   |   |   |   |   |   |   |   |   |   |   |   |   f113 > 0.042696
|   |   |   |   |   |   |   |   |   |   |   |   |   |   |   |   |   |   |   f12 <= -0.025484: not_question (11.0)
|   |   |   |   |   |   |   |   |   |   |   |   |   |   |   |   |   |   |   f12 > -0.025484
|   |   |   |   |   |   |   |   |   |   |   |   |   |   |   |   |   |   |   |   f48 <= -0.019842
|   |   |   |   |   |   |   |   |   |   |   |   |   |   |   |   |   |   |   |   |   f307 <= -0.055297: question (3.0)
|   |   |   |   |   |   |   |   |   |   |   |   |   |   |   |   |   |   |   |   |   f307 > -0.055297: not_question (7.0)
|   |   |   |   |   |   |   |   |   |   |   |   |   |   |   |   |   |   |   |   f48 > -0.019842: question (10.0)
|   |   |   |   |   |   |   |   |   |   |   |   |   |   f469 > 0.025244
|   |   |   |   |   |   |   |   |   |   |   |   |   |   |   f36 <= -0.079651: not_question (3.0/1.0)
|   |   |   |   |   |   |   |   |   |   |   |   |   |   |   f36 > -0.079651: question (46.0)
|   |   |   |   |   |   |   |   |   |   |   |   f206 > 0.051657: question (46.0)
|   |   |   |   |   |   |   f268 > 0.002911
|   |   |   |   |   |   |   |   f495 <= -0.034561
|   |   |   |   |   |   |   |   |   f181 <= -0.015737
|   |   |   |   |   |   |   |   |   |   f143 <= 0.002649
|   |   |   |   |   |   |   |   |   |   |   f98 <= 0.058144
|   |   |   |   |   |   |   |   |   |   |   |   f444 <= -0.02668
|   |   |   |   |   |   |   |   |   |   |   |   |   f481 <= -0.017559: not_question (8.0)
|   |   |   |   |   |   |   |   |   |   |   |   |   f481 > -0.017559
|   |   |   |   |   |   |   |   |   |   |   |   |   |   f47 <= 0.039007: question (15.0/1.0)
|   |   |   |   |   |   |   |   |   |   |   |   |   |   f47 > 0.039007: not_question (2.0)
|   |   |   |   |   |   |   |   |   |   |   |   f444 > -0.02668
|   |   |   |   |   |   |   |   |   |   |   |   |   f66 <= 0.039363: question (57.0)
|   |   |   |   |   |   |   |   |   |   |   |   |   f66 > 0.039363
|   |   |   |   |   |   |   |   |   |   |   |   |   |   f30 <= 0.023639: question (8.0)
|   |   |   |   |   |   |   |   |   |   |   |   |   |   f30 > 0.023639: not_question (5.0/1.0)
|   |   |   |   |   |   |   |   |   |   |   f98 > 0.058144: not_question (6.0)
|   |   |   |   |   |   |   |   |   |   f143 > 0.002649
|   |   |   |   |   |   |   |   |   |   |   f481 <= -0.033129: not_question (20.0)
|   |   |   |   |   |   |   |   |   |   |   f481 > -0.033129
|   |   |   |   |   |   |   |   |   |   |   |   f227 <= 0.038227
|   |   |   |   |   |   |   |   |   |   |   |   |   f306 <= -0.0104
|   |   |   |   |   |   |   |   |   |   |   |   |   |   f24 <= -0.05112: not_question (6.0)
|   |   |   |   |   |   |   |   |   |   |   |   |   |   f24 > -0.05112
|   |   |   |   |   |   |   |   |   |   |   |   |   |   |   f215 <= 0.052075
|   |   |   |   |   |   |   |   |   |   |   |   |   |   |   |   f14 <= 0.058457: question (22.0)
|   |   |   |   |   |   |   |   |   |   |   |   |   |   |   |   f14 > 0.058457: not_question (5.0/1.0)
|   |   |   |   |   |   |   |   |   |   |   |   |   |   |   f215 > 0.052075: not_question (5.0)
|   |   |   |   |   |   |   |   |   |   |   |   |   f306 > -0.0104
|   |   |   |   |   |   |   |   |   |   |   |   |   |   f272 <= -0.072882: question (3.0)
|   |   |   |   |   |   |   |   |   |   |   |   |   |   f272 > -0.072882
|   |   |   |   |   |   |   |   |   |   |   |   |   |   |   f107 <= -0.054734
|   |   |   |   |   |   |   |   |   |   |   |   |   |   |   |   f7 <= -0.031644: question (3.0)
|   |   |   |   |   |   |   |   |   |   |   |   |   |   |   |   f7 > -0.031644: not_question (4.0)
|   |   |   |   |   |   |   |   |   |   |   |   |   |   |   f107 > -0.054734: not_question (40.0)
|   |   |   |   |   |   |   |   |   |   |   |   f227 > 0.038227
|   |   |   |   |   |   |   |   |   |   |   |   |   f26 <= -0.080874: not_question (2.0)
|   |   |   |   |   |   |   |   |   |   |   |   |   f26 > -0.080874: question (14.0)
|   |   |   |   |   |   |   |   |   f181 > -0.015737
|   |   |   |   |   |   |   |   |   |   f491 <= -0.060113
|   |   |   |   |   |   |   |   |   |   |   f268 <= 0.031122
|   |   |   |   |   |   |   |   |   |   |   |   f83 <= -0.06857
|   |   |   |   |   |   |   |   |   |   |   |   |   f10 <= -0.000503: not_question (8.0)
|   |   |   |   |   |   |   |   |   |   |   |   |   f10 > -0.000503: question (2.0)
|   |   |   |   |   |   |   |   |   |   |   |   f83 > -0.06857
|   |   |   |   |   |   |   |   |   |   |   |   |   f421 <= -0.036613: question (32.0)
|   |   |   |   |   |   |   |   |   |   |   |   |   f421 > -0.036613
|   |   |   |   |   |   |   |   |   |   |   |   |   |   f106 <= -0.024941
|   |   |   |   |   |   |   |   |   |   |   |   |   |   |   f52 <= -0.052767: question (12.0)
|   |   |   |   |   |   |   |   |   |   |   |   |   |   |   f52 > -0.052767
|   |   |   |   |   |   |   |   |   |   |   |   |   |   |   |   f386 <= 0.038978
|   |   |   |   |   |   |   |   |   |   |   |   |   |   |   |   |   f393 <= -0.058941: not_question (6.0)
|   |   |   |   |   |   |   |   |   |   |   |   |   |   |   |   |   f393 > -0.058941
|   |   |   |   |   |   |   |   |   |   |   |   |   |   |   |   |   |   f148 <= 0.049994
|   |   |   |   |   |   |   |   |   |   |   |   |   |   |   |   |   |   |   f182 <= -0.060507: not_question (3.0)
|   |   |   |   |   |   |   |   |   |   |   |   |   |   |   |   |   |   |   f182 > -0.060507
|   |   |   |   |   |   |   |   |   |   |   |   |   |   |   |   |   |   |   |   f295 <= 0.045299
|   |   |   |   |   |   |   |   |   |   |   |   |   |   |   |   |   |   |   |   |   f174 <= 0.094288: question (37.0/1.0)
|   |   |   |   |   |   |   |   |   |   |   |   |   |   |   |   |   |   |   |   |   f174 > 0.094288: not_question (4.0/1.0)
|   |   |   |   |   |   |   |   |   |   |   |   |   |   |   |   |   |   |   |   f295 > 0.045299: not_question (3.0)
|   |   |   |   |   |   |   |   |   |   |   |   |   |   |   |   |   |   f148 > 0.049994: not_question (8.0/1.0)
|   |   |   |   |   |   |   |   |   |   |   |   |   |   |   |   f386 > 0.038978: not_question (11.0)
|   |   |   |   |   |   |   |   |   |   |   |   |   |   f106 > -0.024941
|   |   |   |   |   |   |   |   |   |   |   |   |   |   |   f129 <= 0.057544
|   |   |   |   |   |   |   |   |   |   |   |   |   |   |   |   f501 <= 0.050752: question (65.0/1.0)
|   |   |   |   |   |   |   |   |   |   |   |   |   |   |   |   f501 > 0.050752
|   |   |   |   |   |   |   |   |   |   |   |   |   |   |   |   |   f9 <= 0.05288: not_question (3.0)
|   |   |   |   |   |   |   |   |   |   |   |   |   |   |   |   |   f9 > 0.05288: question (2.0)
|   |   |   |   |   |   |   |   |   |   |   |   |   |   |   f129 > 0.057544: not_question (4.0/1.0)
|   |   |   |   |   |   |   |   |   |   |   f268 > 0.031122
|   |   |   |   |   |   |   |   |   |   |   |   f312 <= 0.008974
|   |   |   |   |   |   |   |   |   |   |   |   |   f90 <= -0.030496: not_question (7.0)
|   |   |   |   |   |   |   |   |   |   |   |   |   f90 > -0.030496
|   |   |   |   |   |   |   |   |   |   |   |   |   |   f68 <= 0.03209
|   |   |   |   |   |   |   |   |   |   |   |   |   |   |   f381 <= 0.037094: question (22.0)
|   |   |   |   |   |   |   |   |   |   |   |   |   |   |   f381 > 0.037094: not_question (4.0/1.0)
|   |   |   |   |   |   |   |   |   |   |   |   |   |   f68 > 0.03209: not_question (4.0)
|   |   |   |   |   |   |   |   |   |   |   |   f312 > 0.008974
|   |   |   |   |   |   |   |   |   |   |   |   |   f19 <= -0.058905: question (2.0)
|   |   |   |   |   |   |   |   |   |   |   |   |   f19 > -0.058905: not_question (34.0/1.0)
|   |   |   |   |   |   |   |   |   |   f491 > -0.060113
|   |   |   |   |   |   |   |   |   |   |   f266 <= -0.074387
|   |   |   |   |   |   |   |   |   |   |   |   f356 <= -0.027416: not_question (12.0)
|   |   |   |   |   |   |   |   |   |   |   |   f356 > -0.027416
|   |   |   |   |   |   |   |   |   |   |   |   |   f24 <= 0.05313
|   |   |   |   |   |   |   |   |   |   |   |   |   |   f368 <= 0.021173
|   |   |   |   |   |   |   |   |   |   |   |   |   |   |   f12 <= -0.063932: not_question (2.0)
|   |   |   |   |   |   |   |   |   |   |   |   |   |   |   f12 > -0.063932
|   |   |   |   |   |   |   |   |   |   |   |   |   |   |   |   f99 <= -0.039331: not_question (2.0)
|   |   |   |   |   |   |   |   |   |   |   |   |   |   |   |   f99 > -0.039331: question (28.0)
|   |   |   |   |   |   |   |   |   |   |   |   |   |   f368 > 0.021173: not_question (5.0)
|   |   |   |   |   |   |   |   |   |   |   |   |   f24 > 0.05313: not_question (6.0)
|   |   |   |   |   |   |   |   |   |   |   f266 > -0.074387
|   |   |   |   |   |   |   |   |   |   |   |   f10 <= -0.078211
|   |   |   |   |   |   |   |   |   |   |   |   |   f122 <= 0.073414
|   |   |   |   |   |   |   |   |   |   |   |   |   |   f72 <= 0.036058
|   |   |   |   |   |   |   |   |   |   |   |   |   |   |   f139 <= -0.061928
|   |   |   |   |   |   |   |   |   |   |   |   |   |   |   |   f116 <= 0.028971
|   |   |   |   |   |   |   |   |   |   |   |   |   |   |   |   |   f467 <= 0.029762: question (13.0)
|   |   |   |   |   |   |   |   |   |   |   |   |   |   |   |   |   f467 > 0.029762: not_question (3.0)
|   |   |   |   |   |   |   |   |   |   |   |   |   |   |   |   f116 > 0.028971: not_question (5.0)
|   |   |   |   |   |   |   |   |   |   |   |   |   |   |   f139 > -0.061928
|   |   |   |   |   |   |   |   |   |   |   |   |   |   |   |   f84 <= -0.088229
|   |   |   |   |   |   |   |   |   |   |   |   |   |   |   |   |   f0 <= -0.003758: question (2.0)
|   |   |   |   |   |   |   |   |   |   |   |   |   |   |   |   |   f0 > -0.003758: not_question (2.0)
|   |   |   |   |   |   |   |   |   |   |   |   |   |   |   |   f84 > -0.088229: question (64.0)
|   |   |   |   |   |   |   |   |   |   |   |   |   |   f72 > 0.036058
|   |   |   |   |   |   |   |   |   |   |   |   |   |   |   f153 <= 0.010013
|   |   |   |   |   |   |   |   |   |   |   |   |   |   |   |   f52 <= -0.044579: question (4.0/1.0)
|   |   |   |   |   |   |   |   |   |   |   |   |   |   |   |   f52 > -0.044579: not_question (16.0)
|   |   |   |   |   |   |   |   |   |   |   |   |   |   |   f153 > 0.010013
|   |   |   |   |   |   |   |   |   |   |   |   |   |   |   |   f28 <= 0.008071: not_question (3.0)
|   |   |   |   |   |   |   |   |   |   |   |   |   |   |   |   f28 > 0.008071
|   |   |   |   |   |   |   |   |   |   |   |   |   |   |   |   |   f125 <= 0.06945: question (18.0)
|   |   |   |   |   |   |   |   |   |   |   |   |   |   |   |   |   f125 > 0.06945: not_question (2.0)
|   |   |   |   |   |   |   |   |   |   |   |   |   f122 > 0.073414
|   |   |   |   |   |   |   |   |   |   |   |   |   |   f128 <= 0.008591: not_question (18.0/1.0)
|   |   |   |   |   |   |   |   |   |   |   |   |   |   f128 > 0.008591: question (4.0)
|   |   |   |   |   |   |   |   |   |   |   |   f10 > -0.078211
|   |   |   |   |   |   |   |   |   |   |   |   |   f85 <= -0.047537
|   |   |   |   |   |   |   |   |   |   |   |   |   |   f141 <= 0.033657
|   |   |   |   |   |   |   |   |   |   |   |   |   |   |   f465 <= -0.030944: question (19.0)
|   |   |   |   |   |   |   |   |   |   |   |   |   |   |   f465 > -0.030944
|   |   |   |   |   |   |   |   |   |   |   |   |   |   |   |   f17 <= 0.008568
|   |   |   |   |   |   |   |   |   |   |   |   |   |   |   |   |   f187 <= -0.059932: not_question (12.0)
|   |   |   |   |   |   |   |   |   |   |   |   |   |   |   |   |   f187 > -0.059932
|   |   |   |   |   |   |   |   |   |   |   |   |   |   |   |   |   |   f462 <= 0.082556
|   |   |   |   |   |   |   |   |   |   |   |   |   |   |   |   |   |   |   f269 <= 0.063227
|   |   |   |   |   |   |   |   |   |   |   |   |   |   |   |   |   |   |   |   f106 <= -0.06119: not_question (8.0)
|   |   |   |   |   |   |   |   |   |   |   |   |   |   |   |   |   |   |   |   f106 > -0.06119
|   |   |   |   |   |   |   |   |   |   |   |   |   |   |   |   |   |   |   |   |   f259 <= -0.025672: question (18.0)
|   |   |   |   |   |   |   |   |   |   |   |   |   |   |   |   |   |   |   |   |   f259 > -0.025672
|   |   |   |   |   |   |   |   |   |   |   |   |   |   |   |   |   |   |   |   |   |   f80 <= 0.022322
|   |   |   |   |   |   |   |   |   |   |   |   |   |   |   |   |   |   |   |   |   |   |   f439 <= 0.012497: question (21.0/1.0)
|   |   |   |   |   |   |   |   |   |   |   |   |   |   |   |   |   |   |   |   |   |   |   f439 > 0.012497
|   |   |   |   |   |   |   |   |   |   |   |   |   |   |   |   |   |   |   |   |   |   |   |   f43 <= 0.030958: not_question (12.0/1.0)
|   |   |   |   |   |   |   |   |   |   |   |   |   |   |   |   |   |   |   |   |   |   |   |   f43 > 0.030958: question (4.0)
|   |   |   |   |   |   |   |   |   |   |   |   |   |   |   |   |   |   |   |   |   |   f80 > 0.022322: not_question (9.0)
|   |   |   |   |   |   |   |   |   |   |   |   |   |   |   |   |   |   |   f269 > 0.063227: not_question (14.0/1.0)
|   |   |   |   |   |   |   |   |   |   |   |   |   |   |   |   |   |   f462 > 0.082556: question (12.0)
|   |   |   |   |   |   |   |   |   |   |   |   |   |   |   |   f17 > 0.008568
|   |   |   |   |   |   |   |   |   |   |   |   |   |   |   |   |   f8 <= -0.045178
|   |   |   |   |   |   |   |   |   |   |   |   |   |   |   |   |   |   f99 <= 0.036274: question (4.0)
|   |   |   |   |   |   |   |   |   |   |   |   |   |   |   |   |   |   f99 > 0.036274: not_question (5.0)
|   |   |   |   |   |   |   |   |   |   |   |   |   |   |   |   |   f8 > -0.045178: question (42.0/1.0)
|   |   |   |   |   |   |   |   |   |   |   |   |   |   f141 > 0.033657: question (30.0)
|   |   |   |   |   |   |   |   |   |   |   |   |   f85 > -0.047537
|   |   |   |   |   |   |   |   |   |   |   |   |   |   f460 <= 0.051236
|   |   |   |   |   |   |   |   |   |   |   |   |   |   |   f81 <= 0.074602
|   |   |   |   |   |   |   |   |   |   |   |   |   |   |   |   f267 <= -0.106591
|   |   |   |   |   |   |   |   |   |   |   |   |   |   |   |   |   f45 <= -0.062294
|   |   |   |   |   |   |   |   |   |   |   |   |   |   |   |   |   |   f364 <= -0.044616
|   |   |   |   |   |   |   |   |   |   |   |   |   |   |   |   |   |   |   f125 <= 0.065945: question (204.0)
|   |   |   |   |   |   |   |   |   |   |   |   |   |   |   |   |   |   |   f125 > 0.065945
|   |   |   |   |   |   |   |   |   |   |   |   |   |   |   |   |   |   |   |   f28 <= 0.031995: question (10.0)
|   |   |   |   |   |   |   |   |   |   |   |   |   |   |   |   |   |   |   |   f28 > 0.031995: not_question (2.0)
|   |   |   |   |   |   |   |   |   |   |   |   |   |   |   |   |   |   f364 > -0.044616
|   |   |   |   |   |   |   |   |   |   |   |   |   |   |   |   |   |   |   f179 <= 0.038231: question (10.0)
|   |   |   |   |   |   |   |   |   |   |   |   |   |   |   |   |   |   |   f179 > 0.038231: not_question (5.0/1.0)
|   |   |   |   |   |   |   |   |   |   |   |   |   |   |   |   |   f45 > -0.062294
|   |   |   |   |   |   |   |   |   |   |   |   |   |   |   |   |   |   f412 <= -0.06277
|   |   |   |   |   |   |   |   |   |   |   |   |   |   |   |   |   |   |   f318 <= -0.077165: not_question (8.0/1.0)
|   |   |   |   |   |   |   |   |   |   |   |   |   |   |   |   |   |   |   f318 > -0.077165
|   |   |   |   |   |   |   |   |   |   |   |   |   |   |   |   |   |   |   |   f153 <= -0.021144
|   |   |   |   |   |   |   |   |   |   |   |   |   |   |   |   |   |   |   |   |   f405 <= -0.028699: question (9.0)
|   |   |   |   |   |   |   |   |   |   |   |   |   |   |   |   |   |   |   |   |   f405 > -0.028699
|   |   |   |   |   |   |   |   |   |   |   |   |   |   |   |   |   |   |   |   |   |   f17 <= -0.010166: question (4.0)
|   |   |   |   |   |   |   |   |   |   |   |   |   |   |   |   |   |   |   |   |   |   f17 > -0.010166: not_question (11.0)
|   |   |   |   |   |   |   |   |   |   |   |   |   |   |   |   |   |   |   |   f153 > -0.021144
|   |   |   |   |   |   |   |   |   |   |   |   |   |   |   |   |   |   |   |   |   f61 <= -0.014073
|   |   |   |   |   |   |   |   |   |   |   |   |   |   |   |   |   |   |   |   |   |   f17 <= -0.010898: not_question (5.0)
|   |   |   |   |   |   |   |   |   |   |   |   |   |   |   |   |   |   |   |   |   |   f17 > -0.010898
|   |   |   |   |   |   |   |   |   |   |   |   |   |   |   |   |   |   |   |   |   |   |   f128 <= 0.047084: question (23.0)
|   |   |   |   |   |   |   |   |   |   |   |   |   |   |   |   |   |   |   |   |   |   |   f128 > 0.047084: not_question (4.0/1.0)
|   |   |   |   |   |   |   |   |   |   |   |   |   |   |   |   |   |   |   |   |   f61 > -0.014073: question (51.0)
|   |   |   |   |   |   |   |   |   |   |   |   |   |   |   |   |   |   f412 > -0.06277
|   |   |   |   |   |   |   |   |   |   |   |   |   |   |   |   |   |   |   f111 <= -0.034745: question (84.0)
|   |   |   |   |   |   |   |   |   |   |   |   |   |   |   |   |   |   |   f111 > -0.034745
|   |   |   |   |   |   |   |   |   |   |   |   |   |   |   |   |   |   |   |   f165 <= 0.02908
|   |   |   |   |   |   |   |   |   |   |   |   |   |   |   |   |   |   |   |   |   f122 <= 0.07705
|   |   |   |   |   |   |   |   |   |   |   |   |   |   |   |   |   |   |   |   |   |   f132 <= -0.02512
|   |   |   |   |   |   |   |   |   |   |   |   |   |   |   |   |   |   |   |   |   |   |   f430 <= -0.081768: not_question (5.0/1.0)
|   |   |   |   |   |   |   |   |   |   |   |   |   |   |   |   |   |   |   |   |   |   |   f430 > -0.081768
|   |   |   |   |   |   |   |   |   |   |   |   |   |   |   |   |   |   |   |   |   |   |   |   f259 <= 0.064367
|   |   |   |   |   |   |   |   |   |   |   |   |   |   |   |   |   |   |   |   |   |   |   |   |   f408 <= 0.041682: question (68.0)
|   |   |   |   |   |   |   |   |   |   |   |   |   |   |   |   |   |   |   |   |   |   |   |   |   f408 > 0.041682
|   |   |   |   |   |   |   |   |   |   |   |   |   |   |   |   |   |   |   |   |   |   |   |   |   |   f5 <= -0.002165: question (2.0)
|   |   |   |   |   |   |   |   |   |   |   |   |   |   |   |   |   |   |   |   |   |   |   |   |   |   f5 > -0.002165: not_question (3.0)
|   |   |   |   |   |   |   |   |   |   |   |   |   |   |   |   |   |   |   |   |   |   |   |   f259 > 0.064367
|   |   |   |   |   |   |   |   |   |   |   |   |   |   |   |   |   |   |   |   |   |   |   |   |   f1 <= 0.058329: not_question (4.0)
|   |   |   |   |   |   |   |   |   |   |   |   |   |   |   |   |   |   |   |   |   |   |   |   |   f1 > 0.058329: question (2.0)
|   |   |   |   |   |   |   |   |   |   |   |   |   |   |   |   |   |   |   |   |   |   f132 > -0.02512
|   |   |   |   |   |   |   |   |   |   |   |   |   |   |   |   |   |   |   |   |   |   |   f157 <= 0.047555: question (142.0)
|   |   |   |   |   |   |   |   |   |   |   |   |   |   |   |   |   |   |   |   |   |   |   f157 > 0.047555
|   |   |   |   |   |   |   |   |   |   |   |   |   |   |   |   |   |   |   |   |   |   |   |   f5 <= 0.03183: question (7.0)
|   |   |   |   |   |   |   |   |   |   |   |   |   |   |   |   |   |   |   |   |   |   |   |   f5 > 0.03183: not_question (2.0)
|   |   |   |   |   |   |   |   |   |   |   |   |   |   |   |   |   |   |   |   |   f122 > 0.07705
|   |   |   |   |   |   |   |   |   |   |   |   |   |   |   |   |   |   |   |   |   |   f279 <= -0.021773: not_question (5.0)
|   |   |   |   |   |   |   |   |   |   |   |   |   |   |   |   |   |   |   |   |   |   f279 > -0.021773
|   |   |   |   |   |   |   |   |   |   |   |   |   |   |   |   |   |   |   |   |   |   |   f160 <= 0.076309: question (13.0)
|   |   |   |   |   |   |   |   |   |   |   |   |   |   |   |   |   |   |   |   |   |   |   f160 > 0.076309: not_question (2.0)
|   |   |   |   |   |   |   |   |   |   |   |   |   |   |   |   |   |   |   |   f165 > 0.02908
|   |   |   |   |   |   |   |   |   |   |   |   |   |   |   |   |   |   |   |   |   f314 <= -0.013936: not_question (7.0)
|   |   |   |   |   |   |   |   |   |   |   |   |   |   |   |   |   |   |   |   |   f314 > -0.013936: question (11.0/1.0)
|   |   |   |   |   |   |   |   |   |   |   |   |   |   |   |   f267 > -0.106591
|   |   |   |   |   |   |   |   |   |   |   |   |   |   |   |   |   f52 <= 0.043359
|   |   |   |   |   |   |   |   |   |   |   |   |   |   |   |   |   |   f145 <= 0.002946
|   |   |   |   |   |   |   |   |   |   |   |   |   |   |   |   |   |   |   f64 <= -0.065639
|   |   |   |   |   |   |   |   |   |   |   |   |   |   |   |   |   |   |   |   f155 <= 0.011488: not_question (6.0/1.0)
|   |   |   |   |   |   |   |   |   |   |   |   |   |   |   |   |   |   |   |   f155 > 0.011488: question (8.0)
|   |   |   |   |   |   |   |   |   |   |   |   |   |   |   |   |   |   |   f64 > -0.065639
|   |   |   |   |   |   |   |   |   |   |   |   |   |   |   |   |   |   |   |   f207 <= -0.042033
|   |   |   |   |   |   |   |   |   |   |   |   |   |   |   |   |   |   |   |   |   f221 <= 0.076011
|   |   |   |   |   |   |   |   |   |   |   |   |   |   |   |   |   |   |   |   |   |   f472 <= -0.032833: not_question (2.0)
|   |   |   |   |   |   |   |   |   |   |   |   |   |   |   |   |   |   |   |   |   |   f472 > -0.032833
|   |   |   |   |   |   |   |   |   |   |   |   |   |   |   |   |   |   |   |   |   |   |   f374 <= -0.06776: not_question (2.0)
|   |   |   |   |   |   |   |   |   |   |   |   |   |   |   |   |   |   |   |   |   |   |   f374 > -0.06776: question (27.0)
|   |   |   |   |   |   |   |   |   |   |   |   |   |   |   |   |   |   |   |   |   f221 > 0.076011: not_question (3.0)
|   |   |   |   |   |   |   |   |   |   |   |   |   |   |   |   |   |   |   |   f207 > -0.042033
|   |   |   |   |   |   |   |   |   |   |   |   |   |   |   |   |   |   |   |   |   f194 <= -0.02176
|   |   |   |   |   |   |   |   |   |   |   |   |   |   |   |   |   |   |   |   |   |   f85 <= 0.05334: question (34.0)
|   |   |   |   |   |   |   |   |   |   |   |   |   |   |   |   |   |   |   |   |   |   f85 > 0.05334
|   |   |   |   |   |   |   |   |   |   |   |   |   |   |   |   |   |   |   |   |   |   |   f1 <= 0.01077: not_question (4.0)
|   |   |   |   |   |   |   |   |   |   |   |   |   |   |   |   |   |   |   |   |   |   |   f1 > 0.01077: question (2.0)
|   |   |   |   |   |   |   |   |   |   |   |   |   |   |   |   |   |   |   |   |   f194 > -0.02176: question (184.0)
|   |   |   |   |   |   |   |   |   |   |   |   |   |   |   |   |   |   f145 > 0.002946
|   |   |   |   |   |   |   |   |   |   |   |   |   |   |   |   |   |   |   f80 <= 0.049813
|   |   |   |   |   |   |   |   |   |   |   |   |   |   |   |   |   |   |   |   f491 <= -0.005201
|   |   |   |   |   |   |   |   |   |   |   |   |   |   |   |   |   |   |   |   |   f89 <= -0.046921
|   |   |   |   |   |   |   |   |   |   |   |   |   |   |   |   |   |   |   |   |   |   f232 <= -0.01584
|   |   |   |   |   |   |   |   |   |   |   |   |   |   |   |   |   |   |   |   |   |   |   f223 <= -0.008753: not_question (5.0/1.0)
|   |   |   |   |   |   |   |   |   |   |   |   |   |   |   |   |   |   |   |   |   |   |   f223 > -0.008753: question (15.0)
|   |   |   |   |   |   |   |   |   |   |   |   |   |   |   |   |   |   |   |   |   |   f232 > -0.01584
|   |   |   |   |   |   |   |   |   |   |   |   |   |   |   |   |   |   |   |   |   |   |   f44 <= -0.050906: question (2.0)
|   |   |   |   |   |   |   |   |   |   |   |   |   |   |   |   |   |   |   |   |   |   |   f44 > -0.050906: not_question (14.0)
|   |   |   |   |   |   |   |   |   |   |   |   |   |   |   |   |   |   |   |   |   f89 > -0.046921
|   |   |   |   |   |   |   |   |   |   |   |   |   |   |   |   |   |   |   |   |   |   f492 <= -0.004156
|   |   |   |   |   |   |   |   |   |   |   |   |   |   |   |   |   |   |   |   |   |   |   f163 <= 0.07942
|   |   |   |   |   |   |   |   |   |   |   |   |   |   |   |   |   |   |   |   |   |   |   |   f288 <= -0.032597
|   |   |   |   |   |   |   |   |   |   |   |   |   |   |   |   |   |   |   |   |   |   |   |   |   f324 <= 0.019439
|   |   |   |   |   |   |   |   |   |   |   |   |   |   |   |   |   |   |   |   |   |   |   |   |   |   f435 <= 0.021089: question (37.0/1.0)
|   |   |   |   |   |   |   |   |   |   |   |   |   |   |   |   |   |   |   |   |   |   |   |   |   |   f435 > 0.021089
|   |   |   |   |   |   |   |   |   |   |   |   |   |   |   |   |   |   |   |   |   |   |   |   |   |   |   f12 <= -0.00272: question (3.0)
|   |   |   |   |   |   |   |   |   |   |   |   |   |   |   |   |   |   |   |   |   |   |   |   |   |   |   f12 > -0.00272: not_question (5.0)
|   |   |   |   |   |   |   |   |   |   |   |   |   |   |   |   |   |   |   |   |   |   |   |   |   f324 > 0.019439: not_question (4.0)
|   |   |   |   |   |   |   |   |   |   |   |   |   |   |   |   |   |   |   |   |   |   |   |   f288 > -0.032597
|   |   |   |   |   |   |   |   |   |   |   |   |   |   |   |   |   |   |   |   |   |   |   |   |   f135 <= -0.055998
|   |   |   |   |   |   |   |   |   |   |   |   |   |   |   |   |   |   |   |   |   |   |   |   |   |   f181 <= 0.060854: question (11.0)
|   |   |   |   |   |   |   |   |   |   |   |   |   |   |   |   |   |   |   |   |   |   |   |   |   |   f181 > 0.060854: not_question (3.0)
|   |   |   |   |   |   |   |   |   |   |   |   |   |   |   |   |   |   |   |   |   |   |   |   |   f135 > -0.055998: question (132.0)
|   |   |   |   |   |   |   |   |   |   |   |   |   |   |   |   |   |   |   |   |   |   |   f163 > 0.07942
|   |   |   |   |   |   |   |   |   |   |   |   |   |   |   |   |   |   |   |   |   |   |   |   f424 <= 0.01308: not_question (7.0)
|   |   |   |   |   |   |   |   |   |   |   |   |   |   |   |   |   |   |   |   |   |   |   |   f424 > 0.01308: question (7.0)
|   |   |   |   |   |   |   |   |   |   |   |   |   |   |   |   |   |   |   |   |   |   f492 > -0.004156
|   |   |   |   |   |   |   |   |   |   |   |   |   |   |   |   |   |   |   |   |   |   |   f379 <= -0.043787
|   |   |   |   |   |   |   |   |   |   |   |   |   |   |   |   |   |   |   |   |   |   |   |   f95 <= -0.040885: question (2.0)
|   |   |   |   |   |   |   |   |   |   |   |   |   |   |   |   |   |   |   |   |   |   |   |   f95 > -0.040885: not_question (11.0)
|   |   |   |   |   |   |   |   |   |   |   |   |   |   |   |   |   |   |   |   |   |   |   f379 > -0.043787
|   |   |   |   |   |   |   |   |   |   |   |   |   |   |   |   |   |   |   |   |   |   |   |   f291 <= -0.000324: question (36.0/1.0)
|   |   |   |   |   |   |   |   |   |   |   |   |   |   |   |   |   |   |   |   |   |   |   |   f291 > -0.000324
|   |   |   |   |   |   |   |   |   |   |   |   |   |   |   |   |   |   |   |   |   |   |   |   |   f1 <= -0.013843: question (29.0/1.0)
|   |   |   |   |   |   |   |   |   |   |   |   |   |   |   |   |   |   |   |   |   |   |   |   |   f1 > -0.013843
|   |   |   |   |   |   |   |   |   |   |   |   |   |   |   |   |   |   |   |   |   |   |   |   |   |   f124 <= -0.074251: not_question (7.0)
|   |   |   |   |   |   |   |   |   |   |   |   |   |   |   |   |   |   |   |   |   |   |   |   |   |   f124 > -0.074251
|   |   |   |   |   |   |   |   |   |   |   |   |   |   |   |   |   |   |   |   |   |   |   |   |   |   |   f26 <= 0.055549
|   |   |   |   |   |   |   |   |   |   |   |   |   |   |   |   |   |   |   |   |   |   |   |   |   |   |   |   f470 <= 0.078816
|   |   |   |   |   |   |   |   |   |   |   |   |   |   |   |   |   |   |   |   |   |   |   |   |   |   |   |   |   f33 <= 0.029719
|   |   |   |   |   |   |   |   |   |   |   |   |   |   |   |   |   |   |   |   |   |   |   |   |   |   |   |   |   |   f113 <= -0.095372: not_question (3.0)
|   |   |   |   |   |   |   |   |   |   |   |   |   |   |   |   |   |   |   |   |   |   |   |   |   |   |   |   |   |   f113 > -0.095372
|   |   |   |   |   |   |   |   |   |   |   |   |   |   |   |   |   |   |   |   |   |   |   |   |   |   |   |   |   |   |   f224 <= -0.048974
|   |   |   |   |   |   |   |   |   |   |   |   |   |   |   |   |   |   |   |   |   |   |   |   |   |   |   |   |   |   |   |   f8 <= 0.043867: question (4.0)
|   |   |   |   |   |   |   |   |   |   |   |   |   |   |   |   |   |   |   |   |   |   |   |   |   |   |   |   |   |   |   |   f8 > 0.043867: not_question (3.0)
|   |   |   |   |   |   |   |   |   |   |   |   |   |   |   |   |   |   |   |   |   |   |   |   |   |   |   |   |   |   |   f224 > -0.048974: question (40.0)
|   |   |   |   |   |   |   |   |   |   |   |   |   |   |   |   |   |   |   |   |   |   |   |   |   |   |   |   |   f33 > 0.029719
|   |   |   |   |   |   |   |   |   |   |   |   |   |   |   |   |   |   |   |   |   |   |   |   |   |   |   |   |   |   f43 <= -0.030692: question (2.0)
|   |   |   |   |   |   |   |   |   |   |   |   |   |   |   |   |   |   |   |   |   |   |   |   |   |   |   |   |   |   f43 > -0.030692: not_question (7.0)
|   |   |   |   |   |   |   |   |   |   |   |   |   |   |   |   |   |   |   |   |   |   |   |   |   |   |   |   f470 > 0.078816: not_question (6.0)
|   |   |   |   |   |   |   |   |   |   |   |   |   |   |   |   |   |   |   |   |   |   |   |   |   |   |   f26 > 0.055549: not_question (6.0)
|   |   |   |   |   |   |   |   |   |   |   |   |   |   |   |   |   |   |   |   f491 > -0.005201
|   |   |   |   |   |   |   |   |   |   |   |   |   |   |   |   |   |   |   |   |   f108 <= 0.047989
|   |   |   |   |   |   |   |   |   |   |   |   |   |   |   |   |   |   |   |   |   |   f385 <= -0.01976
|   |   |   |   |   |   |   |   |   |   |   |   |   |   |   |   |   |   |   |   |   |   |   f243 <= -0.057084: not_question (5.0/1.0)
|   |   |   |   |   |   |   |   |   |   |   |   |   |   |   |   |   |   |   |   |   |   |   f243 > -0.057084: question (33.0/1.0)
|   |   |   |   |   |   |   |   |   |   |   |   |   |   |   |   |   |   |   |   |   |   f385 > -0.01976: question (119.0)
|   |   |   |   |   |   |   |   |   |   |   |   |   |   |   |   |   |   |   |   |   f108 > 0.047989
|   |   |   |   |   |   |   |   |   |   |   |   |   |   |   |   |   |   |   |   |   |   f126 <= -0.033085: not_question (5.0)
|   |   |   |   |   |   |   |   |   |   |   |   |   |   |   |   |   |   |   |   |   |   f126 > -0.033085: question (11.0)
|   |   |   |   |   |   |   |   |   |   |   |   |   |   |   |   |   |   |   f80 > 0.049813
|   |   |   |   |   |   |   |   |   |   |   |   |   |   |   |   |   |   |   |   f208 <= 0.028953
|   |   |   |   |   |   |   |   |   |   |   |   |   |   |   |   |   |   |   |   |   f372 <= 0.022737: not_question (13.0)
|   |   |   |   |   |   |   |   |   |   |   |   |   |   |   |   |   |   |   |   |   f372 > 0.022737
|   |   |   |   |   |   |   |   |   |   |   |   |   |   |   |   |   |   |   |   |   |   f119 <= 0.006894: question (8.0)
|   |   |   |   |   |   |   |   |   |   |   |   |   |   |   |   |   |   |   |   |   |   f119 > 0.006894: not_question (6.0/1.0)
|   |   |   |   |   |   |   |   |   |   |   |   |   |   |   |   |   |   |   |   f208 > 0.028953: question (11.0)
|   |   |   |   |   |   |   |   |   |   |   |   |   |   |   |   |   f52 > 0.043359
|   |   |   |   |   |   |   |   |   |   |   |   |   |   |   |   |   |   f165 <= 0.034977
|   |   |   |   |   |   |   |   |   |   |   |   |   |   |   |   |   |   |   f25 <= -0.093159: not_question (8.0/1.0)
|   |   |   |   |   |   |   |   |   |   |   |   |   |   |   |   |   |   |   f25 > -0.093159
|   |   |   |   |   |   |   |   |   |   |   |   |   |   |   |   |   |   |   |   f355 <= 0.002421: question (28.0)
|   |   |   |   |   |   |   |   |   |   |   |   |   |   |   |   |   |   |   |   f355 > 0.002421
|   |   |   |   |   |   |   |   |   |   |   |   |   |   |   |   |   |   |   |   |   f162 <= -0.0563: not_question (7.0)
|   |   |   |   |   |   |   |   |   |   |   |   |   |   |   |   |   |   |   |   |   f162 > -0.0563
|   |   |   |   |   |   |   |   |   |   |   |   |   |   |   |   |   |   |   |   |   |   f102 <= 0.065169
|   |   |   |   |   |   |   |   |   |   |   |   |   |   |   |   |   |   |   |   |   |   |   f170 <= -0.031042
|   |   |   |   |   |   |   |   |   |   |   |   |   |   |   |   |   |   |   |   |   |   |   |   f15 <= 0.019744: not_question (6.0)
|   |   |   |   |   |   |   |   |   |   |   |   |   |   |   |   |   |   |   |   |   |   |   |   f15 > 0.019744: question (2.0)
|   |   |   |   |   |   |   |   |   |   |   |   |   |   |   |   |   |   |   |   |   |   |   f170 > -0.031042
|   |   |   |   |   |   |   |   |   |   |   |   |   |   |   |   |   |   |   |   |   |   |   |   f413 <= 0.078752: question (36.0)
|   |   |   |   |   |   |   |   |   |   |   |   |   |   |   |   |   |   |   |   |   |   |   |   f413 > 0.078752: not_question (4.0/1.0)
|   |   |   |   |   |   |   |   |   |   |   |   |   |   |   |   |   |   |   |   |   |   f102 > 0.065169: not_question (8.0/1.0)
|   |   |   |   |   |   |   |   |   |   |   |   |   |   |   |   |   |   f165 > 0.034977: not_question (6.0)
|   |   |   |   |   |   |   |   |   |   |   |   |   |   |   f81 > 0.074602
|   |   |   |   |   |   |   |   |   |   |   |   |   |   |   |   f229 <= -0.040785
|   |   |   |   |   |   |   |   |   |   |   |   |   |   |   |   |   f105 <= -0.027448: not_question (4.0)
|   |   |   |   |   |   |   |   |   |   |   |   |   |   |   |   |   f105 > -0.027448: question (8.0)
|   |   |   |   |   |   |   |   |   |   |   |   |   |   |   |   f229 > -0.040785: question (167.0)
|   |   |   |   |   |   |   |   |   |   |   |   |   |   f460 > 0.051236
|   |   |   |   |   |   |   |   |   |   |   |   |   |   |   f328 <= -0.109618
|   |   |   |   |   |   |   |   |   |   |   |   |   |   |   |   f490 <= 0.009824: not_question (11.0)
|   |   |   |   |   |   |   |   |   |   |   |   |   |   |   |   f490 > 0.009824: question (5.0)
|   |   |   |   |   |   |   |   |   |   |   |   |   |   |   f328 > -0.109618
|   |   |   |   |   |   |   |   |   |   |   |   |   |   |   |   f355 <= -0.046399: question (27.0)
|   |   |   |   |   |   |   |   |   |   |   |   |   |   |   |   f355 > -0.046399
|   |   |   |   |   |   |   |   |   |   |   |   |   |   |   |   |   f441 <= -0.064839: question (26.0)
|   |   |   |   |   |   |   |   |   |   |   |   |   |   |   |   |   f441 > -0.064839
|   |   |   |   |   |   |   |   |   |   |   |   |   |   |   |   |   |   f405 <= -0.083244
|   |   |   |   |   |   |   |   |   |   |   |   |   |   |   |   |   |   |   f143 <= 0.000555: not_question (9.0)
|   |   |   |   |   |   |   |   |   |   |   |   |   |   |   |   |   |   |   f143 > 0.000555: question (3.0)
|   |   |   |   |   |   |   |   |   |   |   |   |   |   |   |   |   |   f405 > -0.083244
|   |   |   |   |   |   |   |   |   |   |   |   |   |   |   |   |   |   |   f192 <= 0.020131
|   |   |   |   |   |   |   |   |   |   |   |   |   |   |   |   |   |   |   |   f116 <= 0.013058
|   |   |   |   |   |   |   |   |   |   |   |   |   |   |   |   |   |   |   |   |   f309 <= 0.058776
|   |   |   |   |   |   |   |   |   |   |   |   |   |   |   |   |   |   |   |   |   |   f33 <= 0.022962
|   |   |   |   |   |   |   |   |   |   |   |   |   |   |   |   |   |   |   |   |   |   |   f340 <= -0.025715: not_question (4.0/1.0)
|   |   |   |   |   |   |   |   |   |   |   |   |   |   |   |   |   |   |   |   |   |   |   f340 > -0.025715
|   |   |   |   |   |   |   |   |   |   |   |   |   |   |   |   |   |   |   |   |   |   |   |   f488 <= -0.055614
|   |   |   |   |   |   |   |   |   |   |   |   |   |   |   |   |   |   |   |   |   |   |   |   |   f2 <= 0.013177: question (5.0)
|   |   |   |   |   |   |   |   |   |   |   |   |   |   |   |   |   |   |   |   |   |   |   |   |   f2 > 0.013177: not_question (3.0)
|   |   |   |   |   |   |   |   |   |   |   |   |   |   |   |   |   |   |   |   |   |   |   |   f488 > -0.055614: question (66.0/1.0)
|   |   |   |   |   |   |   |   |   |   |   |   |   |   |   |   |   |   |   |   |   |   f33 > 0.022962
|   |   |   |   |   |   |   |   |   |   |   |   |   |   |   |   |   |   |   |   |   |   |   f61 <= 0.013199: question (6.0/1.0)
|   |   |   |   |   |   |   |   |   |   |   |   |   |   |   |   |   |   |   |   |   |   |   f61 > 0.013199: not_question (5.0)
|   |   |   |   |   |   |   |   |   |   |   |   |   |   |   |   |   |   |   |   |   f309 > 0.058776: not_question (7.0/1.0)
|   |   |   |   |   |   |   |   |   |   |   |   |   |   |   |   |   |   |   |   f116 > 0.013058
|   |   |   |   |   |   |   |   |   |   |   |   |   |   |   |   |   |   |   |   |   f402 <= 0.030376
|   |   |   |   |   |   |   |   |   |   |   |   |   |   |   |   |   |   |   |   |   |   f107 <= 0.06119
|   |   |   |   |   |   |   |   |   |   |   |   |   |   |   |   |   |   |   |   |   |   |   f502 <= -0.013542
|   |   |   |   |   |   |   |   |   |   |   |   |   |   |   |   |   |   |   |   |   |   |   |   f106 <= -0.056604: not_question (3.0)
|   |   |   |   |   |   |   |   |   |   |   |   |   |   |   |   |   |   |   |   |   |   |   |   f106 > -0.056604: question (7.0)
|   |   |   |   |   |   |   |   |   |   |   |   |   |   |   |   |   |   |   |   |   |   |   f502 > -0.013542: not_question (24.0)
|   |   |   |   |   |   |   |   |   |   |   |   |   |   |   |   |   |   |   |   |   |   f107 > 0.06119: question (5.0)
|   |   |   |   |   |   |   |   |   |   |   |   |   |   |   |   |   |   |   |   |   f402 > 0.030376: question (12.0/1.0)
|   |   |   |   |   |   |   |   |   |   |   |   |   |   |   |   |   |   |   f192 > 0.020131
|   |   |   |   |   |   |   |   |   |   |   |   |   |   |   |   |   |   |   |   f417 <= -0.027401: not_question (4.0/1.0)
|   |   |   |   |   |   |   |   |   |   |   |   |   |   |   |   |   |   |   |   f417 > -0.027401
|   |   |   |   |   |   |   |   |   |   |   |   |   |   |   |   |   |   |   |   |   f253 <= 0.072366: question (58.0)
|   |   |   |   |   |   |   |   |   |   |   |   |   |   |   |   |   |   |   |   |   f253 > 0.072366
|   |   |   |   |   |   |   |   |   |   |   |   |   |   |   |   |   |   |   |   |   |   f81 <= 0.039234: not_question (3.0)
|   |   |   |   |   |   |   |   |   |   |   |   |   |   |   |   |   |   |   |   |   |   f81 > 0.039234: question (7.0)
|   |   |   |   |   |   |   |   f495 > -0.034561
|   |   |   |   |   |   |   |   |   f268 <= 0.049247
|   |   |   |   |   |   |   |   |   |   f274 <= -0.087179
|   |   |   |   |   |   |   |   |   |   |   f98 <= 0.034087
|   |   |   |   |   |   |   |   |   |   |   |   f472 <= 0.049252: not_question (24.0)
|   |   |   |   |   |   |   |   |   |   |   |   f472 > 0.049252
|   |   |   |   |   |   |   |   |   |   |   |   |   f29 <= 0.033509: question (4.0)
|   |   |   |   |   |   |   |   |   |   |   |   |   f29 > 0.033509: not_question (3.0)
|   |   |   |   |   |   |   |   |   |   |   f98 > 0.034087: question (4.0)
|   |   |   |   |   |   |   |   |   |   f274 > -0.087179
|   |   |   |   |   |   |   |   |   |   |   f70 <= -0.036102
|   |   |   |   |   |   |   |   |   |   |   |   f414 <= -0.000735: question (9.0)
|   |   |   |   |   |   |   |   |   |   |   |   f414 > -0.000735
|   |   |   |   |   |   |   |   |   |   |   |   |   f183 <= 0.076041
|   |   |   |   |   |   |   |   |   |   |   |   |   |   f115 <= 0.069673
|   |   |   |   |   |   |   |   |   |   |   |   |   |   |   f217 <= 0.052995
|   |   |   |   |   |   |   |   |   |   |   |   |   |   |   |   f269 <= 0.006412
|   |   |   |   |   |   |   |   |   |   |   |   |   |   |   |   |   f187 <= 0.005212: not_question (12.0/1.0)
|   |   |   |   |   |   |   |   |   |   |   |   |   |   |   |   |   f187 > 0.005212: question (8.0)
|   |   |   |   |   |   |   |   |   |   |   |   |   |   |   |   f269 > 0.006412
|   |   |   |   |   |   |   |   |   |   |   |   |   |   |   |   |   f336 <= 0.068317: not_question (47.0)
|   |   |   |   |   |   |   |   |   |   |   |   |   |   |   |   |   f336 > 0.068317: question (4.0/1.0)
|   |   |   |   |   |   |   |   |   |   |   |   |   |   |   f217 > 0.052995: question (4.0)
|   |   |   |   |   |   |   |   |   |   |   |   |   |   f115 > 0.069673: question (7.0/1.0)
|   |   |   |   |   |   |   |   |   |   |   |   |   f183 > 0.076041: question (7.0)
|   |   |   |   |   |   |   |   |   |   |   f70 > -0.036102
|   |   |   |   |   |   |   |   |   |   |   |   f310 <= -0.034126
|   |   |   |   |   |   |   |   |   |   |   |   |   f48 <= -0.017989
|   |   |   |   |   |   |   |   |   |   |   |   |   |   f263 <= -0.031656
|   |   |   |   |   |   |   |   |   |   |   |   |   |   |   f9 <= 0.014191: not_question (7.0)
|   |   |   |   |   |   |   |   |   |   |   |   |   |   |   f9 > 0.014191: question (2.0)
|   |   |   |   |   |   |   |   |   |   |   |   |   |   f263 > -0.031656: question (11.0)
|   |   |   |   |   |   |   |   |   |   |   |   |   f48 > -0.017989: not_question (19.0/1.0)
|   |   |   |   |   |   |   |   |   |   |   |   f310 > -0.034126
|   |   |   |   |   |   |   |   |   |   |   |   |   f488 <= 0.06081
|   |   |   |   |   |   |   |   |   |   |   |   |   |   f189 <= -0.026966: question (37.0)
|   |   |   |   |   |   |   |   |   |   |   |   |   |   f189 > -0.026966
|   |   |   |   |   |   |   |   |   |   |   |   |   |   |   f462 <= 0.054961
|   |   |   |   |   |   |   |   |   |   |   |   |   |   |   |   f120 <= -0.05007
|   |   |   |   |   |   |   |   |   |   |   |   |   |   |   |   |   f31 <= -0.039472: question (3.0)
|   |   |   |   |   |   |   |   |   |   |   |   |   |   |   |   |   f31 > -0.039472: not_question (12.0)
|   |   |   |   |   |   |   |   |   |   |   |   |   |   |   |   f120 > -0.05007
|   |   |   |   |   |   |   |   |   |   |   |   |   |   |   |   |   f508 <= -0.045439: not_question (9.0/1.0)
|   |   |   |   |   |   |   |   |   |   |   |   |   |   |   |   |   f508 > -0.045439
|   |   |   |   |   |   |   |   |   |   |   |   |   |   |   |   |   |   f472 <= -0.043191: question (22.0)
|   |   |   |   |   |   |   |   |   |   |   |   |   |   |   |   |   |   f472 > -0.043191
|   |   |   |   |   |   |   |   |   |   |   |   |   |   |   |   |   |   |   f295 <= -0.080026: not_question (9.0/1.0)
|   |   |   |   |   |   |   |   |   |   |   |   |   |   |   |   |   |   |   f295 > -0.080026
|   |   |   |   |   |   |   |   |   |   |   |   |   |   |   |   |   |   |   |   f241 <= 0.018101
|   |   |   |   |   |   |   |   |   |   |   |   |   |   |   |   |   |   |   |   |   f150 <= -0.069883: not_question (6.0/1.0)
|   |   |   |   |   |   |   |   |   |   |   |   |   |   |   |   |   |   |   |   |   f150 > -0.069883
|   |   |   |   |   |   |   |   |   |   |   |   |   |   |   |   |   |   |   |   |   |   f79 <= -0.037299
|   |   |   |   |   |   |   |   |   |   |   |   |   |   |   |   |   |   |   |   |   |   |   f413 <= 0.003513: question (10.0/1.0)
|   |   |   |   |   |   |   |   |   |   |   |   |   |   |   |   |   |   |   |   |   |   |   f413 > 0.003513: not_question (9.0/1.0)
|   |   |   |   |   |   |   |   |   |   |   |   |   |   |   |   |   |   |   |   |   |   f79 > -0.037299
|   |   |   |   |   |   |   |   |   |   |   |   |   |   |   |   |   |   |   |   |   |   |   f246 <= -0.059268: not_question (4.0/1.0)
|   |   |   |   |   |   |   |   |   |   |   |   |   |   |   |   |   |   |   |   |   |   |   f246 > -0.059268
|   |   |   |   |   |   |   |   |   |   |   |   |   |   |   |   |   |   |   |   |   |   |   |   f122 <= 0.080057: question (58.0)
|   |   |   |   |   |   |   |   |   |   |   |   |   |   |   |   |   |   |   |   |   |   |   |   f122 > 0.080057
|   |   |   |   |   |   |   |   |   |   |   |   |   |   |   |   |   |   |   |   |   |   |   |   |   f63 <= 0.017212: question (13.0/1.0)
|   |   |   |   |   |   |   |   |   |   |   |   |   |   |   |   |   |   |   |   |   |   |   |   |   f63 > 0.017212: not_question (4.0)
|   |   |   |   |   |   |   |   |   |   |   |   |   |   |   |   |   |   |   |   f241 > 0.018101
|   |   |   |   |   |   |   |   |   |   |   |   |   |   |   |   |   |   |   |   |   f84 <= -0.027276: question (4.0)
|   |   |   |   |   |   |   |   |   |   |   |   |   |   |   |   |   |   |   |   |   f84 > -0.027276: not_question (11.0)
|   |   |   |   |   |   |   |   |   |   |   |   |   |   |   f462 > 0.054961
|   |   |   |   |   |   |   |   |   |   |   |   |   |   |   |   f2 <= 0.063053
|   |   |   |   |   |   |   |   |   |   |   |   |   |   |   |   |   f275 <= 0.045198: question (61.0)
|   |   |   |   |   |   |   |   |   |   |   |   |   |   |   |   |   f275 > 0.045198
|   |   |   |   |   |   |   |   |   |   |   |   |   |   |   |   |   |   f193 <= -0.026373: not_question (4.0)
|   |   |   |   |   |   |   |   |   |   |   |   |   |   |   |   |   |   f193 > -0.026373: question (9.0)
|   |   |   |   |   |   |   |   |   |   |   |   |   |   |   |   f2 > 0.063053: not_question (4.0/1.0)
|   |   |   |   |   |   |   |   |   |   |   |   |   f488 > 0.06081
|   |   |   |   |   |   |   |   |   |   |   |   |   |   f220 <= -0.039238: question (6.0)
|   |   |   |   |   |   |   |   |   |   |   |   |   |   f220 > -0.039238
|   |   |   |   |   |   |   |   |   |   |   |   |   |   |   f333 <= 0.020177: not_question (16.0)
|   |   |   |   |   |   |   |   |   |   |   |   |   |   |   f333 > 0.020177: question (4.0/1.0)
|   |   |   |   |   |   |   |   |   f268 > 0.049247
|   |   |   |   |   |   |   |   |   |   f103 <= -0.053922: question (5.0)
|   |   |   |   |   |   |   |   |   |   f103 > -0.053922
|   |   |   |   |   |   |   |   |   |   |   f488 <= -0.05623: question (3.0)
|   |   |   |   |   |   |   |   |   |   |   f488 > -0.05623
|   |   |   |   |   |   |   |   |   |   |   |   f30 <= 0.056456: not_question (33.0)
|   |   |   |   |   |   |   |   |   |   |   |   f30 > 0.056456: question (2.0)
|   |   |   |   |   |   f161 > 0.087842
|   |   |   |   |   |   |   f264 <= 0.03982
|   |   |   |   |   |   |   |   f268 <= -0.041946: question (4.0)
|   |   |   |   |   |   |   |   f268 > -0.041946
|   |   |   |   |   |   |   |   |   f53 <= -0.008891: question (4.0/1.0)
|   |   |   |   |   |   |   |   |   f53 > -0.008891: not_question (22.0)
|   |   |   |   |   |   |   f264 > 0.03982: question (12.0)
|   |   |   |   |   f267 > -0.086331
|   |   |   |   |   |   f495 <= -0.030316
|   |   |   |   |   |   |   f122 <= 0.077056
|   |   |   |   |   |   |   |   f227 <= -0.066563
|   |   |   |   |   |   |   |   |   f273 <= -0.028362: question (6.0)
|   |   |   |   |   |   |   |   |   f273 > -0.028362
|   |   |   |   |   |   |   |   |   |   f326 <= -0.013112: question (2.0)
|   |   |   |   |   |   |   |   |   |   f326 > -0.013112: not_question (26.0)
|   |   |   |   |   |   |   |   f227 > -0.066563
|   |   |   |   |   |   |   |   |   f206 <= 0.079333
|   |   |   |   |   |   |   |   |   |   f306 <= 0.038616
|   |   |   |   |   |   |   |   |   |   |   f407 <= -0.038715
|   |   |   |   |   |   |   |   |   |   |   |   f235 <= -0.056612
|   |   |   |   |   |   |   |   |   |   |   |   |   f57 <= 0.042619: question (14.0)
|   |   |   |   |   |   |   |   |   |   |   |   |   f57 > 0.042619: not_question (2.0)
|   |   |   |   |   |   |   |   |   |   |   |   f235 > -0.056612
|   |   |   |   |   |   |   |   |   |   |   |   |   f99 <= -0.035241: question (5.0)
|   |   |   |   |   |   |   |   |   |   |   |   |   f99 > -0.035241
|   |   |   |   |   |   |   |   |   |   |   |   |   |   f354 <= -0.048602: question (3.0)
|   |   |   |   |   |   |   |   |   |   |   |   |   |   f354 > -0.048602
|   |   |   |   |   |   |   |   |   |   |   |   |   |   |   f28 <= -0.057882: question (2.0)
|   |   |   |   |   |   |   |   |   |   |   |   |   |   |   f28 > -0.057882: not_question (23.0)
|   |   |   |   |   |   |   |   |   |   |   f407 > -0.038715
|   |   |   |   |   |   |   |   |   |   |   |   f339 <= 0.033779
|   |   |   |   |   |   |   |   |   |   |   |   |   f241 <= -0.010097
|   |   |   |   |   |   |   |   |   |   |   |   |   |   f268 <= 0.039572
|   |   |   |   |   |   |   |   |   |   |   |   |   |   |   f174 <= 0.04277
