=== Run information ===

Scheme:       weka.classifiers.trees.J48 -C 0.25 -M 2
Relation:     vectors_roberta-large-nli-stsb-mean-tokens_200t
Instances:    102198
Attributes:   1025
              [list of attributes omitted]
Test mode:    split 70.0% train, remainder test

=== Classifier model (full training set) ===

J48 pruned tree
------------------

f668 <= -0.385948
|   f881 <= -1.273685
|   |   f256 <= -0.396283
|   |   |   f951 <= -1.314653
|   |   |   |   f674 <= -0.301405
|   |   |   |   |   f419 <= -0.878506: not_question (3.0)
|   |   |   |   |   f419 > -0.878506: question (12.0)
|   |   |   |   f674 > -0.301405
|   |   |   |   |   f868 <= -1.625888
|   |   |   |   |   |   f41 <= 0.202178: question (8.0)
|   |   |   |   |   |   f41 > 0.202178: not_question (2.0)
|   |   |   |   |   f868 > -1.625888
|   |   |   |   |   |   f349 <= -0.461017
|   |   |   |   |   |   |   f94 <= 0.212779: not_question (3.0)
|   |   |   |   |   |   |   f94 > 0.212779: question (7.0)
|   |   |   |   |   |   f349 > -0.461017
|   |   |   |   |   |   |   f573 <= -0.902108
|   |   |   |   |   |   |   |   f604 <= -1.071656
|   |   |   |   |   |   |   |   |   f610 <= -0.079335: not_question (7.0)
|   |   |   |   |   |   |   |   |   f610 > -0.079335
|   |   |   |   |   |   |   |   |   |   f126 <= -0.603061: question (13.0)
|   |   |   |   |   |   |   |   |   |   f126 > -0.603061: not_question (3.0)
|   |   |   |   |   |   |   |   f604 > -1.071656
|   |   |   |   |   |   |   |   |   f143 <= -0.707808
|   |   |   |   |   |   |   |   |   |   f19 <= 0.784674: question (6.0)
|   |   |   |   |   |   |   |   |   |   f19 > 0.784674: not_question (4.0)
|   |   |   |   |   |   |   |   |   f143 > -0.707808
|   |   |   |   |   |   |   |   |   |   f985 <= 0.193494: not_question (60.0)
|   |   |   |   |   |   |   |   |   |   f985 > 0.193494
|   |   |   |   |   |   |   |   |   |   |   f12 <= -0.49166: question (3.0)
|   |   |   |   |   |   |   |   |   |   |   f12 > -0.49166
|   |   |   |   |   |   |   |   |   |   |   |   f622 <= -2.100431: question (3.0)
|   |   |   |   |   |   |   |   |   |   |   |   f622 > -2.100431: not_question (22.0)
|   |   |   |   |   |   |   f573 > -0.902108: not_question (55.0)
|   |   |   f951 > -1.314653
|   |   |   |   f590 <= -0.219138
|   |   |   |   |   f970 <= -1.491948
|   |   |   |   |   |   f912 <= -1.07584: question (4.0)
|   |   |   |   |   |   f912 > -1.07584
|   |   |   |   |   |   |   f243 <= -1.193641: question (4.0/1.0)
|   |   |   |   |   |   |   f243 > -1.193641: not_question (24.0)
|   |   |   |   |   f970 > -1.491948
|   |   |   |   |   |   f605 <= 0.805723
|   |   |   |   |   |   |   f843 <= -1.672826
|   |   |   |   |   |   |   |   f251 <= 1.088361
|   |   |   |   |   |   |   |   |   f452 <= -0.524434: question (4.0)
|   |   |   |   |   |   |   |   |   f452 > -0.524434
|   |   |   |   |   |   |   |   |   |   f694 <= -1.054569: question (3.0)
|   |   |   |   |   |   |   |   |   |   f694 > -1.054569
|   |   |   |   |   |   |   |   |   |   |   f87 <= 1.070942: not_question (31.0)
|   |   |   |   |   |   |   |   |   |   |   f87 > 1.070942: question (2.0)
|   |   |   |   |   |   |   |   f251 > 1.088361: question (7.0)
|   |   |   |   |   |   |   f843 > -1.672826
|   |   |   |   |   |   |   |   f324 <= -1.472098
|   |   |   |   |   |   |   |   |   f65 <= 0.195894
|   |   |   |   |   |   |   |   |   |   f791 <= -0.486425
|   |   |   |   |   |   |   |   |   |   |   f68 <= -0.759481: question (2.0)
|   |   |   |   |   |   |   |   |   |   |   f68 > -0.759481: not_question (26.0)
|   |   |   |   |   |   |   |   |   |   f791 > -0.486425: question (5.0)
|   |   |   |   |   |   |   |   |   f65 > 0.195894: question (7.0)
|   |   |   |   |   |   |   |   f324 > -1.472098
|   |   |   |   |   |   |   |   |   f102 <= 1.418223
|   |   |   |   |   |   |   |   |   |   f173 <= -0.14736
|   |   |   |   |   |   |   |   |   |   |   f258 <= -0.151304
|   |   |   |   |   |   |   |   |   |   |   |   f221 <= -1.104944: not_question (6.0)
|   |   |   |   |   |   |   |   |   |   |   |   f221 > -1.104944
|   |   |   |   |   |   |   |   |   |   |   |   |   f102 <= -0.753042: not_question (4.0)
|   |   |   |   |   |   |   |   |   |   |   |   |   f102 > -0.753042
|   |   |   |   |   |   |   |   |   |   |   |   |   |   f688 <= -0.956454: not_question (3.0)
|   |   |   |   |   |   |   |   |   |   |   |   |   |   f688 > -0.956454
|   |   |   |   |   |   |   |   |   |   |   |   |   |   |   f919 <= 1.584725
|   |   |   |   |   |   |   |   |   |   |   |   |   |   |   |   f240 <= -0.075597: question (38.0)
|   |   |   |   |   |   |   |   |   |   |   |   |   |   |   |   f240 > -0.075597: not_question (3.0/1.0)
|   |   |   |   |   |   |   |   |   |   |   |   |   |   |   f919 > 1.584725: not_question (3.0)
|   |   |   |   |   |   |   |   |   |   |   f258 > -0.151304
|   |   |   |   |   |   |   |   |   |   |   |   f595 <= 0.183786
|   |   |   |   |   |   |   |   |   |   |   |   |   f15 <= 0.84163: not_question (29.0)
|   |   |   |   |   |   |   |   |   |   |   |   |   f15 > 0.84163: question (2.0)
|   |   |   |   |   |   |   |   |   |   |   |   f595 > 0.183786: question (4.0)
|   |   |   |   |   |   |   |   |   |   f173 > -0.14736
|   |   |   |   |   |   |   |   |   |   |   f822 <= -0.440524
|   |   |   |   |   |   |   |   |   |   |   |   f3 <= -0.049645
|   |   |   |   |   |   |   |   |   |   |   |   |   f375 <= -1.066809: question (7.0)
|   |   |   |   |   |   |   |   |   |   |   |   |   f375 > -1.066809
|   |   |   |   |   |   |   |   |   |   |   |   |   |   f592 <= 0.466352
|   |   |   |   |   |   |   |   |   |   |   |   |   |   |   f39 <= 1.038497
|   |   |   |   |   |   |   |   |   |   |   |   |   |   |   |   f964 <= -1.049777: question (6.0/1.0)
|   |   |   |   |   |   |   |   |   |   |   |   |   |   |   |   f964 > -1.049777
|   |   |   |   |   |   |   |   |   |   |   |   |   |   |   |   |   f580 <= -1.616517
|   |   |   |   |   |   |   |   |   |   |   |   |   |   |   |   |   |   f3 <= -0.954765: not_question (2.0)
|   |   |   |   |   |   |   |   |   |   |   |   |   |   |   |   |   |   f3 > -0.954765: question (4.0)
|   |   |   |   |   |   |   |   |   |   |   |   |   |   |   |   |   f580 > -1.616517: not_question (38.0/1.0)
|   |   |   |   |   |   |   |   |   |   |   |   |   |   |   f39 > 1.038497: question (4.0)
|   |   |   |   |   |   |   |   |   |   |   |   |   |   f592 > 0.466352: question (6.0)
|   |   |   |   |   |   |   |   |   |   |   |   f3 > -0.049645: question (15.0)
|   |   |   |   |   |   |   |   |   |   |   f822 > -0.440524
|   |   |   |   |   |   |   |   |   |   |   |   f749 <= -1.704655
|   |   |   |   |   |   |   |   |   |   |   |   |   f467 <= -0.773714
|   |   |   |   |   |   |   |   |   |   |   |   |   |   f931 <= 0.017617: question (18.0/2.0)
|   |   |   |   |   |   |   |   |   |   |   |   |   |   f931 > 0.017617: not_question (8.0/1.0)
|   |   |   |   |   |   |   |   |   |   |   |   |   f467 > -0.773714: not_question (10.0)
|   |   |   |   |   |   |   |   |   |   |   |   f749 > -1.704655
|   |   |   |   |   |   |   |   |   |   |   |   |   f288 <= 0.650741
|   |   |   |   |   |   |   |   |   |   |   |   |   |   f805 <= -1.725273
|   |   |   |   |   |   |   |   |   |   |   |   |   |   |   f658 <= 0.055933
|   |   |   |   |   |   |   |   |   |   |   |   |   |   |   |   f18 <= 1.03111: not_question (10.0)
|   |   |   |   |   |   |   |   |   |   |   |   |   |   |   |   f18 > 1.03111: question (2.0)
|   |   |   |   |   |   |   |   |   |   |   |   |   |   |   f658 > 0.055933: question (7.0)
|   |   |   |   |   |   |   |   |   |   |   |   |   |   f805 > -1.725273
|   |   |   |   |   |   |   |   |   |   |   |   |   |   |   f980 <= -0.255047
|   |   |   |   |   |   |   |   |   |   |   |   |   |   |   |   f904 <= -0.651591
|   |   |   |   |   |   |   |   |   |   |   |   |   |   |   |   |   f402 <= -0.575778
|   |   |   |   |   |   |   |   |   |   |   |   |   |   |   |   |   |   f37 <= -1.748152: question (4.0)
|   |   |   |   |   |   |   |   |   |   |   |   |   |   |   |   |   |   f37 > -1.748152
|   |   |   |   |   |   |   |   |   |   |   |   |   |   |   |   |   |   |   f435 <= 1.558687: not_question (16.0)
|   |   |   |   |   |   |   |   |   |   |   |   |   |   |   |   |   |   |   f435 > 1.558687: question (4.0/1.0)
|   |   |   |   |   |   |   |   |   |   |   |   |   |   |   |   |   f402 > -0.575778: question (15.0)
|   |   |   |   |   |   |   |   |   |   |   |   |   |   |   |   f904 > -0.651591
|   |   |   |   |   |   |   |   |   |   |   |   |   |   |   |   |   f620 <= 1.487293
|   |   |   |   |   |   |   |   |   |   |   |   |   |   |   |   |   |   f559 <= 1.220129
|   |   |   |   |   |   |   |   |   |   |   |   |   |   |   |   |   |   |   f183 <= -0.32659
|   |   |   |   |   |   |   |   |   |   |   |   |   |   |   |   |   |   |   |   f860 <= 0.376754: question (37.0)
|   |   |   |   |   |   |   |   |   |   |   |   |   |   |   |   |   |   |   |   f860 > 0.376754
|   |   |   |   |   |   |   |   |   |   |   |   |   |   |   |   |   |   |   |   |   f149 <= -0.895097
|   |   |   |   |   |   |   |   |   |   |   |   |   |   |   |   |   |   |   |   |   |   f9 <= 1.42591: not_question (5.0)
|   |   |   |   |   |   |   |   |   |   |   |   |   |   |   |   |   |   |   |   |   |   f9 > 1.42591: question (2.0)
|   |   |   |   |   |   |   |   |   |   |   |   |   |   |   |   |   |   |   |   |   f149 > -0.895097
|   |   |   |   |   |   |   |   |   |   |   |   |   |   |   |   |   |   |   |   |   |   f556 <= -0.101502
|   |   |   |   |   |   |   |   |   |   |   |   |   |   |   |   |   |   |   |   |   |   |   f155 <= 0.591406
|   |   |   |   |   |   |   |   |   |   |   |   |   |   |   |   |   |   |   |   |   |   |   |   f20 <= -0.113285
|   |   |   |   |   |   |   |   |   |   |   |   |   |   |   |   |   |   |   |   |   |   |   |   |   f6 <= -0.286542: question (2.0)
|   |   |   |   |   |   |   |   |   |   |   |   |   |   |   |   |   |   |   |   |   |   |   |   |   f6 > -0.286542: not_question (3.0)
|   |   |   |   |   |   |   |   |   |   |   |   |   |   |   |   |   |   |   |   |   |   |   |   f20 > -0.113285: question (60.0)
|   |   |   |   |   |   |   |   |   |   |   |   |   |   |   |   |   |   |   |   |   |   |   f155 > 0.591406: not_question (4.0/1.0)
|   |   |   |   |   |   |   |   |   |   |   |   |   |   |   |   |   |   |   |   |   |   f556 > -0.101502
|   |   |   |   |   |   |   |   |   |   |   |   |   |   |   |   |   |   |   |   |   |   |   f1 <= 0.943001: not_question (4.0)
|   |   |   |   |   |   |   |   |   |   |   |   |   |   |   |   |   |   |   |   |   |   |   f1 > 0.943001: question (2.0)
|   |   |   |   |   |   |   |   |   |   |   |   |   |   |   |   |   |   |   f183 > -0.32659: question (67.0)
|   |   |   |   |   |   |   |   |   |   |   |   |   |   |   |   |   |   f559 > 1.220129
|   |   |   |   |   |   |   |   |   |   |   |   |   |   |   |   |   |   |   f236 <= -0.525544: not_question (7.0)
|   |   |   |   |   |   |   |   |   |   |   |   |   |   |   |   |   |   |   f236 > -0.525544: question (11.0/1.0)
|   |   |   |   |   |   |   |   |   |   |   |   |   |   |   |   |   f620 > 1.487293
|   |   |   |   |   |   |   |   |   |   |   |   |   |   |   |   |   |   f705 <= 0.205789: not_question (8.0)
|   |   |   |   |   |   |   |   |   |   |   |   |   |   |   |   |   |   f705 > 0.205789: question (6.0)
|   |   |   |   |   |   |   |   |   |   |   |   |   |   |   f980 > -0.255047: question (85.0/1.0)
|   |   |   |   |   |   |   |   |   |   |   |   |   f288 > 0.650741
|   |   |   |   |   |   |   |   |   |   |   |   |   |   f238 <= -0.756732: not_question (8.0)
|   |   |   |   |   |   |   |   |   |   |   |   |   |   f238 > -0.756732
|   |   |   |   |   |   |   |   |   |   |   |   |   |   |   f968 <= -1.020552: not_question (8.0/1.0)
|   |   |   |   |   |   |   |   |   |   |   |   |   |   |   f968 > -1.020552: question (16.0/1.0)
|   |   |   |   |   |   |   |   |   f102 > 1.418223
|   |   |   |   |   |   |   |   |   |   f596 <= 1.006871
|   |   |   |   |   |   |   |   |   |   |   f300 <= -1.45158
|   |   |   |   |   |   |   |   |   |   |   |   f1 <= 0.149415: question (2.0)
|   |   |   |   |   |   |   |   |   |   |   |   f1 > 0.149415: not_question (2.0)
|   |   |   |   |   |   |   |   |   |   |   f300 > -1.45158: question (64.0)
|   |   |   |   |   |   |   |   |   |   f596 > 1.006871
|   |   |   |   |   |   |   |   |   |   |   f2 <= -0.469645: not_question (4.0)
|   |   |   |   |   |   |   |   |   |   |   f2 > -0.469645: question (2.0)
|   |   |   |   |   |   f605 > 0.805723
|   |   |   |   |   |   |   f873 <= 0.548862
|   |   |   |   |   |   |   |   f124 <= 0.789933: not_question (22.0)
|   |   |   |   |   |   |   |   f124 > 0.789933: question (2.0)
|   |   |   |   |   |   |   f873 > 0.548862: question (6.0)
|   |   |   |   f590 > -0.219138
|   |   |   |   |   f293 <= -0.141348
|   |   |   |   |   |   f382 <= 1.98302
|   |   |   |   |   |   |   f791 <= 0.482048
|   |   |   |   |   |   |   |   f894 <= -1.609809
|   |   |   |   |   |   |   |   |   f523 <= -0.996263: not_question (4.0)
|   |   |   |   |   |   |   |   |   f523 > -0.996263
|   |   |   |   |   |   |   |   |   |   f184 <= -0.274903
|   |   |   |   |   |   |   |   |   |   |   f5 <= 0.653289: not_question (6.0)
|   |   |   |   |   |   |   |   |   |   |   f5 > 0.653289: question (2.0)
|   |   |   |   |   |   |   |   |   |   f184 > -0.274903: question (32.0/1.0)
|   |   |   |   |   |   |   |   f894 > -1.609809
|   |   |   |   |   |   |   |   |   f991 <= 0.220617
|   |   |   |   |   |   |   |   |   |   f497 <= -1.423156
|   |   |   |   |   |   |   |   |   |   |   f194 <= 0.704017
|   |   |   |   |   |   |   |   |   |   |   |   f256 <= -0.457468
|   |   |   |   |   |   |   |   |   |   |   |   |   f230 <= -0.869689
|   |   |   |   |   |   |   |   |   |   |   |   |   |   f9 <= 0.592172: not_question (3.0)
|   |   |   |   |   |   |   |   |   |   |   |   |   |   f9 > 0.592172: question (4.0)
|   |   |   |   |   |   |   |   |   |   |   |   |   f230 > -0.869689
|   |   |   |   |   |   |   |   |   |   |   |   |   |   f176 <= -2.420454
|   |   |   |   |   |   |   |   |   |   |   |   |   |   |   f3 <= -0.928932: not_question (2.0)
|   |   |   |   |   |   |   |   |   |   |   |   |   |   |   f3 > -0.928932: question (2.0)
|   |   |   |   |   |   |   |   |   |   |   |   |   |   f176 > -2.420454: not_question (66.0)
|   |   |   |   |   |   |   |   |   |   |   |   f256 > -0.457468
|   |   |   |   |   |   |   |   |   |   |   |   |   f0 <= -0.260205: not_question (2.0)
|   |   |   |   |   |   |   |   |   |   |   |   |   f0 > -0.260205: question (5.0)
|   |   |   |   |   |   |   |   |   |   |   f194 > 0.704017: question (6.0/1.0)
|   |   |   |   |   |   |   |   |   |   f497 > -1.423156
|   |   |   |   |   |   |   |   |   |   |   f13 <= 0.972472
|   |   |   |   |   |   |   |   |   |   |   |   f63 <= 1.436118
|   |   |   |   |   |   |   |   |   |   |   |   |   f355 <= 0.76925
|   |   |   |   |   |   |   |   |   |   |   |   |   |   f972 <= 1.305131
|   |   |   |   |   |   |   |   |   |   |   |   |   |   |   f733 <= 0.004436
|   |   |   |   |   |   |   |   |   |   |   |   |   |   |   |   f692 <= -0.601878
|   |   |   |   |   |   |   |   |   |   |   |   |   |   |   |   |   f72 <= 0.795071
|   |   |   |   |   |   |   |   |   |   |   |   |   |   |   |   |   |   f210 <= -0.843531: not_question (27.0/1.0)
|   |   |   |   |   |   |   |   |   |   |   |   |   |   |   |   |   |   f210 > -0.843531
|   |   |   |   |   |   |   |   |   |   |   |   |   |   |   |   |   |   |   f524 <= -1.133459: not_question (26.0/1.0)
|   |   |   |   |   |   |   |   |   |   |   |   |   |   |   |   |   |   |   f524 > -1.133459
|   |   |   |   |   |   |   |   |   |   |   |   |   |   |   |   |   |   |   |   f527 <= 0.551558
|   |   |   |   |   |   |   |   |   |   |   |   |   |   |   |   |   |   |   |   |   f103 <= -0.945327: question (4.0)
|   |   |   |   |   |   |   |   |   |   |   |   |   |   |   |   |   |   |   |   |   f103 > -0.945327
|   |   |   |   |   |   |   |   |   |   |   |   |   |   |   |   |   |   |   |   |   |   f697 <= -0.859654: question (3.0)
|   |   |   |   |   |   |   |   |   |   |   |   |   |   |   |   |   |   |   |   |   |   f697 > -0.859654
|   |   |   |   |   |   |   |   |   |   |   |   |   |   |   |   |   |   |   |   |   |   |   f82 <= 0.611897: not_question (46.0)
|   |   |   |   |   |   |   |   |   |   |   |   |   |   |   |   |   |   |   |   |   |   |   f82 > 0.611897
|   |   |   |   |   |   |   |   |   |   |   |   |   |   |   |   |   |   |   |   |   |   |   |   f8 <= -0.408367: question (3.0)
|   |   |   |   |   |   |   |   |   |   |   |   |   |   |   |   |   |   |   |   |   |   |   |   f8 > -0.408367: not_question (3.0)
|   |   |   |   |   |   |   |   |   |   |   |   |   |   |   |   |   |   |   |   f527 > 0.551558
|   |   |   |   |   |   |   |   |   |   |   |   |   |   |   |   |   |   |   |   |   f653 <= 0.10246
|   |   |   |   |   |   |   |   |   |   |   |   |   |   |   |   |   |   |   |   |   |   f956 <= 0.777115
|   |   |   |   |   |   |   |   |   |   |   |   |   |   |   |   |   |   |   |   |   |   |   f50 <= -0.552653: question (9.0)
|   |   |   |   |   |   |   |   |   |   |   |   |   |   |   |   |   |   |   |   |   |   |   f50 > -0.552653
|   |   |   |   |   |   |   |   |   |   |   |   |   |   |   |   |   |   |   |   |   |   |   |   f474 <= 1.37861
|   |   |   |   |   |   |   |   |   |   |   |   |   |   |   |   |   |   |   |   |   |   |   |   |   f638 <= 0.322986
|   |   |   |   |   |   |   |   |   |   |   |   |   |   |   |   |   |   |   |   |   |   |   |   |   |   f727 <= -0.101409: question (9.0)
|   |   |   |   |   |   |   |   |   |   |   |   |   |   |   |   |   |   |   |   |   |   |   |   |   |   f727 > -0.101409
|   |   |   |   |   |   |   |   |   |   |   |   |   |   |   |   |   |   |   |   |   |   |   |   |   |   |   f907 <= 0.278771
|   |   |   |   |   |   |   |   |   |   |   |   |   |   |   |   |   |   |   |   |   |   |   |   |   |   |   |   f547 <= 0.879241
|   |   |   |   |   |   |   |   |   |   |   |   |   |   |   |   |   |   |   |   |   |   |   |   |   |   |   |   |   f574 <= -0.327781: question (4.0)
|   |   |   |   |   |   |   |   |   |   |   |   |   |   |   |   |   |   |   |   |   |   |   |   |   |   |   |   |   f574 > -0.327781
|   |   |   |   |   |   |   |   |   |   |   |   |   |   |   |   |   |   |   |   |   |   |   |   |   |   |   |   |   |   f819 <= 1.916243
|   |   |   |   |   |   |   |   |   |   |   |   |   |   |   |   |   |   |   |   |   |   |   |   |   |   |   |   |   |   |   f375 <= 0.680381: not_question (44.0)
|   |   |   |   |   |   |   |   |   |   |   |   |   |   |   |   |   |   |   |   |   |   |   |   |   |   |   |   |   |   |   f375 > 0.680381
|   |   |   |   |   |   |   |   |   |   |   |   |   |   |   |   |   |   |   |   |   |   |   |   |   |   |   |   |   |   |   |   f6 <= -0.594939: not_question (2.0)
|   |   |   |   |   |   |   |   |   |   |   |   |   |   |   |   |   |   |   |   |   |   |   |   |   |   |   |   |   |   |   |   f6 > -0.594939: question (4.0)
|   |   |   |   |   |   |   |   |   |   |   |   |   |   |   |   |   |   |   |   |   |   |   |   |   |   |   |   |   |   f819 > 1.916243: question (3.0)
|   |   |   |   |   |   |   |   |   |   |   |   |   |   |   |   |   |   |   |   |   |   |   |   |   |   |   |   f547 > 0.879241
|   |   |   |   |   |   |   |   |   |   |   |   |   |   |   |   |   |   |   |   |   |   |   |   |   |   |   |   |   f84 <= -0.573134: question (11.0)
|   |   |   |   |   |   |   |   |   |   |   |   |   |   |   |   |   |   |   |   |   |   |   |   |   |   |   |   |   f84 > -0.573134: not_question (3.0)
|   |   |   |   |   |   |   |   |   |   |   |   |   |   |   |   |   |   |   |   |   |   |   |   |   |   |   f907 > 0.278771: question (8.0)
|   |   |   |   |   |   |   |   |   |   |   |   |   |   |   |   |   |   |   |   |   |   |   |   |   f638 > 0.322986: not_question (16.0)
|   |   |   |   |   |   |   |   |   |   |   |   |   |   |   |   |   |   |   |   |   |   |   |   f474 > 1.37861: question (8.0)
|   |   |   |   |   |   |   |   |   |   |   |   |   |   |   |   |   |   |   |   |   |   f956 > 0.777115
|   |   |   |   |   |   |   |   |   |   |   |   |   |   |   |   |   |   |   |   |   |   |   f314 <= 0.846353
|   |   |   |   |   |   |   |   |   |   |   |   |   |   |   |   |   |   |   |   |   |   |   |   f328 <= 1.381009
|   |   |   |   |   |   |   |   |   |   |   |   |   |   |   |   |   |   |   |   |   |   |   |   |   f900 <= -1.729702: not_question (3.0)
|   |   |   |   |   |   |   |   |   |   |   |   |   |   |   |   |   |   |   |   |   |   |   |   |   f900 > -1.729702
|   |   |   |   |   |   |   |   |   |   |   |   |   |   |   |   |   |   |   |   |   |   |   |   |   |   f251 <= 1.642915: question (52.0)
|   |   |   |   |   |   |   |   |   |   |   |   |   |   |   |   |   |   |   |   |   |   |   |   |   |   f251 > 1.642915
|   |   |   |   |   |   |   |   |   |   |   |   |   |   |   |   |   |   |   |   |   |   |   |   |   |   |   f5 <= 0.695974: not_question (3.0)
|   |   |   |   |   |   |   |   |   |   |   |   |   |   |   |   |   |   |   |   |   |   |   |   |   |   |   f5 > 0.695974: question (2.0)
|   |   |   |   |   |   |   |   |   |   |   |   |   |   |   |   |   |   |   |   |   |   |   |   f328 > 1.381009: not_question (4.0)
|   |   |   |   |   |   |   |   |   |   |   |   |   |   |   |   |   |   |   |   |   |   |   f314 > 0.846353: not_question (4.0)
|   |   |   |   |   |   |   |   |   |   |   |   |   |   |   |   |   |   |   |   |   f653 > 0.10246
|   |   |   |   |   |   |   |   |   |   |   |   |   |   |   |   |   |   |   |   |   |   f316 <= -0.527146
|   |   |   |   |   |   |   |   |   |   |   |   |   |   |   |   |   |   |   |   |   |   |   f26 <= 0.36946: question (11.0)
|   |   |   |   |   |   |   |   |   |   |   |   |   |   |   |   |   |   |   |   |   |   |   f26 > 0.36946: not_question (2.0)
|   |   |   |   |   |   |   |   |   |   |   |   |   |   |   |   |   |   |   |   |   |   f316 > -0.527146
|   |   |   |   |   |   |   |   |   |   |   |   |   |   |   |   |   |   |   |   |   |   |   f786 <= 0.375833
|   |   |   |   |   |   |   |   |   |   |   |   |   |   |   |   |   |   |   |   |   |   |   |   f131 <= -0.82911: not_question (19.0)
|   |   |   |   |   |   |   |   |   |   |   |   |   |   |   |   |   |   |   |   |   |   |   |   f131 > -0.82911
|   |   |   |   |   |   |   |   |   |   |   |   |   |   |   |   |   |   |   |   |   |   |   |   |   f475 <= -1.150867: question (9.0/1.0)
|   |   |   |   |   |   |   |   |   |   |   |   |   |   |   |   |   |   |   |   |   |   |   |   |   f475 > -1.150867
|   |   |   |   |   |   |   |   |   |   |   |   |   |   |   |   |   |   |   |   |   |   |   |   |   |   f760 <= 0.489313
|   |   |   |   |   |   |   |   |   |   |   |   |   |   |   |   |   |   |   |   |   |   |   |   |   |   |   f64 <= 0.515024
|   |   |   |   |   |   |   |   |   |   |   |   |   |   |   |   |   |   |   |   |   |   |   |   |   |   |   |   f930 <= -1.853713: question (7.0)
|   |   |   |   |   |   |   |   |   |   |   |   |   |   |   |   |   |   |   |   |   |   |   |   |   |   |   |   f930 > -1.853713
|   |   |   |   |   |   |   |   |   |   |   |   |   |   |   |   |   |   |   |   |   |   |   |   |   |   |   |   |   f2 <= 0.154399
|   |   |   |   |   |   |   |   |   |   |   |   |   |   |   |   |   |   |   |   |   |   |   |   |   |   |   |   |   |   f715 <= 0.2839: not_question (27.0/1.0)
|   |   |   |   |   |   |   |   |   |   |   |   |   |   |   |   |   |   |   |   |   |   |   |   |   |   |   |   |   |   f715 > 0.2839
|   |   |   |   |   |   |   |   |   |   |   |   |   |   |   |   |   |   |   |   |   |   |   |   |   |   |   |   |   |   |   f86 <= 1.068425
|   |   |   |   |   |   |   |   |   |   |   |   |   |   |   |   |   |   |   |   |   |   |   |   |   |   |   |   |   |   |   |   f272 <= 0.827278
|   |   |   |   |   |   |   |   |   |   |   |   |   |   |   |   |   |   |   |   |   |   |   |   |   |   |   |   |   |   |   |   |   f991 <= -0.610474
|   |   |   |   |   |   |   |   |   |   |   |   |   |   |   |   |   |   |   |   |   |   |   |   |   |   |   |   |   |   |   |   |   |   f130 <= 1.197458
|   |   |   |   |   |   |   |   |   |   |   |   |   |   |   |   |   |   |   |   |   |   |   |   |   |   |   |   |   |   |   |   |   |   |   f22 <= 1.076357: question (21.0)
|   |   |   |   |   |   |   |   |   |   |   |   |   |   |   |   |   |   |   |   |   |   |   |   |   |   |   |   |   |   |   |   |   |   |   f22 > 1.076357: not_question (2.0)
|   |   |   |   |   |   |   |   |   |   |   |   |   |   |   |   |   |   |   |   |   |   |   |   |   |   |   |   |   |   |   |   |   |   f130 > 1.197458: not_question (3.0)
|   |   |   |   |   |   |   |   |   |   |   |   |   |   |   |   |   |   |   |   |   |   |   |   |   |   |   |   |   |   |   |   |   f991 > -0.610474
|   |   |   |   |   |   |   |   |   |   |   |   |   |   |   |   |   |   |   |   |   |   |   |   |   |   |   |   |   |   |   |   |   |   f80 <= 0.728855: not_question (14.0)
|   |   |   |   |   |   |   |   |   |   |   |   |   |   |   |   |   |   |   |   |   |   |   |   |   |   |   |   |   |   |   |   |   |   f80 > 0.728855: question (3.0)
|   |   |   |   |   |   |   |   |   |   |   |   |   |   |   |   |   |   |   |   |   |   |   |   |   |   |   |   |   |   |   |   f272 > 0.827278
|   |   |   |   |   |   |   |   |   |   |   |   |   |   |   |   |   |   |   |   |   |   |   |   |   |   |   |   |   |   |   |   |   f109 <= -0.133125: question (2.0)
|   |   |   |   |   |   |   |   |   |   |   |   |   |   |   |   |   |   |   |   |   |   |   |   |   |   |   |   |   |   |   |   |   f109 > -0.133125: not_question (34.0)
|   |   |   |   |   |   |   |   |   |   |   |   |   |   |   |   |   |   |   |   |   |   |   |   |   |   |   |   |   |   |   f86 > 1.068425: question (6.0)
|   |   |   |   |   |   |   |   |   |   |   |   |   |   |   |   |   |   |   |   |   |   |   |   |   |   |   |   |   f2 > 0.154399: question (6.0)
|   |   |   |   |   |   |   |   |   |   |   |   |   |   |   |   |   |   |   |   |   |   |   |   |   |   |   f64 > 0.515024: not_question (16.0)
|   |   |   |   |   |   |   |   |   |   |   |   |   |   |   |   |   |   |   |   |   |   |   |   |   |   f760 > 0.489313: not_question (21.0)
|   |   |   |   |   |   |   |   |   |   |   |   |   |   |   |   |   |   |   |   |   |   |   f786 > 0.375833
|   |   |   |   |   |   |   |   |   |   |   |   |   |   |   |   |   |   |   |   |   |   |   |   f21 <= -1.754097: not_question (2.0)
|   |   |   |   |   |   |   |   |   |   |   |   |   |   |   |   |   |   |   |   |   |   |   |   f21 > -1.754097: question (10.0)
|   |   |   |   |   |   |   |   |   |   |   |   |   |   |   |   |   f72 > 0.795071
|   |   |   |   |   |   |   |   |   |   |   |   |   |   |   |   |   |   f349 <= -0.306791
|   |   |   |   |   |   |   |   |   |   |   |   |   |   |   |   |   |   |   f2 <= -0.731451: not_question (2.0)
|   |   |   |   |   |   |   |   |   |   |   |   |   |   |   |   |   |   |   f2 > -0.731451: question (7.0)
|   |   |   |   |   |   |   |   |   |   |   |   |   |   |   |   |   |   f349 > -0.306791
|   |   |   |   |   |   |   |   |   |   |   |   |   |   |   |   |   |   |   f949 <= -1.007245: not_question (44.0)
|   |   |   |   |   |   |   |   |   |   |   |   |   |   |   |   |   |   |   f949 > -1.007245
|   |   |   |   |   |   |   |   |   |   |   |   |   |   |   |   |   |   |   |   f587 <= -0.291916
|   |   |   |   |   |   |   |   |   |   |   |   |   |   |   |   |   |   |   |   |   f427 <= 1.286408
|   |   |   |   |   |   |   |   |   |   |   |   |   |   |   |   |   |   |   |   |   |   f741 <= -0.946747
|   |   |   |   |   |   |   |   |   |   |   |   |   |   |   |   |   |   |   |   |   |   |   f800 <= 0.115903: question (5.0)
|   |   |   |   |   |   |   |   |   |   |   |   |   |   |   |   |   |   |   |   |   |   |   f800 > 0.115903: not_question (16.0/1.0)
|   |   |   |   |   |   |   |   |   |   |   |   |   |   |   |   |   |   |   |   |   |   f741 > -0.946747: not_question (56.0)
|   |   |   |   |   |   |   |   |   |   |   |   |   |   |   |   |   |   |   |   |   f427 > 1.286408
|   |   |   |   |   |   |   |   |   |   |   |   |   |   |   |   |   |   |   |   |   |   f437 <= 0.478532: not_question (6.0)
|   |   |   |   |   |   |   |   |   |   |   |   |   |   |   |   |   |   |   |   |   |   f437 > 0.478532: question (7.0)
|   |   |   |   |   |   |   |   |   |   |   |   |   |   |   |   |   |   |   |   f587 > -0.291916
|   |   |   |   |   |   |   |   |   |   |   |   |   |   |   |   |   |   |   |   |   f195 <= 0.436695: question (9.0)
|   |   |   |   |   |   |   |   |   |   |   |   |   |   |   |   |   |   |   |   |   f195 > 0.436695: not_question (5.0)
|   |   |   |   |   |   |   |   |   |   |   |   |   |   |   |   f692 > -0.601878
|   |   |   |   |   |   |   |   |   |   |   |   |   |   |   |   |   f240 <= 0.590673
|   |   |   |   |   |   |   |   |   |   |   |   |   |   |   |   |   |   f226 <= -0.730476
|   |   |   |   |   |   |   |   |   |   |   |   |   |   |   |   |   |   |   f60 <= 1.125169
|   |   |   |   |   |   |   |   |   |   |   |   |   |   |   |   |   |   |   |   f105 <= 0.319466
|   |   |   |   |   |   |   |   |   |   |   |   |   |   |   |   |   |   |   |   |   f827 <= 1.700993: question (43.0/1.0)
|   |   |   |   |   |   |   |   |   |   |   |   |   |   |   |   |   |   |   |   |   f827 > 1.700993
|   |   |   |   |   |   |   |   |   |   |   |   |   |   |   |   |   |   |   |   |   |   f11 <= -0.707655: question (2.0)
|   |   |   |   |   |   |   |   |   |   |   |   |   |   |   |   |   |   |   |   |   |   f11 > -0.707655: not_question (4.0)
|   |   |   |   |   |   |   |   |   |   |   |   |   |   |   |   |   |   |   |   f105 > 0.319466: not_question (3.0)
|   |   |   |   |   |   |   |   |   |   |   |   |   |   |   |   |   |   |   f60 > 1.125169: not_question (4.0)
|   |   |   |   |   |   |   |   |   |   |   |   |   |   |   |   |   |   f226 > -0.730476
|   |   |   |   |   |   |   |   |   |   |   |   |   |   |   |   |   |   |   f307 <= -0.496582
|   |   |   |   |   |   |   |   |   |   |   |   |   |   |   |   |   |   |   |   f400 <= 0.094772
|   |   |   |   |   |   |   |   |   |   |   |   |   |   |   |   |   |   |   |   |   f102 <= -0.103828: not_question (3.0)
|   |   |   |   |   |   |   |   |   |   |   |   |   |   |   |   |   |   |   |   |   f102 > -0.103828
|   |   |   |   |   |   |   |   |   |   |   |   |   |   |   |   |   |   |   |   |   |   f194 <= -1.08636: not_question (2.0)
|   |   |   |   |   |   |   |   |   |   |   |   |   |   |   |   |   |   |   |   |   |   f194 > -1.08636: question (27.0)
|   |   |   |   |   |   |   |   |   |   |   |   |   |   |   |   |   |   |   |   f400 > 0.094772
|   |   |   |   |   |   |   |   |   |   |   |   |   |   |   |   |   |   |   |   |   f855 <= 0.499926
|   |   |   |   |   |   |   |   |   |   |   |   |   |   |   |   |   |   |   |   |   |   f178 <= 1.620501
|   |   |   |   |   |   |   |   |   |   |   |   |   |   |   |   |   |   |   |   |   |   |   f96 <= 1.764325
|   |   |   |   |   |   |   |   |   |   |   |   |   |   |   |   |   |   |   |   |   |   |   |   f371 <= 1.497564
|   |   |   |   |   |   |   |   |   |   |   |   |   |   |   |   |   |   |   |   |   |   |   |   |   f81 <= 0.721352
|   |   |   |   |   |   |   |   |   |   |   |   |   |   |   |   |   |   |   |   |   |   |   |   |   |   f812 <= 1.068001
|   |   |   |   |   |   |   |   |   |   |   |   |   |   |   |   |   |   |   |   |   |   |   |   |   |   |   f234 <= -1.700119: question (16.0/1.0)
|   |   |   |   |   |   |   |   |   |   |   |   |   |   |   |   |   |   |   |   |   |   |   |   |   |   |   f234 > -1.700119
|   |   |   |   |   |   |   |   |   |   |   |   |   |   |   |   |   |   |   |   |   |   |   |   |   |   |   |   f593 <= 0.682127
|   |   |   |   |   |   |   |   |   |   |   |   |   |   |   |   |   |   |   |   |   |   |   |   |   |   |   |   |   f76 <= 1.148903
|   |   |   |   |   |   |   |   |   |   |   |   |   |   |   |   |   |   |   |   |   |   |   |   |   |   |   |   |   |   f216 <= -0.328968: not_question (15.0)
|   |   |   |   |   |   |   |   |   |   |   |   |   |   |   |   |   |   |   |   |   |   |   |   |   |   |   |   |   |   f216 > -0.328968
|   |   |   |   |   |   |   |   |   |   |   |   |   |   |   |   |   |   |   |   |   |   |   |   |   |   |   |   |   |   |   f341 <= 1.582762
|   |   |   |   |   |   |   |   |   |   |   |   |   |   |   |   |   |   |   |   |   |   |   |   |   |   |   |   |   |   |   |   f529 <= -0.371374
|   |   |   |   |   |   |   |   |   |   |   |   |   |   |   |   |   |   |   |   |   |   |   |   |   |   |   |   |   |   |   |   |   f313 <= -1.531656: question (9.0)
|   |   |   |   |   |   |   |   |   |   |   |   |   |   |   |   |   |   |   |   |   |   |   |   |   |   |   |   |   |   |   |   |   f313 > -1.531656
|   |   |   |   |   |   |   |   |   |   |   |   |   |   |   |   |   |   |   |   |   |   |   |   |   |   |   |   |   |   |   |   |   |   f476 <= -1.568298: question (9.0)
|   |   |   |   |   |   |   |   |   |   |   |   |   |   |   |   |   |   |   |   |   |   |   |   |   |   |   |   |   |   |   |   |   |   f476 > -1.568298
|   |   |   |   |   |   |   |   |   |   |   |   |   |   |   |   |   |   |   |   |   |   |   |   |   |   |   |   |   |   |   |   |   |   |   f317 <= 0.216646
|   |   |   |   |   |   |   |   |   |   |   |   |   |   |   |   |   |   |   |   |   |   |   |   |   |   |   |   |   |   |   |   |   |   |   |   f193 <= -0.533863: question (15.0/1.0)
|   |   |   |   |   |   |   |   |   |   |   |   |   |   |   |   |   |   |   |   |   |   |   |   |   |   |   |   |   |   |   |   |   |   |   |   f193 > -0.533863
|   |   |   |   |   |   |   |   |   |   |   |   |   |   |   |   |   |   |   |   |   |   |   |   |   |   |   |   |   |   |   |   |   |   |   |   |   f515 <= 1.882458
|   |   |   |   |   |   |   |   |   |   |   |   |   |   |   |   |   |   |   |   |   |   |   |   |   |   |   |   |   |   |   |   |   |   |   |   |   |   f239 <= 0.36662
|   |   |   |   |   |   |   |   |   |   |   |   |   |   |   |   |   |   |   |   |   |   |   |   |   |   |   |   |   |   |   |   |   |   |   |   |   |   |   f858 <= -0.386203
|   |   |   |   |   |   |   |   |   |   |   |   |   |   |   |   |   |   |   |   |   |   |   |   |   |   |   |   |   |   |   |   |   |   |   |   |   |   |   |   f249 <= -0.279146: question (5.0)
|   |   |   |   |   |   |   |   |   |   |   |   |   |   |   |   |   |   |   |   |   |   |   |   |   |   |   |   |   |   |   |   |   |   |   |   |   |   |   |   f249 > -0.279146
|   |   |   |   |   |   |   |   |   |   |   |   |   |   |   |   |   |   |   |   |   |   |   |   |   |   |   |   |   |   |   |   |   |   |   |   |   |   |   |   |   f479 <= 1.831031
|   |   |   |   |   |   |   |   |   |   |   |   |   |   |   |   |   |   |   |   |   |   |   |   |   |   |   |   |   |   |   |   |   |   |   |   |   |   |   |   |   |   f503 <= -1.280255: question (4.0/1.0)
|   |   |   |   |   |   |   |   |   |   |   |   |   |   |   |   |   |   |   |   |   |   |   |   |   |   |   |   |   |   |   |   |   |   |   |   |   |   |   |   |   |   f503 > -1.280255
|   |   |   |   |   |   |   |   |   |   |   |   |   |   |   |   |   |   |   |   |   |   |   |   |   |   |   |   |   |   |   |   |   |   |   |   |   |   |   |   |   |   |   f30 <= 1.232126: not_question (38.0)
|   |   |   |   |   |   |   |   |   |   |   |   |   |   |   |   |   |   |   |   |   |   |   |   |   |   |   |   |   |   |   |   |   |   |   |   |   |   |   |   |   |   |   f30 > 1.232126: question (3.0/1.0)
|   |   |   |   |   |   |   |   |   |   |   |   |   |   |   |   |   |   |   |   |   |   |   |   |   |   |   |   |   |   |   |   |   |   |   |   |   |   |   |   |   f479 > 1.831031: question (3.0)
|   |   |   |   |   |   |   |   |   |   |   |   |   |   |   |   |   |   |   |   |   |   |   |   |   |   |   |   |   |   |   |   |   |   |   |   |   |   |   f858 > -0.386203
|   |   |   |   |   |   |   |   |   |   |   |   |   |   |   |   |   |   |   |   |   |   |   |   |   |   |   |   |   |   |   |   |   |   |   |   |   |   |   |   f27 <= -0.979389: not_question (4.0)
|   |   |   |   |   |   |   |   |   |   |   |   |   |   |   |   |   |   |   |   |   |   |   |   |   |   |   |   |   |   |   |   |   |   |   |   |   |   |   |   f27 > -0.979389
|   |   |   |   |   |   |   |   |   |   |   |   |   |   |   |   |   |   |   |   |   |   |   |   |   |   |   |   |   |   |   |   |   |   |   |   |   |   |   |   |   f674 <= -0.300244: not_question (4.0/1.0)
|   |   |   |   |   |   |   |   |   |   |   |   |   |   |   |   |   |   |   |   |   |   |   |   |   |   |   |   |   |   |   |   |   |   |   |   |   |   |   |   |   f674 > -0.300244: question (22.0)
|   |   |   |   |   |   |   |   |   |   |   |   |   |   |   |   |   |   |   |   |   |   |   |   |   |   |   |   |   |   |   |   |   |   |   |   |   |   f239 > 0.36662: question (10.0)
|   |   |   |   |   |   |   |   |   |   |   |   |   |   |   |   |   |   |   |   |   |   |   |   |   |   |   |   |   |   |   |   |   |   |   |   |   f515 > 1.882458: not_question (15.0)
|   |   |   |   |   |   |   |   |   |   |   |   |   |   |   |   |   |   |   |   |   |   |   |   |   |   |   |   |   |   |   |   |   |   |   f317 > 0.216646: not_question (10.0)
|   |   |   |   |   |   |   |   |   |   |   |   |   |   |   |   |   |   |   |   |   |   |   |   |   |   |   |   |   |   |   |   f529 > -0.371374: not_question (12.0)
|   |   |   |   |   |   |   |   |   |   |   |   |   |   |   |   |   |   |   |   |   |   |   |   |   |   |   |   |   |   |   f341 > 1.582762: question (11.0)
|   |   |   |   |   |   |   |   |   |   |   |   |   |   |   |   |   |   |   |   |   |   |   |   |   |   |   |   |   f76 > 1.148903: question (14.0/1.0)
|   |   |   |   |   |   |   |   |   |   |   |   |   |   |   |   |   |   |   |   |   |   |   |   |   |   |   |   f593 > 0.682127
|   |   |   |   |   |   |   |   |   |   |   |   |   |   |   |   |   |   |   |   |   |   |   |   |   |   |   |   |   f92 <= -0.256785
|   |   |   |   |   |   |   |   |   |   |   |   |   |   |   |   |   |   |   |   |   |   |   |   |   |   |   |   |   |   f199 <= 0.525379: not_question (32.0)
|   |   |   |   |   |   |   |   |   |   |   |   |   |   |   |   |   |   |   |   |   |   |   |   |   |   |   |   |   |   f199 > 0.525379
|   |   |   |   |   |   |   |   |   |   |   |   |   |   |   |   |   |   |   |   |   |   |   |   |   |   |   |   |   |   |   f723 <= -1.066417: not_question (7.0)
|   |   |   |   |   |   |   |   |   |   |   |   |   |   |   |   |   |   |   |   |   |   |   |   |   |   |   |   |   |   |   f723 > -1.066417: question (5.0)
|   |   |   |   |   |   |   |   |   |   |   |   |   |   |   |   |   |   |   |   |   |   |   |   |   |   |   |   |   f92 > -0.256785: question (3.0)
|   |   |   |   |   |   |   |   |   |   |   |   |   |   |   |   |   |   |   |   |   |   |   |   |   |   f812 > 1.068001: not_question (18.0)
|   |   |   |   |   |   |   |   |   |   |   |   |   |   |   |   |   |   |   |   |   |   |   |   |   f81 > 0.721352
|   |   |   |   |   |   |   |   |   |   |   |   |   |   |   |   |   |   |   |   |   |   |   |   |   |   f664 <= -0.968878: not_question (5.0)
|   |   |   |   |   |   |   |   |   |   |   |   |   |   |   |   |   |   |   |   |   |   |   |   |   |   f664 > -0.968878
|   |   |   |   |   |   |   |   |   |   |   |   |   |   |   |   |   |   |   |   |   |   |   |   |   |   |   f540 <= 0.937178
|   |   |   |   |   |   |   |   |   |   |   |   |   |   |   |   |   |   |   |   |   |   |   |   |   |   |   |   f53 <= 1.092452
|   |   |   |   |   |   |   |   |   |   |   |   |   |   |   |   |   |   |   |   |   |   |   |   |   |   |   |   |   f147 <= 0.998634: question (43.0)
|   |   |   |   |   |   |   |   |   |   |   |   |   |   |   |   |   |   |   |   |   |   |   |   |   |   |   |   |   f147 > 0.998634
|   |   |   |   |   |   |   |   |   |   |   |   |   |   |   |   |   |   |   |   |   |   |   |   |   |   |   |   |   |   f13 <= 0.250501: not_question (3.0)
|   |   |   |   |   |   |   |   |   |   |   |   |   |   |   |   |   |   |   |   |   |   |   |   |   |   |   |   |   |   f13 > 0.250501: question (3.0)
|   |   |   |   |   |   |   |   |   |   |   |   |   |   |   |   |   |   |   |   |   |   |   |   |   |   |   |   f53 > 1.092452: not_question (3.0)
|   |   |   |   |   |   |   |   |   |   |   |   |   |   |   |   |   |   |   |   |   |   |   |   |   |   |   f540 > 0.937178
|   |   |   |   |   |   |   |   |   |   |   |   |   |   |   |   |   |   |   |   |   |   |   |   |   |   |   |   f87 <= 0.587459: not_question (8.0)
|   |   |   |   |   |   |   |   |   |   |   |   |   |   |   |   |   |   |   |   |   |   |   |   |   |   |   |   f87 > 0.587459: question (2.0)
|   |   |   |   |   |   |   |   |   |   |   |   |   |   |   |   |   |   |   |   |   |   |   |   f371 > 1.497564
|   |   |   |   |   |   |   |   |   |   |   |   |   |   |   |   |   |   |   |   |   |   |   |   |   f635 <= 1.435204
|   |   |   |   |   |   |   |   |   |   |   |   |   |   |   |   |   |   |   |   |   |   |   |   |   |   f377 <= 1.331968
|   |   |   |   |   |   |   |   |   |   |   |   |   |   |   |   |   |   |   |   |   |   |   |   |   |   |   f419 <= -1.590298: not_question (2.0)
|   |   |   |   |   |   |   |   |   |   |   |   |   |   |   |   |   |   |   |   |   |   |   |   |   |   |   f419 > -1.590298: question (38.0)
|   |   |   |   |   |   |   |   |   |   |   |   |   |   |   |   |   |   |   |   |   |   |   |   |   |   f377 > 1.331968: not_question (3.0)
|   |   |   |   |   |   |   |   |   |   |   |   |   |   |   |   |   |   |   |   |   |   |   |   |   f635 > 1.435204: not_question (5.0)
|   |   |   |   |   |   |   |   |   |   |   |   |   |   |   |   |   |   |   |   |   |   |   f96 > 1.764325
|   |   |   |   |   |   |   |   |   |   |   |   |   |   |   |   |   |   |   |   |   |   |   |   f774 <= -1.270683: question (3.0)
|   |   |   |   |   |   |   |   |   |   |   |   |   |   |   |   |   |   |   |   |   |   |   |   f774 > -1.270683: not_question (25.0)
|   |   |   |   |   |   |   |   |   |   |   |   |   |   |   |   |   |   |   |   |   |   f178 > 1.620501
|   |   |   |   |   |   |   |   |   |   |   |   |   |   |   |   |   |   |   |   |   |   |   f149 <= 0.901536
|   |   |   |   |   |   |   |   |   |   |   |   |   |   |   |   |   |   |   |   |   |   |   |   f623 <= 0.326474
|   |   |   |   |   |   |   |   |   |   |   |   |   |   |   |   |   |   |   |   |   |   |   |   |   f502 <= 0.98655: not_question (39.0)
|   |   |   |   |   |   |   |   |   |   |   |   |   |   |   |   |   |   |   |   |   |   |   |   |   f502 > 0.98655
|   |   |   |   |   |   |   |   |   |   |   |   |   |   |   |   |   |   |   |   |   |   |   |   |   |   f118 <= -0.521789: question (5.0)
|   |   |   |   |   |   |   |   |   |   |   |   |   |   |   |   |   |   |   |   |   |   |   |   |   |   f118 > -0.521789: not_question (5.0)
|   |   |   |   |   |   |   |   |   |   |   |   |   |   |   |   |   |   |   |   |   |   |   |   f623 > 0.326474: question (3.0)
|   |   |   |   |   |   |   |   |   |   |   |   |   |   |   |   |   |   |   |   |   |   |   f149 > 0.901536: question (4.0)
|   |   |   |   |   |   |   |   |   |   |   |   |   |   |   |   |   |   |   |   |   f855 > 0.499926
|   |   |   |   |   |   |   |   |   |   |   |   |   |   |   |   |   |   |   |   |   |   f279 <= 1.933466
|   |   |   |   |   |   |   |   |   |   |   |   |   |   |   |   |   |   |   |   |   |   |   f440 <= 1.044933
|   |   |   |   |   |   |   |   |   |   |   |   |   |   |   |   |   |   |   |   |   |   |   |   f988 <= -0.805473: not_question (5.0/1.0)
|   |   |   |   |   |   |   |   |   |   |   |   |   |   |   |   |   |   |   |   |   |   |   |   f988 > -0.805473
|   |   |   |   |   |   |   |   |   |   |   |   |   |   |   |   |   |   |   |   |   |   |   |   |   f135 <= -0.050838: not_question (3.0/1.0)
|   |   |   |   |   |   |   |   |   |   |   |   |   |   |   |   |   |   |   |   |   |   |   |   |   f135 > -0.050838: question (43.0)
|   |   |   |   |   |   |   |   |   |   |   |   |   |   |   |   |   |   |   |   |   |   |   f440 > 1.044933: not_question (4.0)
|   |   |   |   |   |   |   |   |   |   |   |   |   |   |   |   |   |   |   |   |   |   f279 > 1.933466: not_question (6.0)
|   |   |   |   |   |   |   |   |   |   |   |   |   |   |   |   |   |   |   f307 > -0.496582
|   |   |   |   |   |   |   |   |   |   |   |   |   |   |   |   |   |   |   |   f91 <= -0.540709: question (10.0/1.0)
|   |   |   |   |   |   |   |   |   |   |   |   |   |   |   |   |   |   |   |   f91 > -0.540709
|   |   |   |   |   |   |   |   |   |   |   |   |   |   |   |   |   |   |   |   |   f734 <= 0.492994: not_question (25.0)
|   |   |   |   |   |   |   |   |   |   |   |   |   |   |   |   |   |   |   |   |   f734 > 0.492994
|   |   |   |   |   |   |   |   |   |   |   |   |   |   |   |   |   |   |   |   |   |   f772 <= 1.153812
|   |   |   |   |   |   |   |   |   |   |   |   |   |   |   |   |   |   |   |   |   |   |   f1022 <= -1.858655: question (7.0)
|   |   |   |   |   |   |   |   |   |   |   |   |   |   |   |   |   |   |   |   |   |   |   f1022 > -1.858655
|   |   |   |   |   |   |   |   |   |   |   |   |   |   |   |   |   |   |   |   |   |   |   |   f163 <= -0.632843: question (6.0)
|   |   |   |   |   |   |   |   |   |   |   |   |   |   |   |   |   |   |   |   |   |   |   |   f163 > -0.632843
|   |   |   |   |   |   |   |   |   |   |   |   |   |   |   |   |   |   |   |   |   |   |   |   |   f475 <= 0.937289
|   |   |   |   |   |   |   |   |   |   |   |   |   |   |   |   |   |   |   |   |   |   |   |   |   |   f7 <= 1.507325
|   |   |   |   |   |   |   |   |   |   |   |   |   |   |   |   |   |   |   |   |   |   |   |   |   |   |   f490 <= -0.17965
|   |   |   |   |   |   |   |   |   |   |   |   |   |   |   |   |   |   |   |   |   |   |   |   |   |   |   |   f207 <= -0.437514: question (5.0)
|   |   |   |   |   |   |   |   |   |   |   |   |   |   |   |   |   |   |   |   |   |   |   |   |   |   |   |   f207 > -0.437514
|   |   |   |   |   |   |   |   |   |   |   |   |   |   |   |   |   |   |   |   |   |   |   |   |   |   |   |   |   f430 <= 0.154239
|   |   |   |   |   |   |   |   |   |   |   |   |   |   |   |   |   |   |   |   |   |   |   |   |   |   |   |   |   |   f110 <= -0.615053
|   |   |   |   |   |   |   |   |   |   |   |   |   |   |   |   |   |   |   |   |   |   |   |   |   |   |   |   |   |   |   f1 <= 0.410571: question (4.0)
|   |   |   |   |   |   |   |   |   |   |   |   |   |   |   |   |   |   |   |   |   |   |   |   |   |   |   |   |   |   |   f1 > 0.410571: not_question (2.0)
|   |   |   |   |   |   |   |   |   |   |   |   |   |   |   |   |   |   |   |   |   |   |   |   |   |   |   |   |   |   f110 > -0.615053: not_question (29.0/1.0)
|   |   |   |   |   |   |   |   |   |   |   |   |   |   |   |   |   |   |   |   |   |   |   |   |   |   |   |   |   f430 > 0.154239: question (4.0)
|   |   |   |   |   |   |   |   |   |   |   |   |   |   |   |   |   |   |   |   |   |   |   |   |   |   |   f490 > -0.17965: not_question (25.0)
|   |   |   |   |   |   |   |   |   |   |   |   |   |   |   |   |   |   |   |   |   |   |   |   |   |   f7 > 1.507325: question (5.0)
|   |   |   |   |   |   |   |   |   |   |   |   |   |   |   |   |   |   |   |   |   |   |   |   |   f475 > 0.937289: question (6.0)
|   |   |   |   |   |   |   |   |   |   |   |   |   |   |   |   |   |   |   |   |   |   f772 > 1.153812
|   |   |   |   |   |   |   |   |   |   |   |   |   |   |   |   |   |   |   |   |   |   |   f610 <= 1.018616: not_question (39.0)
|   |   |   |   |   |   |   |   |   |   |   |   |   |   |   |   |   |   |   |   |   |   |   f610 > 1.018616: question (3.0)
|   |   |   |   |   |   |   |   |   |   |   |   |   |   |   |   |   f240 > 0.590673
|   |   |   |   |   |   |   |   |   |   |   |   |   |   |   |   |   |   f112 <= -0.296885: not_question (23.0)
|   |   |   |   |   |   |   |   |   |   |   |   |   |   |   |   |   |   f112 > -0.296885: question (4.0/1.0)
|   |   |   |   |   |   |   |   |   |   |   |   |   |   |   f733 > 0.004436
|   |   |   |   |   |   |   |   |   |   |   |   |   |   |   |   f646 <= 0.598235
|   |   |   |   |   |   |   |   |   |   |   |   |   |   |   |   |   f183 <= 0.293172
|   |   |   |   |   |   |   |   |   |   |   |   |   |   |   |   |   |   f41 <= -1.715543
|   |   |   |   |   |   |   |   |   |   |   |   |   |   |   |   |   |   |   f463 <= -0.537832: not_question (9.0/1.0)
|   |   |   |   |   |   |   |   |   |   |   |   |   |   |   |   |   |   |   f463 > -0.537832: question (6.0)
|   |   |   |   |   |   |   |   |   |   |   |   |   |   |   |   |   |   f41 > -1.715543
|   |   |   |   |   |   |   |   |   |   |   |   |   |   |   |   |   |   |   f6 <= 0.969584
|   |   |   |   |   |   |   |   |   |   |   |   |   |   |   |   |   |   |   |   f339 <= -1.342059
|   |   |   |   |   |   |   |   |   |   |   |   |   |   |   |   |   |   |   |   |   f199 <= 0.240063: not_question (8.0)
|   |   |   |   |   |   |   |   |   |   |   |   |   |   |   |   |   |   |   |   |   f199 > 0.240063: question (4.0)
|   |   |   |   |   |   |   |   |   |   |   |   |   |   |   |   |   |   |   |   f339 > -1.342059
|   |   |   |   |   |   |   |   |   |   |   |   |   |   |   |   |   |   |   |   |   f581 <= -1.884162
|   |   |   |   |   |   |   |   |   |   |   |   |   |   |   |   |   |   |   |   |   |   f20 <= 0.94297: not_question (4.0)
|   |   |   |   |   |   |   |   |   |   |   |   |   |   |   |   |   |   |   |   |   |   f20 > 0.94297: question (3.0)
|   |   |   |   |   |   |   |   |   |   |   |   |   |   |   |   |   |   |   |   |   f581 > -1.884162: not_question (128.0)
|   |   |   |   |   |   |   |   |   |   |   |   |   |   |   |   |   |   |   f6 > 0.969584
|   |   |   |   |   |   |   |   |   |   |   |   |   |   |   |   |   |   |   |   f810 <= 0.578389: question (5.0)
|   |   |   |   |   |   |   |   |   |   |   |   |   |   |   |   |   |   |   |   f810 > 0.578389: not_question (5.0)
|   |   |   |   |   |   |   |   |   |   |   |   |   |   |   |   |   f183 > 0.293172
|   |   |   |   |   |   |   |   |   |   |   |   |   |   |   |   |   |   f535 <= 0.043901
|   |   |   |   |   |   |   |   |   |   |   |   |   |   |   |   |   |   |   f569 <= 0.318072
|   |   |   |   |   |   |   |   |   |   |   |   |   |   |   |   |   |   |   |   f32 <= 0.420592
|   |   |   |   |   |   |   |   |   |   |   |   |   |   |   |   |   |   |   |   |   f858 <= -1.122676: not_question (3.0)
|   |   |   |   |   |   |   |   |   |   |   |   |   |   |   |   |   |   |   |   |   f858 > -1.122676: question (20.0/1.0)
|   |   |   |   |   |   |   |   |   |   |   |   |   |   |   |   |   |   |   |   f32 > 0.420592: not_question (3.0)
|   |   |   |   |   |   |   |   |   |   |   |   |   |   |   |   |   |   |   f569 > 0.318072: not_question (8.0)
|   |   |   |   |   |   |   |   |   |   |   |   |   |   |   |   |   |   f535 > 0.043901: not_question (12.0)
|   |   |   |   |   |   |   |   |   |   |   |   |   |   |   |   f646 > 0.598235
|   |   |   |   |   |   |   |   |   |   |   |   |   |   |   |   |   f656 <= -0.407123: question (12.0)
|   |   |   |   |   |   |   |   |   |   |   |   |   |   |   |   |   f656 > -0.407123
|   |   |   |   |   |   |   |   |   |   |   |   |   |   |   |   |   |   f81 <= 0.685124
|   |   |   |   |   |   |   |   |   |   |   |   |   |   |   |   |   |   |   f934 <= -1.15186: question (4.0)
|   |   |   |   |   |   |   |   |   |   |   |   |   |   |   |   |   |   |   f934 > -1.15186
|   |   |   |   |   |   |   |   |   |   |   |   |   |   |   |   |   |   |   |   f143 <= -0.492944: question (4.0/1.0)
|   |   |   |   |   |   |   |   |   |   |   |   |   |   |   |   |   |   |   |   f143 > -0.492944: not_question (26.0)
|   |   |   |   |   |   |   |   |   |   |   |   |   |   |   |   |   |   f81 > 0.685124: question (7.0)
|   |   |   |   |   |   |   |   |   |   |   |   |   |   f972 > 1.305131
|   |   |   |   |   |   |   |   |   |   |   |   |   |   |   f619 <= -0.516475: not_question (4.0)
|   |   |   |   |   |   |   |   |   |   |   |   |   |   |   f619 > -0.516475
|   |   |   |   |   |   |   |   |   |   |   |   |   |   |   |   f553 <= 0.489635
|   |   |   |   |   |   |   |   |   |   |   |   |   |   |   |   |   f709 <= 0.746181: question (26.0)
|   |   |   |   |   |   |   |   |   |   |   |   |   |   |   |   |   f709 > 0.746181: not_question (2.0)
|   |   |   |   |   |   |   |   |   |   |   |   |   |   |   |   f553 > 0.489635: not_question (3.0)
|   |   |   |   |   |   |   |   |   |   |   |   |   f355 > 0.76925
|   |   |   |   |   |   |   |   |   |   |   |   |   |   f597 <= -0.764146
|   |   |   |   |   |   |   |   |   |   |   |   |   |   |   f305 <= -0.994157: question (4.0)
|   |   |   |   |   |   |   |   |   |   |   |   |   |   |   f305 > -0.994157
|   |   |   |   |   |   |   |   |   |   |   |   |   |   |   |   f297 <= 0.718779
|   |   |   |   |   |   |   |   |   |   |   |   |   |   |   |   |   f188 <= 1.582333: not_question (33.0)
|   |   |   |   |   |   |   |   |   |   |   |   |   |   |   |   |   f188 > 1.582333: question (2.0)
|   |   |   |   |   |   |   |   |   |   |   |   |   |   |   |   f297 > 0.718779: question (3.0)
|   |   |   |   |   |   |   |   |   |   |   |   |   |   f597 > -0.764146
|   |   |   |   |   |   |   |   |   |   |   |   |   |   |   f0 <= -0.597916
|   |   |   |   |   |   |   |   |   |   |   |   |   |   |   |   f65 <= -1.333761: question (5.0/1.0)
|   |   |   |   |   |   |   |   |   |   |   |   |   |   |   |   f65 > -1.333761: not_question (18.0)
|   |   |   |   |   |   |   |   |   |   |   |   |   |   |   f0 > -0.597916
|   |   |   |   |   |   |   |   |   |   |   |   |   |   |   |   f76 <= 0.912163
|   |   |   |   |   |   |   |   |   |   |   |   |   |   |   |   |   f363 <= -1.598141
|   |   |   |   |   |   |   |   |   |   |   |   |   |   |   |   |   |   f215 <= 1.272616: not_question (21.0)
|   |   |   |   |   |   |   |   |   |   |   |   |   |   |   |   |   |   f215 > 1.272616: question (6.0/1.0)
|   |   |   |   |   |   |   |   |   |   |   |   |   |   |   |   |   f363 > -1.598141
|   |   |   |   |   |   |   |   |   |   |   |   |   |   |   |   |   |   f689 <= -0.485225
|   |   |   |   |   |   |   |   |   |   |   |   |   |   |   |   |   |   |   f238 <= -1.327112: question (6.0/1.0)
|   |   |   |   |   |   |   |   |   |   |   |   |   |   |   |   |   |   |   f238 > -1.327112: not_question (21.0/1.0)
|   |   |   |   |   |   |   |   |   |   |   |   |   |   |   |   |   |   f689 > -0.485225
|   |   |   |   |   |   |   |   |   |   |   |   |   |   |   |   |   |   |   f480 <= 0.336414
|   |   |   |   |   |   |   |   |   |   |   |   |   |   |   |   |   |   |   |   f355 <= 1.656161
|   |   |   |   |   |   |   |   |   |   |   |   |   |   |   |   |   |   |   |   |   f1006 <= 0.348894
|   |   |   |   |   |   |   |   |   |   |   |   |   |   |   |   |   |   |   |   |   |   f632 <= -0.751158
|   |   |   |   |   |   |   |   |   |   |   |   |   |   |   |   |   |   |   |   |   |   |   f505 <= -1.225951: question (2.0)
|   |   |   |   |   |   |   |   |   |   |   |   |   |   |   |   |   |   |   |   |   |   |   f505 > -1.225951: not_question (12.0)
|   |   |   |   |   |   |   |   |   |   |   |   |   |   |   |   |   |   |   |   |   |   f632 > -0.751158
|   |   |   |   |   |   |   |   |   |   |   |   |   |   |   |   |   |   |   |   |   |   |   f243 <= -1.633166: question (17.0)
|   |   |   |   |   |   |   |   |   |   |   |   |   |   |   |   |   |   |   |   |   |   |   f243 > -1.633166
|   |   |   |   |   |   |   |   |   |   |   |   |   |   |   |   |   |   |   |   |   |   |   |   f965 <= 0.166245
|   |   |   |   |   |   |   |   |   |   |   |   |   |   |   |   |   |   |   |   |   |   |   |   |   f77 <= -1.14091: question (17.0)
|   |   |   |   |   |   |   |   |   |   |   |   |   |   |   |   |   |   |   |   |   |   |   |   |   f77 > -1.14091
|   |   |   |   |   |   |   |   |   |   |   |   |   |   |   |   |   |   |   |   |   |   |   |   |   |   f945 <= -1.65546: not_question (11.0/1.0)
|   |   |   |   |   |   |   |   |   |   |   |   |   |   |   |   |   |   |   |   |   |   |   |   |   |   f945 > -1.65546
|   |   |   |   |   |   |   |   |   |   |   |   |   |   |   |   |   |   |   |   |   |   |   |   |   |   |   f337 <= -0.373088
|   |   |   |   |   |   |   |   |   |   |   |   |   |   |   |   |   |   |   |   |   |   |   |   |   |   |   |   f366 <= -0.943942
|   |   |   |   |   |   |   |   |   |   |   |   |   |   |   |   |   |   |   |   |   |   |   |   |   |   |   |   |   f0 <= -0.059663: question (2.0)
|   |   |   |   |   |   |   |   |   |   |   |   |   |   |   |   |   |   |   |   |   |   |   |   |   |   |   |   |   f0 > -0.059663: not_question (14.0)
|   |   |   |   |   |   |   |   |   |   |   |   |   |   |   |   |   |   |   |   |   |   |   |   |   |   |   |   f366 > -0.943942
|   |   |   |   |   |   |   |   |   |   |   |   |   |   |   |   |   |   |   |   |   |   |   |   |   |   |   |   |   f728 <= 0.799056
|   |   |   |   |   |   |   |   |   |   |   |   |   |   |   |   |   |   |   |   |   |   |   |   |   |   |   |   |   |   f438 <= -0.568586
|   |   |   |   |   |   |   |   |   |   |   |   |   |   |   |   |   |   |   |   |   |   |   |   |   |   |   |   |   |   |   f216 <= 0.502992
|   |   |   |   |   |   |   |   |   |   |   |   |   |   |   |   |   |   |   |   |   |   |   |   |   |   |   |   |   |   |   |   f468 <= -0.765654: not_question (6.0)
|   |   |   |   |   |   |   |   |   |   |   |   |   |   |   |   |   |   |   |   |   |   |   |   |   |   |   |   |   |   |   |   f468 > -0.765654
|   |   |   |   |   |   |   |   |   |   |   |   |   |   |   |   |   |   |   |   |   |   |   |   |   |   |   |   |   |   |   |   |   f228 <= 0.802956
|   |   |   |   |   |   |   |   |   |   |   |   |   |   |   |   |   |   |   |   |   |   |   |   |   |   |   |   |   |   |   |   |   |   f726 <= 0.434545: question (28.0/1.0)
|   |   |   |   |   |   |   |   |   |   |   |   |   |   |   |   |   |   |   |   |   |   |   |   |   |   |   |   |   |   |   |   |   |   f726 > 0.434545: not_question (3.0)
|   |   |   |   |   |   |   |   |   |   |   |   |   |   |   |   |   |   |   |   |   |   |   |   |   |   |   |   |   |   |   |   |   f228 > 0.802956: not_question (4.0)
|   |   |   |   |   |   |   |   |   |   |   |   |   |   |   |   |   |   |   |   |   |   |   |   |   |   |   |   |   |   |   f216 > 0.502992: not_question (13.0)
|   |   |   |   |   |   |   |   |   |   |   |   |   |   |   |   |   |   |   |   |   |   |   |   |   |   |   |   |   |   f438 > -0.568586
|   |   |   |   |   |   |   |   |   |   |   |   |   |   |   |   |   |   |   |   |   |   |   |   |   |   |   |   |   |   |   f358 <= 0.178298
|   |   |   |   |   |   |   |   |   |   |   |   |   |   |   |   |   |   |   |   |   |   |   |   |   |   |   |   |   |   |   |   f793 <= 1.273509
|   |   |   |   |   |   |   |   |   |   |   |   |   |   |   |   |   |   |   |   |   |   |   |   |   |   |   |   |   |   |   |   |   f332 <= 0.227864: question (59.0)
|   |   |   |   |   |   |   |   |   |   |   |   |   |   |   |   |   |   |   |   |   |   |   |   |   |   |   |   |   |   |   |   |   f332 > 0.227864
|   |   |   |   |   |   |   |   |   |   |   |   |   |   |   |   |   |   |   |   |   |   |   |   |   |   |   |   |   |   |   |   |   |   f4 <= 0.342021: question (2.0)
|   |   |   |   |   |   |   |   |   |   |   |   |   |   |   |   |   |   |   |   |   |   |   |   |   |   |   |   |   |   |   |   |   |   f4 > 0.342021: not_question (2.0)
|   |   |   |   |   |   |   |   |   |   |   |   |   |   |   |   |   |   |   |   |   |   |   |   |   |   |   |   |   |   |   |   f793 > 1.273509
|   |   |   |   |   |   |   |   |   |   |   |   |   |   |   |   |   |   |   |   |   |   |   |   |   |   |   |   |   |   |   |   |   f2 <= -0.416335: not_question (3.0)
|   |   |   |   |   |   |   |   |   |   |   |   |   |   |   |   |   |   |   |   |   |   |   |   |   |   |   |   |   |   |   |   |   f2 > -0.416335: question (2.0)
|   |   |   |   |   |   |   |   |   |   |   |   |   |   |   |   |   |   |   |   |   |   |   |   |   |   |   |   |   |   |   f358 > 0.178298
|   |   |   |   |   |   |   |   |   |   |   |   |   |   |   |   |   |   |   |   |   |   |   |   |   |   |   |   |   |   |   |   f7 <= 0.446103: question (3.0)
|   |   |   |   |   |   |   |   |   |   |   |   |   |   |   |   |   |   |   |   |   |   |   |   |   |   |   |   |   |   |   |   f7 > 0.446103: not_question (6.0)
|   |   |   |   |   |   |   |   |   |   |   |   |   |   |   |   |   |   |   |   |   |   |   |   |   |   |   |   |   f728 > 0.799056
|   |   |   |   |   |   |   |   |   |   |   |   |   |   |   |   |   |   |   |   |   |   |   |   |   |   |   |   |   |   f493 <= 0.469383: question (3.0)
|   |   |   |   |   |   |   |   |   |   |   |   |   |   |   |   |   |   |   |   |   |   |   |   |   |   |   |   |   |   f493 > 0.469383: not_question (12.0)
|   |   |   |   |   |   |   |   |   |   |   |   |   |   |   |   |   |   |   |   |   |   |   |   |   |   |   f337 > -0.373088
|   |   |   |   |   |   |   |   |   |   |   |   |   |   |   |   |   |   |   |   |   |   |   |   |   |   |   |   f140 <= 0.229065: question (34.0)
|   |   |   |   |   |   |   |   |   |   |   |   |   |   |   |   |   |   |   |   |   |   |   |   |   |   |   |   f140 > 0.229065
|   |   |   |   |   |   |   |   |   |   |   |   |   |   |   |   |   |   |   |   |   |   |   |   |   |   |   |   |   f4 <= 0.875505: not_question (4.0)
|   |   |   |   |   |   |   |   |   |   |   |   |   |   |   |   |   |   |   |   |   |   |   |   |   |   |   |   |   f4 > 0.875505: question (2.0)
|   |   |   |   |   |   |   |   |   |   |   |   |   |   |   |   |   |   |   |   |   |   |   |   f965 > 0.166245
|   |   |   |   |   |   |   |   |   |   |   |   |   |   |   |   |   |   |   |   |   |   |   |   |   f198 <= -2.079716: question (2.0)
|   |   |   |   |   |   |   |   |   |   |   |   |   |   |   |   |   |   |   |   |   |   |   |   |   f198 > -2.079716: not_question (12.0)
|   |   |   |   |   |   |   |   |   |   |   |   |   |   |   |   |   |   |   |   |   f1006 > 0.348894
|   |   |   |   |   |   |   |   |   |   |   |   |   |   |   |   |   |   |   |   |   |   f12 <= -0.136252: question (2.0)
|   |   |   |   |   |   |   |   |   |   |   |   |   |   |   |   |   |   |   |   |   |   f12 > -0.136252: not_question (14.0)
|   |   |   |   |   |   |   |   |   |   |   |   |   |   |   |   |   |   |   |   f355 > 1.656161
|   |   |   |   |   |   |   |   |   |   |   |   |   |   |   |   |   |   |   |   |   f33 <= 0.904654: question (30.0/1.0)
|   |   |   |   |   |   |   |   |   |   |   |   |   |   |   |   |   |   |   |   |   f33 > 0.904654: not_question (2.0)
|   |   |   |   |   |   |   |   |   |   |   |   |   |   |   |   |   |   |   f480 > 0.336414: question (18.0)
|   |   |   |   |   |   |   |   |   |   |   |   |   |   |   |   f76 > 0.912163: question (32.0/1.0)
|   |   |   |   |   |   |   |   |   |   |   |   f63 > 1.436118
|   |   |   |   |   |   |   |   |   |   |   |   |   f759 <= 0.200625
|   |   |   |   |   |   |   |   |   |   |   |   |   |   f618 <= 0.253909
|   |   |   |   |   |   |   |   |   |   |   |   |   |   |   f668 <= -1.310455: not_question (9.0)
|   |   |   |   |   |   |   |   |   |   |   |   |   |   |   f668 > -1.310455
|   |   |   |   |   |   |   |   |   |   |   |   |   |   |   |   f14 <= -0.302684: not_question (2.0)
|   |   |   |   |   |   |   |   |   |   |   |   |   |   |   |   f14 > -0.302684: question (8.0)
|   |   |   |   |   |   |   |   |   |   |   |   |   |   f618 > 0.253909
|   |   |   |   |   |   |   |   |   |   |   |   |   |   |   f506 <= 1.105301: not_question (63.0)
|   |   |   |   |   |   |   |   |   |   |   |   |   |   |   f506 > 1.105301
|   |   |   |   |   |   |   |   |   |   |   |   |   |   |   |   f34 <= -0.829071: not_question (6.0)
|   |   |   |   |   |   |   |   |   |   |   |   |   |   |   |   f34 > -0.829071: question (5.0/1.0)
|   |   |   |   |   |   |   |   |   |   |   |   |   f759 > 0.200625: question (6.0)
|   |   |   |   |   |   |   |   |   |   |   f13 > 0.972472
|   |   |   |   |   |   |   |   |   |   |   |   f48 <= -1.26704: not_question (10.0/1.0)
|   |   |   |   |   |   |   |   |   |   |   |   f48 > -1.26704
|   |   |   |   |   |   |   |   |   |   |   |   |   f839 <= -1.691605: question (26.0)
|   |   |   |   |   |   |   |   |   |   |   |   |   f839 > -1.691605
|   |   |   |   |   |   |   |   |   |   |   |   |   |   f396 <= 0.790527
|   |   |   |   |   |   |   |   |   |   |   |   |   |   |   f144 <= -0.312219: not_question (6.0)
|   |   |   |   |   |   |   |   |   |   |   |   |   |   |   f144 > -0.312219
|   |   |   |   |   |   |   |   |   |   |   |   |   |   |   |   f669 <= 0.716229
|   |   |   |   |   |   |   |   |   |   |   |   |   |   |   |   |   f422 <= -0.736234
|   |   |   |   |   |   |   |   |   |   |   |   |   |   |   |   |   |   f12 <= -0.521252: not_question (3.0/1.0)
|   |   |   |   |   |   |   |   |   |   |   |   |   |   |   |   |   |   f12 > -0.521252: question (43.0)
|   |   |   |   |   |   |   |   |   |   |   |   |   |   |   |   |   f422 > -0.736234
|   |   |   |   |   |   |   |   |   |   |   |   |   |   |   |   |   |   f518 <= 0.396905
|   |   |   |   |   |   |   |   |   |   |   |   |   |   |   |   |   |   |   f1 <= -0.657777: question (2.0)
|   |   |   |   |   |   |   |   |   |   |   |   |   |   |   |   |   |   |   f1 > -0.657777: not_question (12.0)
|   |   |   |   |   |   |   |   |   |   |   |   |   |   |   |   |   |   f518 > 0.396905
|   |   |   |   |   |   |   |   |   |   |   |   |   |   |   |   |   |   |   f251 <= 2.179432: question (15.0)
|   |   |   |   |   |   |   |   |   |   |   |   |   |   |   |   |   |   |   f251 > 2.179432
|   |   |   |   |   |   |   |   |   |   |   |   |   |   |   |   |   |   |   |   f46 <= -1.412483: question (2.0)
|   |   |   |   |   |   |   |   |   |   |   |   |   |   |   |   |   |   |   |   f46 > -1.412483: not_question (5.0)
|   |   |   |   |   |   |   |   |   |   |   |   |   |   |   |   f669 > 0.716229: not_question (5.0)
|   |   |   |   |   |   |   |   |   |   |   |   |   |   f396 > 0.790527: not_question (7.0)
|   |   |   |   |   |   |   |   |   f991 > 0.220617
|   |   |   |   |   |   |   |   |   |   f20 <= 1.366315
|   |   |   |   |   |   |   |   |   |   |   f552 <= -1.011626: not_question (33.0)
|   |   |   |   |   |   |   |   |   |   |   f552 > -1.011626
|   |   |   |   |   |   |   |   |   |   |   |   f971 <= -1.491626: not_question (31.0)
|   |   |   |   |   |   |   |   |   |   |   |   f971 > -1.491626
|   |   |   |   |   |   |   |   |   |   |   |   |   f325 <= 1.202132
|   |   |   |   |   |   |   |   |   |   |   |   |   |   f985 <= 1.039005
|   |   |   |   |   |   |   |   |   |   |   |   |   |   |   f548 <= 1.052822
|   |   |   |   |   |   |   |   |   |   |   |   |   |   |   |   f376 <= -0.995425
|   |   |   |   |   |   |   |   |   |   |   |   |   |   |   |   |   f87 <= 0.015013: not_question (3.0)
|   |   |   |   |   |   |   |   |   |   |   |   |   |   |   |   |   f87 > 0.015013: question (7.0)
|   |   |   |   |   |   |   |   |   |   |   |   |   |   |   |   f376 > -0.995425
|   |   |   |   |   |   |   |   |   |   |   |   |   |   |   |   |   f663 <= -0.370116: not_question (49.0)
|   |   |   |   |   |   |   |   |   |   |   |   |   |   |   |   |   f663 > -0.370116
|   |   |   |   |   |   |   |   |   |   |   |   |   |   |   |   |   |   f1007 <= -1.283401: question (7.0/1.0)
|   |   |   |   |   |   |   |   |   |   |   |   |   |   |   |   |   |   f1007 > -1.283401
|   |   |   |   |   |   |   |   |   |   |   |   |   |   |   |   |   |   |   f780 <= 0.225035
|   |   |   |   |   |   |   |   |   |   |   |   |   |   |   |   |   |   |   |   f532 <= 0.996437: not_question (39.0)
|   |   |   |   |   |   |   |   |   |   |   |   |   |   |   |   |   |   |   |   f532 > 0.996437
|   |   |   |   |   |   |   |   |   |   |   |   |   |   |   |   |   |   |   |   |   f810 <= 1.107865
|   |   |   |   |   |   |   |   |   |   |   |   |   |   |   |   |   |   |   |   |   |   f243 <= 0.551103
|   |   |   |   |   |   |   |   |   |   |   |   |   |   |   |   |   |   |   |   |   |   |   f810 <= -1.318538
|   |   |   |   |   |   |   |   |   |   |   |   |   |   |   |   |   |   |   |   |   |   |   |   f12 <= 0.306327: question (4.0)
|   |   |   |   |   |   |   |   |   |   |   |   |   |   |   |   |   |   |   |   |   |   |   |   f12 > 0.306327: not_question (2.0)
|   |   |   |   |   |   |   |   |   |   |   |   |   |   |   |   |   |   |   |   |   |   |   f810 > -1.318538: not_question (60.0/1.0)
|   |   |   |   |   |   |   |   |   |   |   |   |   |   |   |   |   |   |   |   |   |   f243 > 0.551103: question (5.0/1.0)
|   |   |   |   |   |   |   |   |   |   |   |   |   |   |   |   |   |   |   |   |   f810 > 1.107865
|   |   |   |   |   |   |   |   |   |   |   |   |   |   |   |   |   |   |   |   |   |   f160 <= -0.569232: question (8.0)
|   |   |   |   |   |   |   |   |   |   |   |   |   |   |   |   |   |   |   |   |   |   f160 > -0.569232: not_question (5.0)
|   |   |   |   |   |   |   |   |   |   |   |   |   |   |   |   |   |   |   f780 > 0.225035
|   |   |   |   |   |   |   |   |   |   |   |   |   |   |   |   |   |   |   |   f11 <= -0.793038: question (6.0)
|   |   |   |   |   |   |   |   |   |   |   |   |   |   |   |   |   |   |   |   f11 > -0.793038: not_question (3.0)
|   |   |   |   |   |   |   |   |   |   |   |   |   |   |   f548 > 1.052822
|   |   |   |   |   |   |   |   |   |   |   |   |   |   |   |   f323 <= 0.057242
|   |   |   |   |   |   |   |   |   |   |   |   |   |   |   |   |   f323 <= -1.023282: not_question (56.0/1.0)
|   |   |   |   |   |   |   |   |   |   |   |   |   |   |   |   |   f323 > -1.023282: question (19.0/1.0)
|   |   |   |   |   |   |   |   |   |   |   |   |   |   |   |   f323 > 0.057242: not_question (6.0)
|   |   |   |   |   |   |   |   |   |   |   |   |   |   f985 > 1.039005
|   |   |   |   |   |   |   |   |   |   |   |   |   |   |   f517 <= -0.018715: not_question (6.0)
|   |   |   |   |   |   |   |   |   |   |   |   |   |   |   f517 > -0.018715
|   |   |   |   |   |   |   |   |   |   |   |   |   |   |   |   f45 <= -0.819603: not_question (2.0)
|   |   |   |   |   |   |   |   |   |   |   |   |   |   |   |   f45 > -0.819603: question (19.0)
|   |   |   |   |   |   |   |   |   |   |   |   |   f325 > 1.202132: not_question (29.0)
|   |   |   |   |   |   |   |   |   |   f20 > 1.366315
|   |   |   |   |   |   |   |   |   |   |   f74 <= 0.447061
|   |   |   |   |   |   |   |   |   |   |   |   f221 <= -0.303525: question (15.0)
|   |   |   |   |   |   |   |   |   |   |   |   f221 > -0.303525: not_question (5.0/1.0)
|   |   |   |   |   |   |   |   |   |   |   f74 > 0.447061: not_question (6.0)
|   |   |   |   |   |   |   f791 > 0.482048
|   |   |   |   |   |   |   |   f293 <= -1.533639: not_question (7.0/1.0)
|   |   |   |   |   |   |   |   f293 > -1.533639
|   |   |   |   |   |   |   |   |   f408 <= -0.044064: question (29.0)
|   |   |   |   |   |   |   |   |   f408 > -0.044064: not_question (3.0)
|   |   |   |   |   |   f382 > 1.98302
|   |   |   |   |   |   |   f173 <= 0.621024
|   |   |   |   |   |   |   |   f538 <= 0.459247
|   |   |   |   |   |   |   |   |   f989 <= -1.512817: not_question (12.0)
|   |   |   |   |   |   |   |   |   f989 > -1.512817
|   |   |   |   |   |   |   |   |   |   f691 <= -1.392127: not_question (10.0)
|   |   |   |   |   |   |   |   |   |   f691 > -1.392127
|   |   |   |   |   |   |   |   |   |   |   f741 <= -1.266979
|   |   |   |   |   |   |   |   |   |   |   |   f28 <= 0.139641: not_question (18.0)
|   |   |   |   |   |   |   |   |   |   |   |   f28 > 0.139641: question (2.0)
|   |   |   |   |   |   |   |   |   |   |   f741 > -1.266979
|   |   |   |   |   |   |   |   |   |   |   |   f55 <= -1.078909: not_question (8.0)
|   |   |   |   |   |   |   |   |   |   |   |   f55 > -1.078909
|   |   |   |   |   |   |   |   |   |   |   |   |   f121 <= -1.505979: not_question (7.0)
|   |   |   |   |   |   |   |   |   |   |   |   |   f121 > -1.505979
|   |   |   |   |   |   |   |   |   |   |   |   |   |   f668 <= -0.593283
|   |   |   |   |   |   |   |   |   |   |   |   |   |   |   f13 <= -0.801269: question (19.0)
|   |   |   |   |   |   |   |   |   |   |   |   |   |   |   f13 > -0.801269
|   |   |   |   |   |   |   |   |   |   |   |   |   |   |   |   f39 <= -0.317085: not_question (6.0)
|   |   |   |   |   |   |   |   |   |   |   |   |   |   |   |   f39 > -0.317085
|   |   |   |   |   |   |   |   |   |   |   |   |   |   |   |   |   f173 <= -0.656482: not_question (5.0)
|   |   |   |   |   |   |   |   |   |   |   |   |   |   |   |   |   f173 > -0.656482
|   |   |   |   |   |   |   |   |   |   |   |   |   |   |   |   |   |   f44 <= 0.659724
|   |   |   |   |   |   |   |   |   |   |   |   |   |   |   |   |   |   |   f525 <= -0.939554: not_question (4.0)
|   |   |   |   |   |   |   |   |   |   |   |   |   |   |   |   |   |   |   f525 > -0.939554
|   |   |   |   |   |   |   |   |   |   |   |   |   |   |   |   |   |   |   |   f336 <= 1.663525
|   |   |   |   |   |   |   |   |   |   |   |   |   |   |   |   |   |   |   |   |   f259 <= -0.644756: not_question (4.0/1.0)
|   |   |   |   |   |   |   |   |   |   |   |   |   |   |   |   |   |   |   |   |   f259 > -0.644756
|   |   |   |   |   |   |   |   |   |   |   |   |   |   |   |   |   |   |   |   |   |   f872 <= 0.535995: question (55.0)
|   |   |   |   |   |   |   |   |   |   |   |   |   |   |   |   |   |   |   |   |   |   f872 > 0.535995: not_question (3.0/1.0)
|   |   |   |   |   |   |   |   |   |   |   |   |   |   |   |   |   |   |   |   f336 > 1.663525: not_question (6.0/1.0)
|   |   |   |   |   |   |   |   |   |   |   |   |   |   |   |   |   |   f44 > 0.659724: not_question (4.0)
|   |   |   |   |   |   |   |   |   |   |   |   |   |   f668 > -0.593283
|   |   |   |   |   |   |   |   |   |   |   |   |   |   |   f107 <= -0.669619: not_question (13.0)
|   |   |   |   |   |   |   |   |   |   |   |   |   |   |   f107 > -0.669619: question (3.0)
|   |   |   |   |   |   |   |   f538 > 0.459247: question (10.0)
|   |   |   |   |   |   |   f173 > 0.621024
|   |   |   |   |   |   |   |   f645 <= -1.363871: not_question (6.0)
|   |   |   |   |   |   |   |   f645 > -1.363871
|   |   |   |   |   |   |   |   |   f943 <= -0.011177
|   |   |   |   |   |   |   |   |   |   f3 <= -1.174513: question (2.0)
|   |   |   |   |   |   |   |   |   |   f3 > -1.174513: not_question (7.0)
|   |   |   |   |   |   |   |   |   f943 > -0.011177
|   |   |   |   |   |   |   |   |   |   f767 <= 0.14985
|   |   |   |   |   |   |   |   |   |   |   f200 <= -0.540306: question (80.0)
|   |   |   |   |   |   |   |   |   |   |   f200 > -0.540306
|   |   |   |   |   |   |   |   |   |   |   |   f12 <= 0.315149: not_question (3.0)
|   |   |   |   |   |   |   |   |   |   |   |   f12 > 0.315149: question (3.0)
|   |   |   |   |   |   |   |   |   |   f767 > 0.14985
|   |   |   |   |   |   |   |   |   |   |   f91 <= 0.328423: question (12.0/1.0)
|   |   |   |   |   |   |   |   |   |   |   f91 > 0.328423: not_question (6.0)
|   |   |   |   |   f293 > -0.141348
|   |   |   |   |   |   f545 <= 0.007185
|   |   |   |   |   |   |   f949 <= -1.49106
|   |   |   |   |   |   |   |   f828 <= 1.277399
|   |   |   |   |   |   |   |   |   f915 <= 0.052197
|   |   |   |   |   |   |   |   |   |   f817 <= 1.133916
|   |   |   |   |   |   |   |   |   |   |   f986 <= 1.235527
|   |   |   |   |   |   |   |   |   |   |   |   f520 <= 1.300648
|   |   |   |   |   |   |   |   |   |   |   |   |   f132 <= 0.93909: not_question (47.0)
|   |   |   |   |   |   |   |   |   |   |   |   |   f132 > 0.93909: question (3.0/1.0)
|   |   |   |   |   |   |   |   |   |   |   |   f520 > 1.300648: question (5.0/1.0)
|   |   |   |   |   |   |   |   |   |   |   f986 > 1.235527: question (6.0/1.0)
|   |   |   |   |   |   |   |   |   |   f817 > 1.133916: question (4.0)
|   |   |   |   |   |   |   |   |   f915 > 0.052197
|   |   |   |   |   |   |   |   |   |   f82 <= 0.427249: question (10.0)
|   |   |   |   |   |   |   |   |   |   f82 > 0.427249: not_question (2.0)
|   |   |   |   |   |   |   |   f828 > 1.277399: question (7.0)
|   |   |   |   |   |   |   f949 > -1.49106
|   |   |   |   |   |   |   |   f494 <= 1.24674
|   |   |   |   |   |   |   |   |   f623 <= 0.493983
|   |   |   |   |   |   |   |   |   |   f612 <= 1.649598
|   |   |   |   |   |   |   |   |   |   |   f677 <= 1.120385
|   |   |   |   |   |   |   |   |   |   |   |   f692 <= -1.436514
|   |   |   |   |   |   |   |   |   |   |   |   |   f350 <= -0.619632
|   |   |   |   |   |   |   |   |   |   |   |   |   |   f471 <= 0.054288: not_question (4.0)
|   |   |   |   |   |   |   |   |   |   |   |   |   |   f471 > 0.054288: question (9.0)
|   |   |   |   |   |   |   |   |   |   |   |   |   f350 > -0.619632: not_question (9.0)
|   |   |   |   |   |   |   |   |   |   |   |   f692 > -1.436514
|   |   |   |   |   |   |   |   |   |   |   |   |   f747 <= 0.469009
|   |   |   |   |   |   |   |   |   |   |   |   |   |   f920 <= 0.902651
|   |   |   |   |   |   |   |   |   |   |   |   |   |   |   f311 <= -0.0101
|   |   |   |   |   |   |   |   |   |   |   |   |   |   |   |   f376 <= -1.36254: not_question (6.0)
|   |   |   |   |   |   |   |   |   |   |   |   |   |   |   |   f376 > -1.36254
|   |   |   |   |   |   |   |   |   |   |   |   |   |   |   |   |   f52 <= 0.443908
|   |   |   |   |   |   |   |   |   |   |   |   |   |   |   |   |   |   f223 <= 1.244707
|   |   |   |   |   |   |   |   |   |   |   |   |   |   |   |   |   |   |   f228 <= -1.114572: not_question (3.0)
|   |   |   |   |   |   |   |   |   |   |   |   |   |   |   |   |   |   |   f228 > -1.114572
|   |   |   |   |   |   |   |   |   |   |   |   |   |   |   |   |   |   |   |   f385 <= -1.109047
|   |   |   |   |   |   |   |   |   |   |   |   |   |   |   |   |   |   |   |   |   f2 <= -0.667941: question (2.0)
|   |   |   |   |   |   |   |   |   |   |   |   |   |   |   |   |   |   |   |   |   f2 > -0.667941: not_question (3.0)
|   |   |   |   |   |   |   |   |   |   |   |   |   |   |   |   |   |   |   |   f385 > -1.109047: question (39.0/1.0)
|   |   |   |   |   |   |   |   |   |   |   |   |   |   |   |   |   |   f223 > 1.244707: not_question (3.0)
|   |   |   |   |   |   |   |   |   |   |   |   |   |   |   |   |   f52 > 0.443908: not_question (4.0)
|   |   |   |   |   |   |   |   |   |   |   |   |   |   |   f311 > -0.0101: not_question (7.0)
|   |   |   |   |   |   |   |   |   |   |   |   |   |   f920 > 0.902651
|   |   |   |   |   |   |   |   |   |   |   |   |   |   |   f354 <= -2.34003
|   |   |   |   |   |   |   |   |   |   |   |   |   |   |   |   f10 <= 0.229437: not_question (4.0)
|   |   |   |   |   |   |   |   |   |   |   |   |   |   |   |   f10 > 0.229437: question (2.0)
|   |   |   |   |   |   |   |   |   |   |   |   |   |   |   f354 > -2.34003
|   |   |   |   |   |   |   |   |   |   |   |   |   |   |   |   f59 <= 0.358706
|   |   |   |   |   |   |   |   |   |   |   |   |   |   |   |   |   f367 <= -1.672231: not_question (4.0)
|   |   |   |   |   |   |   |   |   |   |   |   |   |   |   |   |   f367 > -1.672231
|   |   |   |   |   |   |   |   |   |   |   |   |   |   |   |   |   |   f655 <= 0.167668: question (32.0/1.0)
|   |   |   |   |   |   |   |   |   |   |   |   |   |   |   |   |   |   f655 > 0.167668: not_question (4.0)
|   |   |   |   |   |   |   |   |   |   |   |   |   |   |   |   f59 > 0.358706: question (67.0)
|   |   |   |   |   |   |   |   |   |   |   |   |   f747 > 0.469009: question (54.0)
|   |   |   |   |   |   |   |   |   |   |   f677 > 1.120385
|   |   |   |   |   |   |   |   |   |   |   |   f35 <= 0.924127: question (6.0)
|   |   |   |   |   |   |   |   |   |   |   |   f35 > 0.924127: not_question (12.0)
|   |   |   |   |   |   |   |   |   |   f612 > 1.649598
|   |   |   |   |   |   |   |   |   |   |   f246 <= -0.119114: question (4.0)
|   |   |   |   |   |   |   |   |   |   |   f246 > -0.119114: not_question (12.0)
|   |   |   |   |   |   |   |   |   f623 > 0.493983: question (35.0)
|   |   |   |   |   |   |   |   f494 > 1.24674
|   |   |   |   |   |   |   |   |   f698 <= -0.055643: not_question (16.0/2.0)
|   |   |   |   |   |   |   |   |   f698 > -0.055643: question (6.0)
|   |   |   |   |   |   f545 > 0.007185
|   |   |   |   |   |   |   f186 <= 1.858144
|   |   |   |   |   |   |   |   f363 <= -1.684653: question (4.0)
|   |   |   |   |   |   |   |   f363 > -1.684653
|   |   |   |   |   |   |   |   |   f499 <= -1.35776: question (4.0/1.0)
|   |   |   |   |   |   |   |   |   f499 > -1.35776: not_question (34.0)
|   |   |   |   |   |   |   f186 > 1.858144: question (5.0)
|   |   f256 > -0.396283
|   |   |   f302 <= 0.043504
|   |   |   |   f943 <= -0.608391
|   |   |   |   |   f905 <= -1.618102
|   |   |   |   |   |   f205 <= -1.563015: question (2.0)
|   |   |   |   |   |   f205 > -1.563015: not_question (38.0)
|   |   |   |   |   f905 > -1.618102
|   |   |   |   |   |   f104 <= -0.535314
|   |   |   |   |   |   |   f120 <= 1.133088: not_question (37.0/1.0)
|   |   |   |   |   |   |   f120 > 1.133088: question (2.0)
|   |   |   |   |   |   f104 > -0.535314
|   |   |   |   |   |   |   f367 <= -0.191187
|   |   |   |   |   |   |   |   f774 <= 0.563548
|   |   |   |   |   |   |   |   |   f937 <= -0.562022
|   |   |   |   |   |   |   |   |   |   f62 <= -0.412086: not_question (4.0/1.0)
|   |   |   |   |   |   |   |   |   |   f62 > -0.412086: question (30.0)
|   |   |   |   |   |   |   |   |   f937 > -0.562022
|   |   |   |   |   |   |   |   |   |   f302 <= -1.439177
|   |   |   |   |   |   |   |   |   |   |   f219 <= 0.755516: not_question (23.0)
|   |   |   |   |   |   |   |   |   |   |   f219 > 0.755516: question (2.0)
|   |   |   |   |   |   |   |   |   |   f302 > -1.439177
|   |   |   |   |   |   |   |   |   |   |   f663 <= -1.387322
|   |   |   |   |   |   |   |   |   |   |   |   f325 <= 1.121868: not_question (26.0/1.0)
|   |   |   |   |   |   |   |   |   |   |   |   f325 > 1.121868: question (3.0)
|   |   |   |   |   |   |   |   |   |   |   f663 > -1.387322
|   |   |   |   |   |   |   |   |   |   |   |   f943 <= -1.37302
|   |   |   |   |   |   |   |   |   |   |   |   |   f523 <= 0.371725
|   |   |   |   |   |   |   |   |   |   |   |   |   |   f205 <= -0.379451
|   |   |   |   |   |   |   |   |   |   |   |   |   |   |   f1 <= 1.20798: question (4.0)
|   |   |   |   |   |   |   |   |   |   |   |   |   |   |   f1 > 1.20798: not_question (2.0)
|   |   |   |   |   |   |   |   |   |   |   |   |   |   f205 > -0.379451: not_question (33.0)
|   |   |   |   |   |   |   |   |   |   |   |   |   f523 > 0.371725: question (4.0)
|   |   |   |   |   |   |   |   |   |   |   |   f943 > -1.37302
|   |   |   |   |   |   |   |   |   |   |   |   |   f262 <= 1.240905
|   |   |   |   |   |   |   |   |   |   |   |   |   |   f712 <= -0.929983
|   |   |   |   |   |   |   |   |   |   |   |   |   |   |   f151 <= 0.097527
|   |   |   |   |   |   |   |   |   |   |   |   |   |   |   |   f633 <= -0.34462: question (6.0)
|   |   |   |   |   |   |   |   |   |   |   |   |   |   |   |   f633 > -0.34462
|   |   |   |   |   |   |   |   |   |   |   |   |   |   |   |   |   f411 <= 0.759294: not_question (28.0)
|   |   |   |   |   |   |   |   |   |   |   |   |   |   |   |   |   f411 > 0.759294
|   |   |   |   |   |   |   |   |   |   |   |   |   |   |   |   |   |   f46 <= 0.944093
|   |   |   |   |   |   |   |   |   |   |   |   |   |   |   |   |   |   |   f332 <= -1.416305: question (4.0)
|   |   |   |   |   |   |   |   |   |   |   |   |   |   |   |   |   |   |   f332 > -1.416305
|   |   |   |   |   |   |   |   |   |   |   |   |   |   |   |   |   |   |   |   f580 <= -1.770265: question (3.0)
|   |   |   |   |   |   |   |   |   |   |   |   |   |   |   |   |   |   |   |   f580 > -1.770265
|   |   |   |   |   |   |   |   |   |   |   |   |   |   |   |   |   |   |   |   |   f640 <= -2.290491: question (2.0)
|   |   |   |   |   |   |   |   |   |   |   |   |   |   |   |   |   |   |   |   |   f640 > -2.290491: not_question (33.0)
|   |   |   |   |   |   |   |   |   |   |   |   |   |   |   |   |   |   f46 > 0.944093: question (4.0)
|   |   |   |   |   |   |   |   |   |   |   |   |   |   |   f151 > 0.097527: question (6.0)
|   |   |   |   |   |   |   |   |   |   |   |   |   |   f712 > -0.929983
|   |   |   |   |   |   |   |   |   |   |   |   |   |   |   f721 <= 1.119343
|   |   |   |   |   |   |   |   |   |   |   |   |   |   |   |   f883 <= 2.056085
|   |   |   |   |   |   |   |   |   |   |   |   |   |   |   |   |   f951 <= -1.651915
|   |   |   |   |   |   |   |   |   |   |   |   |   |   |   |   |   |   f817 <= 0.171526: not_question (16.0)
|   |   |   |   |   |   |   |   |   |   |   |   |   |   |   |   |   |   f817 > 0.171526
|   |   |   |   |   |   |   |   |   |   |   |   |   |   |   |   |   |   |   f6 <= 0.257935: question (5.0)
|   |   |   |   |   |   |   |   |   |   |   |   |   |   |   |   |   |   |   f6 > 0.257935: not_question (2.0)
|   |   |   |   |   |   |   |   |   |   |   |   |   |   |   |   |   f951 > -1.651915
|   |   |   |   |   |   |   |   |   |   |   |   |   |   |   |   |   |   f44 <= 0.34046
|   |   |   |   |   |   |   |   |   |   |   |   |   |   |   |   |   |   |   f88 <= -0.224304
|   |   |   |   |   |   |   |   |   |   |   |   |   |   |   |   |   |   |   |   f57 <= 0.20692: question (42.0)
|   |   |   |   |   |   |   |   |   |   |   |   |   |   |   |   |   |   |   |   f57 > 0.20692
|   |   |   |   |   |   |   |   |   |   |   |   |   |   |   |   |   |   |   |   |   f978 <= 1.119579
|   |   |   |   |   |   |   |   |   |   |   |   |   |   |   |   |   |   |   |   |   |   f896 <= 0.382643
|   |   |   |   |   |   |   |   |   |   |   |   |   |   |   |   |   |   |   |   |   |   |   f159 <= -0.270815: not_question (8.0)
|   |   |   |   |   |   |   |   |   |   |   |   |   |   |   |   |   |   |   |   |   |   |   f159 > -0.270815
|   |   |   |   |   |   |   |   |   |   |   |   |   |   |   |   |   |   |   |   |   |   |   |   f162 <= -2.066269
|   |   |   |   |   |   |   |   |   |   |   |   |   |   |   |   |   |   |   |   |   |   |   |   |   f988 <= 1.447685: not_question (17.0/1.0)
|   |   |   |   |   |   |   |   |   |   |   |   |   |   |   |   |   |   |   |   |   |   |   |   |   f988 > 1.447685: question (4.0)
|   |   |   |   |   |   |   |   |   |   |   |   |   |   |   |   |   |   |   |   |   |   |   |   f162 > -2.066269
|   |   |   |   |   |   |   |   |   |   |   |   |   |   |   |   |   |   |   |   |   |   |   |   |   f537 <= 0.305929
|   |   |   |   |   |   |   |   |   |   |   |   |   |   |   |   |   |   |   |   |   |   |   |   |   |   f269 <= 1.319322
|   |   |   |   |   |   |   |   |   |   |   |   |   |   |   |   |   |   |   |   |   |   |   |   |   |   |   f88 <= -2.339413: not_question (6.0)
|   |   |   |   |   |   |   |   |   |   |   |   |   |   |   |   |   |   |   |   |   |   |   |   |   |   |   f88 > -2.339413
|   |   |   |   |   |   |   |   |   |   |   |   |   |   |   |   |   |   |   |   |   |   |   |   |   |   |   |   f513 <= 1.48615
|   |   |   |   |   |   |   |   |   |   |   |   |   |   |   |   |   |   |   |   |   |   |   |   |   |   |   |   |   f536 <= -0.315082
|   |   |   |   |   |   |   |   |   |   |   |   |   |   |   |   |   |   |   |   |   |   |   |   |   |   |   |   |   |   f86 <= -0.829722: question (3.0)
|   |   |   |   |   |   |   |   |   |   |   |   |   |   |   |   |   |   |   |   |   |   |   |   |   |   |   |   |   |   f86 > -0.829722: not_question (8.0)
|   |   |   |   |   |   |   |   |   |   |   |   |   |   |   |   |   |   |   |   |   |   |   |   |   |   |   |   |   f536 > -0.315082
|   |   |   |   |   |   |   |   |   |   |   |   |   |   |   |   |   |   |   |   |   |   |   |   |   |   |   |   |   |   f353 <= -1.972121: not_question (4.0)
|   |   |   |   |   |   |   |   |   |   |   |   |   |   |   |   |   |   |   |   |   |   |   |   |   |   |   |   |   |   f353 > -1.972121
|   |   |   |   |   |   |   |   |   |   |   |   |   |   |   |   |   |   |   |   |   |   |   |   |   |   |   |   |   |   |   f642 <= 0.173574
|   |   |   |   |   |   |   |   |   |   |   |   |   |   |   |   |   |   |   |   |   |   |   |   |   |   |   |   |   |   |   |   f163 <= -0.324446: not_question (3.0)
|   |   |   |   |   |   |   |   |   |   |   |   |   |   |   |   |   |   |   |   |   |   |   |   |   |   |   |   |   |   |   |   f163 > -0.324446
|   |   |   |   |   |   |   |   |   |   |   |   |   |   |   |   |   |   |   |   |   |   |   |   |   |   |   |   |   |   |   |   |   f813 <= -0.708928: not_question (3.0)
|   |   |   |   |   |   |   |   |   |   |   |   |   |   |   |   |   |   |   |   |   |   |   |   |   |   |   |   |   |   |   |   |   f813 > -0.708928
|   |   |   |   |   |   |   |   |   |   |   |   |   |   |   |   |   |   |   |   |   |   |   |   |   |   |   |   |   |   |   |   |   |   f566 <= 1.201475: question (30.0)
|   |   |   |   |   |   |   |   |   |   |   |   |   |   |   |   |   |   |   |   |   |   |   |   |   |   |   |   |   |   |   |   |   |   f566 > 1.201475: not_question (2.0)
|   |   |   |   |   |   |   |   |   |   |   |   |   |   |   |   |   |   |   |   |   |   |   |   |   |   |   |   |   |   |   f642 > 0.173574: question (37.0)
|   |   |   |   |   |   |   |   |   |   |   |   |   |   |   |   |   |   |   |   |   |   |   |   |   |   |   |   f513 > 1.48615: not_question (5.0)
|   |   |   |   |   |   |   |   |   |   |   |   |   |   |   |   |   |   |   |   |   |   |   |   |   |   f269 > 1.319322: not_question (7.0)
|   |   |   |   |   |   |   |   |   |   |   |   |   |   |   |   |   |   |   |   |   |   |   |   |   f537 > 0.305929: question (21.0)
|   |   |   |   |   |   |   |   |   |   |   |   |   |   |   |   |   |   |   |   |   |   f896 > 0.382643: question (16.0)
|   |   |   |   |   |   |   |   |   |   |   |   |   |   |   |   |   |   |   |   |   f978 > 1.119579: question (20.0)
|   |   |   |   |   |   |   |   |   |   |   |   |   |   |   |   |   |   |   f88 > -0.224304
|   |   |   |   |   |   |   |   |   |   |   |   |   |   |   |   |   |   |   |   f320 <= 0.063518
|   |   |   |   |   |   |   |   |   |   |   |   |   |   |   |   |   |   |   |   |   f12 <= 0.759378: not_question (2.0)
|   |   |   |   |   |   |   |   |   |   |   |   |   |   |   |   |   |   |   |   |   f12 > 0.759378: question (7.0)
|   |   |   |   |   |   |   |   |   |   |   |   |   |   |   |   |   |   |   |   f320 > 0.063518: not_question (13.0)
|   |   |   |   |   |   |   |   |   |   |   |   |   |   |   |   |   |   f44 > 0.34046
|   |   |   |   |   |   |   |   |   |   |   |   |   |   |   |   |   |   |   f387 <= -1.181271
|   |   |   |   |   |   |   |   |   |   |   |   |   |   |   |   |   |   |   |   f214 <= -0.059635: question (19.0)
|   |   |   |   |   |   |   |   |   |   |   |   |   |   |   |   |   |   |   |   f214 > -0.059635: not_question (4.0)
|   |   |   |   |   |   |   |   |   |   |   |   |   |   |   |   |   |   |   f387 > -1.181271
|   |   |   |   |   |   |   |   |   |   |   |   |   |   |   |   |   |   |   |   f380 <= -1.908344: question (6.0)
|   |   |   |   |   |   |   |   |   |   |   |   |   |   |   |   |   |   |   |   f380 > -1.908344
|   |   |   |   |   |   |   |   |   |   |   |   |   |   |   |   |   |   |   |   |   f234 <= -1.728018: question (3.0)
|   |   |   |   |   |   |   |   |   |   |   |   |   |   |   |   |   |   |   |   |   f234 > -1.728018
|   |   |   |   |   |   |   |   |   |   |   |   |   |   |   |   |   |   |   |   |   |   f887 <= -0.561381
|   |   |   |   |   |   |   |   |   |   |   |   |   |   |   |   |   |   |   |   |   |   |   f3 <= 0.026411: question (4.0)
|   |   |   |   |   |   |   |   |   |   |   |   |   |   |   |   |   |   |   |   |   |   |   f3 > 0.026411: not_question (2.0)
|   |   |   |   |   |   |   |   |   |   |   |   |   |   |   |   |   |   |   |   |   |   f887 > -0.561381: not_question (36.0)
|   |   |   |   |   |   |   |   |   |   |   |   |   |   |   |   f883 > 2.056085
|   |   |   |   |   |   |   |   |   |   |   |   |   |   |   |   |   f270 <= -0.560829: question (4.0/1.0)
|   |   |   |   |   |   |   |   |   |   |   |   |   |   |   |   |   f270 > -0.560829: not_question (15.0)
|   |   |   |   |   |   |   |   |   |   |   |   |   |   |   f721 > 1.119343
|   |   |   |   |   |   |   |   |   |   |   |   |   |   |   |   f423 <= -1.220973: question (3.0)
|   |   |   |   |   |   |   |   |   |   |   |   |   |   |   |   f423 > -1.220973: not_question (19.0)
|   |   |   |   |   |   |   |   |   |   |   |   |   f262 > 1.240905
|   |   |   |   |   |   |   |   |   |   |   |   |   |   f164 <= 0.31546: not_question (4.0)
|   |   |   |   |   |   |   |   |   |   |   |   |   |   f164 > 0.31546: question (33.0/1.0)
|   |   |   |   |   |   |   |   f774 > 0.563548
|   |   |   |   |   |   |   |   |   f300 <= 0.581673
|   |   |   |   |   |   |   |   |   |   f254 <= 0.338286
|   |   |   |   |   |   |   |   |   |   |   f128 <= -0.232679: not_question (12.0)
|   |   |   |   |   |   |   |   |   |   |   f128 > -0.232679
|   |   |   |   |   |   |   |   |   |   |   |   f910 <= 0.616188
|   |   |   |   |   |   |   |   |   |   |   |   |   f255 <= -0.464071
|   |   |   |   |   |   |   |   |   |   |   |   |   |   f16 <= 0.383037: question (2.0)
|   |   |   |   |   |   |   |   |   |   |   |   |   |   f16 > 0.383037: not_question (5.0)
|   |   |   |   |   |   |   |   |   |   |   |   |   f255 > -0.464071: question (20.0)
|   |   |   |   |   |   |   |   |   |   |   |   f910 > 0.616188: not_question (5.0)
|   |   |   |   |   |   |   |   |   |   f254 > 0.338286
|   |   |   |   |   |   |   |   |   |   |   f604 <= -1.155668: question (6.0/1.0)
|   |   |   |   |   |   |   |   |   |   |   f604 > -1.155668
|   |   |   |   |   |   |   |   |   |   |   |   f225 <= -0.299524
|   |   |   |   |   |   |   |   |   |   |   |   |   f218 <= -0.355712: not_question (5.0)
|   |   |   |   |   |   |   |   |   |   |   |   |   f218 > -0.355712: question (6.0)
|   |   |   |   |   |   |   |   |   |   |   |   f225 > -0.299524: not_question (84.0/1.0)
|   |   |   |   |   |   |   |   |   f300 > 0.581673: question (9.0/1.0)
|   |   |   |   |   |   |   f367 > -0.191187
|   |   |   |   |   |   |   |   f772 <= -0.051277: question (4.0)
|   |   |   |   |   |   |   |   f772 > -0.051277
|   |   |   |   |   |   |   |   |   f108 <= -1.381795: question (6.0/1.0)
|   |   |   |   |   |   |   |   |   f108 > -1.381795
|   |   |   |   |   |   |   |   |   |   f511 <= -1.425721
|   |   |   |   |   |   |   |   |   |   |   f6 <= 0.687847: question (4.0)
|   |   |   |   |   |   |   |   |   |   |   f6 > 0.687847: not_question (2.0)
|   |   |   |   |   |   |   |   |   |   f511 > -1.425721: not_question (55.0)
|   |   |   |   f943 > -0.608391
|   |   |   |   |   f907 <= 0.036782
|   |   |   |   |   |   f768 <= 1.017761
|   |   |   |   |   |   |   f300 <= -2.248649
|   |   |   |   |   |   |   |   f430 <= -1.401658: question (5.0)
|   |   |   |   |   |   |   |   f430 > -1.401658
|   |   |   |   |   |   |   |   |   f1009 <= 0.986349
|   |   |   |   |   |   |   |   |   |   f716 <= 0.303492
|   |   |   |   |   |   |   |   |   |   |   f834 <= 0.31598
|   |   |   |   |   |   |   |   |   |   |   |   f7 <= 0.245778: not_question (3.0)
|   |   |   |   |   |   |   |   |   |   |   |   f7 > 0.245778: question (4.0)
|   |   |   |   |   |   |   |   |   |   |   f834 > 0.31598: not_question (56.0)
|   |   |   |   |   |   |   |   |   |   f716 > 0.303492: question (6.0/1.0)
|   |   |   |   |   |   |   |   |   f1009 > 0.986349: question (4.0)
|   |   |   |   |   |   |   f300 > -2.248649
|   |   |   |   |   |   |   |   f991 <= 0.41661
|   |   |   |   |   |   |   |   |   f184 <= 0.922471
|   |   |   |   |   |   |   |   |   |   f720 <= -1.129609
|   |   |   |   |   |   |   |   |   |   |   f957 <= -0.119896
|   |   |   |   |   |   |   |   |   |   |   |   f107 <= -0.913658: question (3.0)
|   |   |   |   |   |   |   |   |   |   |   |   f107 > -0.913658: not_question (14.0)
|   |   |   |   |   |   |   |   |   |   |   f957 > -0.119896
|   |   |   |   |   |   |   |   |   |   |   |   f464 <= -1.245545
|   |   |   |   |   |   |   |   |   |   |   |   |   f14 <= -0.242745: question (2.0)
|   |   |   |   |   |   |   |   |   |   |   |   |   f14 > -0.242745: not_question (9.0)
|   |   |   |   |   |   |   |   |   |   |   |   f464 > -1.245545
|   |   |   |   |   |   |   |   |   |   |   |   |   f305 <= -0.09424
|   |   |   |   |   |   |   |   |   |   |   |   |   |   f208 <= -0.236572
|   |   |   |   |   |   |   |   |   |   |   |   |   |   |   f0 <= 0.345852: not_question (9.0)
|   |   |   |   |   |   |   |   |   |   |   |   |   |   |   f0 > 0.345852: question (2.0)
|   |   |   |   |   |   |   |   |   |   |   |   |   |   f208 > -0.236572
|   |   |   |   |   |   |   |   |   |   |   |   |   |   |   f502 <= -0.389459: question (27.0)
|   |   |   |   |   |   |   |   |   |   |   |   |   |   |   f502 > -0.389459
|   |   |   |   |   |   |   |   |   |   |   |   |   |   |   |   f419 <= -0.859636: not_question (9.0/1.0)
|   |   |   |   |   |   |   |   |   |   |   |   |   |   |   |   f419 > -0.859636
|   |   |   |   |   |   |   |   |   |   |   |   |   |   |   |   |   f272 <= 1.389334
|   |   |   |   |   |   |   |   |   |   |   |   |   |   |   |   |   |   f557 <= 0.636859
|   |   |   |   |   |   |   |   |   |   |   |   |   |   |   |   |   |   |   f837 <= -0.330853: not_question (4.0/1.0)
|   |   |   |   |   |   |   |   |   |   |   |   |   |   |   |   |   |   |   f837 > -0.330853
|   |   |   |   |   |   |   |   |   |   |   |   |   |   |   |   |   |   |   |   f196 <= -0.8322
|   |   |   |   |   |   |   |   |   |   |   |   |   |   |   |   |   |   |   |   |   f2 <= -0.074484: not_question (2.0)
|   |   |   |   |   |   |   |   |   |   |   |   |   |   |   |   |   |   |   |   |   f2 > -0.074484: question (2.0)
|   |   |   |   |   |   |   |   |   |   |   |   |   |   |   |   |   |   |   |   f196 > -0.8322: question (57.0)
|   |   |   |   |   |   |   |   |   |   |   |   |   |   |   |   |   |   f557 > 0.636859
|   |   |   |   |   |   |   |   |   |   |   |   |   |   |   |   |   |   |   f627 <= -0.874552: not_question (7.0)
|   |   |   |   |   |   |   |   |   |   |   |   |   |   |   |   |   |   |   f627 > -0.874552
|   |   |   |   |   |   |   |   |   |   |   |   |   |   |   |   |   |   |   |   f716 <= -1.443412: not_question (5.0)
|   |   |   |   |   |   |   |   |   |   |   |   |   |   |   |   |   |   |   |   f716 > -1.443412
|   |   |   |   |   |   |   |   |   |   |   |   |   |   |   |   |   |   |   |   |   f47 <= -0.301244: question (22.0)
|   |   |   |   |   |   |   |   |   |   |   |   |   |   |   |   |   |   |   |   |   f47 > -0.301244: not_question (2.0)
|   |   |   |   |   |   |   |   |   |   |   |   |   |   |   |   |   f272 > 1.389334
|   |   |   |   |   |   |   |   |   |   |   |   |   |   |   |   |   |   f50 <= 0.56689: not_question (9.0)
|   |   |   |   |   |   |   |   |   |   |   |   |   |   |   |   |   |   f50 > 0.56689: question (3.0)
|   |   |   |   |   |   |   |   |   |   |   |   |   f305 > -0.09424: question (40.0)
|   |   |   |   |   |   |   |   |   |   f720 > -1.129609
|   |   |   |   |   |   |   |   |   |   |   f662 <= -0.366352
|   |   |   |   |   |   |   |   |   |   |   |   f218 <= 0.776005
|   |   |   |   |   |   |   |   |   |   |   |   |   f277 <= -0.426092
|   |   |   |   |   |   |   |   |   |   |   |   |   |   f390 <= 0.368574: question (5.0/1.0)
|   |   |   |   |   |   |   |   |   |   |   |   |   |   f390 > 0.368574: not_question (12.0)
|   |   |   |   |   |   |   |   |   |   |   |   |   f277 > -0.426092
|   |   |   |   |   |   |   |   |   |   |   |   |   |   f896 <= 0.46894
|   |   |   |   |   |   |   |   |   |   |   |   |   |   |   f243 <= -1.039083
|   |   |   |   |   |   |   |   |   |   |   |   |   |   |   |   f877 <= -1.222531
|   |   |   |   |   |   |   |   |   |   |   |   |   |   |   |   |   f2 <= -0.247957: not_question (3.0)
|   |   |   |   |   |   |   |   |   |   |   |   |   |   |   |   |   f2 > -0.247957: question (2.0)
|   |   |   |   |   |   |   |   |   |   |   |   |   |   |   |   f877 > -1.222531: question (60.0)
|   |   |   |   |   |   |   |   |   |   |   |   |   |   |   f243 > -1.039083
|   |   |   |   |   |   |   |   |   |   |   |   |   |   |   |   f54 <= -0.047233
|   |   |   |   |   |   |   |   |   |   |   |   |   |   |   |   |   f21 <= -0.971433: question (2.0)
|   |   |   |   |   |   |   |   |   |   |   |   |   |   |   |   |   f21 > -0.971433: not_question (9.0)
|   |   |   |   |   |   |   |   |   |   |   |   |   |   |   |   f54 > -0.047233
|   |   |   |   |   |   |   |   |   |   |   |   |   |   |   |   |   f485 <= 1.09165
|   |   |   |   |   |   |   |   |   |   |   |   |   |   |   |   |   |   f371 <= 1.840237
|   |   |   |   |   |   |   |   |   |   |   |   |   |   |   |   |   |   |   f528 <= 0.32855
