=== Run information ===

Scheme:       weka.classifiers.trees.RandomTree -K 0 -M 1.0 -V 0.001 -S 1
Relation:     vectors_roberta-large-nli-stsb-mean-tokens_200t
Instances:    102198
Attributes:   1025
              [list of attributes omitted]
Test mode:    split 70.0% train, remainder test

=== Classifier model (full training set) ===


RandomTree
==========

f164 < 0.51
|   f134 < -0.73
|   |   f138 < -0.65
|   |   |   f373 < -0.06
|   |   |   |   f881 < -0.82
|   |   |   |   |   f893 < -0.3
|   |   |   |   |   |   f943 < 0.16
|   |   |   |   |   |   |   f9 < 0.88
|   |   |   |   |   |   |   |   f798 < -0.96
|   |   |   |   |   |   |   |   |   f260 < 1.64
|   |   |   |   |   |   |   |   |   |   f222 < -0.89 : not_question (11/0)
|   |   |   |   |   |   |   |   |   |   f222 >= -0.89
|   |   |   |   |   |   |   |   |   |   |   f655 < -1.77 : question (4/0)
|   |   |   |   |   |   |   |   |   |   |   f655 >= -1.77
|   |   |   |   |   |   |   |   |   |   |   |   f202 < -0.27 : not_question (8/0)
|   |   |   |   |   |   |   |   |   |   |   |   f202 >= -0.27
|   |   |   |   |   |   |   |   |   |   |   |   |   f506 < -0.39
|   |   |   |   |   |   |   |   |   |   |   |   |   |   f804 < 0.49
|   |   |   |   |   |   |   |   |   |   |   |   |   |   |   f612 < -0.64 : question (2/0)
|   |   |   |   |   |   |   |   |   |   |   |   |   |   |   f612 >= -0.64 : not_question (4/0)
|   |   |   |   |   |   |   |   |   |   |   |   |   |   f804 >= 0.49 : not_question (16/0)
|   |   |   |   |   |   |   |   |   |   |   |   |   f506 >= -0.39
|   |   |   |   |   |   |   |   |   |   |   |   |   |   f758 < -0.35
|   |   |   |   |   |   |   |   |   |   |   |   |   |   |   f73 < 0.95
|   |   |   |   |   |   |   |   |   |   |   |   |   |   |   |   f644 < -1.02
|   |   |   |   |   |   |   |   |   |   |   |   |   |   |   |   |   f75 < 0.21 : not_question (6/0)
|   |   |   |   |   |   |   |   |   |   |   |   |   |   |   |   |   f75 >= 0.21 : question (1/0)
|   |   |   |   |   |   |   |   |   |   |   |   |   |   |   |   f644 >= -1.02
|   |   |   |   |   |   |   |   |   |   |   |   |   |   |   |   |   f664 < -0.15
|   |   |   |   |   |   |   |   |   |   |   |   |   |   |   |   |   |   f728 < -0.38 : question (5/0)
|   |   |   |   |   |   |   |   |   |   |   |   |   |   |   |   |   |   f728 >= -0.38
|   |   |   |   |   |   |   |   |   |   |   |   |   |   |   |   |   |   |   f348 < -0.68
|   |   |   |   |   |   |   |   |   |   |   |   |   |   |   |   |   |   |   |   f191 < -0.86 : question (4/0)
|   |   |   |   |   |   |   |   |   |   |   |   |   |   |   |   |   |   |   |   f191 >= -0.86 : not_question (1/0)
|   |   |   |   |   |   |   |   |   |   |   |   |   |   |   |   |   |   |   f348 >= -0.68 : not_question (4/0)
|   |   |   |   |   |   |   |   |   |   |   |   |   |   |   |   |   f664 >= -0.15 : question (6/0)
|   |   |   |   |   |   |   |   |   |   |   |   |   |   |   f73 >= 0.95 : not_question (7/0)
|   |   |   |   |   |   |   |   |   |   |   |   |   |   f758 >= -0.35 : question (8/0)
|   |   |   |   |   |   |   |   |   f260 >= 1.64 : question (4/0)
|   |   |   |   |   |   |   |   f798 >= -0.96
|   |   |   |   |   |   |   |   |   f205 < -0.01
|   |   |   |   |   |   |   |   |   |   f928 < -1.09
|   |   |   |   |   |   |   |   |   |   |   f743 < 0.99 : question (5/0)
|   |   |   |   |   |   |   |   |   |   |   f743 >= 0.99
|   |   |   |   |   |   |   |   |   |   |   |   f621 < -0.13 : not_question (5/0)
|   |   |   |   |   |   |   |   |   |   |   |   f621 >= -0.13 : question (3/0)
|   |   |   |   |   |   |   |   |   |   f928 >= -1.09
|   |   |   |   |   |   |   |   |   |   |   f360 < 0.83
|   |   |   |   |   |   |   |   |   |   |   |   f124 < 0.47
|   |   |   |   |   |   |   |   |   |   |   |   |   f846 < -1.87 : not_question (4/0)
|   |   |   |   |   |   |   |   |   |   |   |   |   f846 >= -1.87
|   |   |   |   |   |   |   |   |   |   |   |   |   |   f832 < 0.08 : not_question (3/0)
|   |   |   |   |   |   |   |   |   |   |   |   |   |   f832 >= 0.08
|   |   |   |   |   |   |   |   |   |   |   |   |   |   |   f525 < 0.62 : question (8/0)
|   |   |   |   |   |   |   |   |   |   |   |   |   |   |   f525 >= 0.62 : not_question (2/0)
|   |   |   |   |   |   |   |   |   |   |   |   f124 >= 0.47 : not_question (8/0)
|   |   |   |   |   |   |   |   |   |   |   f360 >= 0.83 : not_question (16/0)
|   |   |   |   |   |   |   |   |   f205 >= -0.01
|   |   |   |   |   |   |   |   |   |   f947 < -0.57
|   |   |   |   |   |   |   |   |   |   |   f724 < -0.89 : question (2/0)
|   |   |   |   |   |   |   |   |   |   |   f724 >= -0.89
|   |   |   |   |   |   |   |   |   |   |   |   f231 < -0.84 : not_question (10/0)
|   |   |   |   |   |   |   |   |   |   |   |   f231 >= -0.84 : question (1/0)
|   |   |   |   |   |   |   |   |   |   f947 >= -0.57 : not_question (62/0)
|   |   |   |   |   |   |   f9 >= 0.88
|   |   |   |   |   |   |   |   f30 < 0.11
|   |   |   |   |   |   |   |   |   f845 < 0.42
|   |   |   |   |   |   |   |   |   |   f879 < 0.28
|   |   |   |   |   |   |   |   |   |   |   f65 < 1.16 : question (7/0)
|   |   |   |   |   |   |   |   |   |   |   f65 >= 1.16 : not_question (2/0)
|   |   |   |   |   |   |   |   |   |   f879 >= 0.28 : not_question (2/0)
|   |   |   |   |   |   |   |   |   f845 >= 0.42
|   |   |   |   |   |   |   |   |   |   f667 < -0.08
|   |   |   |   |   |   |   |   |   |   |   f814 < -0.03 : not_question (3/0)
|   |   |   |   |   |   |   |   |   |   |   f814 >= -0.03 : question (2/0)
|   |   |   |   |   |   |   |   |   |   f667 >= -0.08 : not_question (15/0)
|   |   |   |   |   |   |   |   f30 >= 0.11
|   |   |   |   |   |   |   |   |   f149 < -0.12 : question (11/0)
|   |   |   |   |   |   |   |   |   f149 >= -0.12
|   |   |   |   |   |   |   |   |   |   f50 < -0.18 : question (3/0)
|   |   |   |   |   |   |   |   |   |   f50 >= -0.18
|   |   |   |   |   |   |   |   |   |   |   f158 < 0.2 : question (1/0)
|   |   |   |   |   |   |   |   |   |   |   f158 >= 0.2 : not_question (4/0)
|   |   |   |   |   |   f943 >= 0.16
|   |   |   |   |   |   |   f620 < -0.35
|   |   |   |   |   |   |   |   f256 < -0.32 : not_question (3/0)
|   |   |   |   |   |   |   |   f256 >= -0.32
|   |   |   |   |   |   |   |   |   f374 < 0.54
|   |   |   |   |   |   |   |   |   |   f226 < -0.86 : not_question (2/0)
|   |   |   |   |   |   |   |   |   |   f226 >= -0.86 : question (18/0)
|   |   |   |   |   |   |   |   |   f374 >= 0.54
|   |   |   |   |   |   |   |   |   |   f272 < 0.37 : question (2/0)
|   |   |   |   |   |   |   |   |   |   f272 >= 0.37 : not_question (4/0)
|   |   |   |   |   |   |   f620 >= -0.35
|   |   |   |   |   |   |   |   f23 < -0.23 : question (5/0)
|   |   |   |   |   |   |   |   f23 >= -0.23
|   |   |   |   |   |   |   |   |   f705 < 0.73
|   |   |   |   |   |   |   |   |   |   f140 < -0.94
|   |   |   |   |   |   |   |   |   |   |   f801 < 1.47
|   |   |   |   |   |   |   |   |   |   |   |   f132 < 0.55 : not_question (3/0)
|   |   |   |   |   |   |   |   |   |   |   |   f132 >= 0.55 : question (1/0)
|   |   |   |   |   |   |   |   |   |   |   f801 >= 1.47 : question (3/0)
|   |   |   |   |   |   |   |   |   |   f140 >= -0.94
|   |   |   |   |   |   |   |   |   |   |   f864 < 0.49 : not_question (20/0)
|   |   |   |   |   |   |   |   |   |   |   f864 >= 0.49
|   |   |   |   |   |   |   |   |   |   |   |   f564 < 0.4 : question (2/0)
|   |   |   |   |   |   |   |   |   |   |   |   f564 >= 0.4 : not_question (3/0)
|   |   |   |   |   |   |   |   |   f705 >= 0.73
|   |   |   |   |   |   |   |   |   |   f448 < 0.04
|   |   |   |   |   |   |   |   |   |   |   f711 < -0.97 : question (6/0)
|   |   |   |   |   |   |   |   |   |   |   f711 >= -0.97
|   |   |   |   |   |   |   |   |   |   |   |   f22 < -0.06 : not_question (7/0)
|   |   |   |   |   |   |   |   |   |   |   |   f22 >= -0.06
|   |   |   |   |   |   |   |   |   |   |   |   |   f888 < 1.13 : question (8/0)
|   |   |   |   |   |   |   |   |   |   |   |   |   f888 >= 1.13
|   |   |   |   |   |   |   |   |   |   |   |   |   |   f428 < -0.42 : not_question (7/0)
|   |   |   |   |   |   |   |   |   |   |   |   |   |   f428 >= -0.42
|   |   |   |   |   |   |   |   |   |   |   |   |   |   |   f96 < -0.73 : not_question (1/0)
|   |   |   |   |   |   |   |   |   |   |   |   |   |   |   f96 >= -0.73 : question (4/0)
|   |   |   |   |   |   |   |   |   |   f448 >= 0.04 : not_question (5/0)
|   |   |   |   |   f893 >= -0.3
|   |   |   |   |   |   f693 < -0.22
|   |   |   |   |   |   |   f727 < 0.09
|   |   |   |   |   |   |   |   f44 < 0.78
|   |   |   |   |   |   |   |   |   f227 < -1.09
|   |   |   |   |   |   |   |   |   |   f416 < -0.79 : question (1/0)
|   |   |   |   |   |   |   |   |   |   f416 >= -0.79 : not_question (11/0)
|   |   |   |   |   |   |   |   |   f227 >= -1.09
|   |   |   |   |   |   |   |   |   |   f190 < -1.24
|   |   |   |   |   |   |   |   |   |   |   f16 < 1.39 : not_question (7/0)
|   |   |   |   |   |   |   |   |   |   |   f16 >= 1.39 : question (1/0)
|   |   |   |   |   |   |   |   |   |   f190 >= -1.24
|   |   |   |   |   |   |   |   |   |   |   f434 < -0.57
|   |   |   |   |   |   |   |   |   |   |   |   f23 < 1.23 : question (14/0)
|   |   |   |   |   |   |   |   |   |   |   |   f23 >= 1.23 : not_question (1/0)
|   |   |   |   |   |   |   |   |   |   |   f434 >= -0.57
|   |   |   |   |   |   |   |   |   |   |   |   f75 < 0.52
|   |   |   |   |   |   |   |   |   |   |   |   |   f726 < 0.12
|   |   |   |   |   |   |   |   |   |   |   |   |   |   f704 < 0.83
|   |   |   |   |   |   |   |   |   |   |   |   |   |   |   f141 < 0.4 : not_question (2/0)
|   |   |   |   |   |   |   |   |   |   |   |   |   |   |   f141 >= 0.4 : question (3/0)
|   |   |   |   |   |   |   |   |   |   |   |   |   |   f704 >= 0.83 : not_question (9/0)
|   |   |   |   |   |   |   |   |   |   |   |   |   f726 >= 0.12 : question (3/0)
|   |   |   |   |   |   |   |   |   |   |   |   f75 >= 0.52 : question (3/0)
|   |   |   |   |   |   |   |   f44 >= 0.78 : question (5/0)
|   |   |   |   |   |   |   f727 >= 0.09
|   |   |   |   |   |   |   |   f269 < -0.28 : question (14/0)
|   |   |   |   |   |   |   |   f269 >= -0.28
|   |   |   |   |   |   |   |   |   f545 < -0.22
|   |   |   |   |   |   |   |   |   |   f896 < -1.23 : question (23/0)
|   |   |   |   |   |   |   |   |   |   f896 >= -1.23
|   |   |   |   |   |   |   |   |   |   |   f365 < -0.15
|   |   |   |   |   |   |   |   |   |   |   |   f853 < -0.05
|   |   |   |   |   |   |   |   |   |   |   |   |   f384 < 0.16
|   |   |   |   |   |   |   |   |   |   |   |   |   |   f35 < 0.46 : question (23/0)
|   |   |   |   |   |   |   |   |   |   |   |   |   |   f35 >= 0.46
|   |   |   |   |   |   |   |   |   |   |   |   |   |   |   f139 < -0.11
|   |   |   |   |   |   |   |   |   |   |   |   |   |   |   |   f411 < 0.9
|   |   |   |   |   |   |   |   |   |   |   |   |   |   |   |   |   f303 < -0.95 : not_question (1/0)
|   |   |   |   |   |   |   |   |   |   |   |   |   |   |   |   |   f303 >= -0.95 : question (5/0)
|   |   |   |   |   |   |   |   |   |   |   |   |   |   |   |   f411 >= 0.9 : not_question (2/0)
|   |   |   |   |   |   |   |   |   |   |   |   |   |   |   f139 >= -0.11 : question (7/0)
|   |   |   |   |   |   |   |   |   |   |   |   |   f384 >= 0.16
|   |   |   |   |   |   |   |   |   |   |   |   |   |   f143 < 0.37
|   |   |   |   |   |   |   |   |   |   |   |   |   |   |   f4 < 0.84 : not_question (5/0)
|   |   |   |   |   |   |   |   |   |   |   |   |   |   |   f4 >= 0.84 : question (1/0)
|   |   |   |   |   |   |   |   |   |   |   |   |   |   f143 >= 0.37 : question (5/0)
|   |   |   |   |   |   |   |   |   |   |   |   f853 >= -0.05
|   |   |   |   |   |   |   |   |   |   |   |   |   f665 < 1.72
|   |   |   |   |   |   |   |   |   |   |   |   |   |   f1009 < 0.81
|   |   |   |   |   |   |   |   |   |   |   |   |   |   |   f722 < -0.19 : not_question (6/0)
|   |   |   |   |   |   |   |   |   |   |   |   |   |   |   f722 >= -0.19
|   |   |   |   |   |   |   |   |   |   |   |   |   |   |   |   f741 < -0.67
|   |   |   |   |   |   |   |   |   |   |   |   |   |   |   |   |   f77 < -0.75 : not_question (1/0)
|   |   |   |   |   |   |   |   |   |   |   |   |   |   |   |   |   f77 >= -0.75 : question (5/0)
|   |   |   |   |   |   |   |   |   |   |   |   |   |   |   |   f741 >= -0.67
|   |   |   |   |   |   |   |   |   |   |   |   |   |   |   |   |   f439 < 1.54 : not_question (6/0)
|   |   |   |   |   |   |   |   |   |   |   |   |   |   |   |   |   f439 >= 1.54 : question (1/0)
|   |   |   |   |   |   |   |   |   |   |   |   |   |   f1009 >= 0.81 : question (3/0)
|   |   |   |   |   |   |   |   |   |   |   |   |   f665 >= 1.72 : question (5/0)
|   |   |   |   |   |   |   |   |   |   |   f365 >= -0.15
|   |   |   |   |   |   |   |   |   |   |   |   f847 < -1.85 : not_question (1/0)
|   |   |   |   |   |   |   |   |   |   |   |   f847 >= -1.85 : question (35/0)
|   |   |   |   |   |   |   |   |   f545 >= -0.22
|   |   |   |   |   |   |   |   |   |   f419 < -0.62 : question (5/0)
|   |   |   |   |   |   |   |   |   |   f419 >= -0.62
|   |   |   |   |   |   |   |   |   |   |   f745 < -0.8 : not_question (10/0)
|   |   |   |   |   |   |   |   |   |   |   f745 >= -0.8
|   |   |   |   |   |   |   |   |   |   |   |   f74 < 0.56
|   |   |   |   |   |   |   |   |   |   |   |   |   f88 < -0.12
|   |   |   |   |   |   |   |   |   |   |   |   |   |   f493 < 1.92
|   |   |   |   |   |   |   |   |   |   |   |   |   |   |   f547 < 1.64 : not_question (16/0)
|   |   |   |   |   |   |   |   |   |   |   |   |   |   |   f547 >= 1.64 : question (1/0)
|   |   |   |   |   |   |   |   |   |   |   |   |   |   f493 >= 1.92
|   |   |   |   |   |   |   |   |   |   |   |   |   |   |   f273 < -1.54 : not_question (1/0)
|   |   |   |   |   |   |   |   |   |   |   |   |   |   |   f273 >= -1.54 : question (4/0)
|   |   |   |   |   |   |   |   |   |   |   |   |   f88 >= -0.12 : question (2/0)
|   |   |   |   |   |   |   |   |   |   |   |   f74 >= 0.56
|   |   |   |   |   |   |   |   |   |   |   |   |   f324 < -0.98 : question (6/0)
|   |   |   |   |   |   |   |   |   |   |   |   |   f324 >= -0.98
|   |   |   |   |   |   |   |   |   |   |   |   |   |   f45 < -0.51 : not_question (1/0)
|   |   |   |   |   |   |   |   |   |   |   |   |   |   f45 >= -0.51 : question (1/0)
|   |   |   |   |   |   f693 >= -0.22
|   |   |   |   |   |   |   f563 < -1.53
|   |   |   |   |   |   |   |   f812 < 0.9
|   |   |   |   |   |   |   |   |   f530 < -1.42
|   |   |   |   |   |   |   |   |   |   f81 < -0.52 : question (1/0)
|   |   |   |   |   |   |   |   |   |   f81 >= -0.52 : not_question (1/0)
|   |   |   |   |   |   |   |   |   f530 >= -1.42 : not_question (20/0)
|   |   |   |   |   |   |   |   f812 >= 0.9
|   |   |   |   |   |   |   |   |   f774 < -0.22
|   |   |   |   |   |   |   |   |   |   f301 < -1.29 : not_question (1/0)
|   |   |   |   |   |   |   |   |   |   f301 >= -1.29 : question (6/0)
|   |   |   |   |   |   |   |   |   f774 >= -0.22
|   |   |   |   |   |   |   |   |   |   f892 < 0.73
|   |   |   |   |   |   |   |   |   |   |   f136 < 0.14 : not_question (16/0)
|   |   |   |   |   |   |   |   |   |   |   f136 >= 0.14 : question (1/0)
|   |   |   |   |   |   |   |   |   |   f892 >= 0.73
|   |   |   |   |   |   |   |   |   |   |   f257 < 0.14 : not_question (3/0)
|   |   |   |   |   |   |   |   |   |   |   f257 >= 0.14 : question (5/0)
|   |   |   |   |   |   |   f563 >= -1.53
|   |   |   |   |   |   |   |   f148 < 0.77
|   |   |   |   |   |   |   |   |   f378 < -0.26
|   |   |   |   |   |   |   |   |   |   f92 < -0.86
|   |   |   |   |   |   |   |   |   |   |   f356 < 0.02
|   |   |   |   |   |   |   |   |   |   |   |   f54 < 0.73
|   |   |   |   |   |   |   |   |   |   |   |   |   f495 < -1.21
|   |   |   |   |   |   |   |   |   |   |   |   |   |   f561 < 1.4
|   |   |   |   |   |   |   |   |   |   |   |   |   |   |   f544 < -1.63 : question (2/0)
|   |   |   |   |   |   |   |   |   |   |   |   |   |   |   f544 >= -1.63
|   |   |   |   |   |   |   |   |   |   |   |   |   |   |   |   f101 < 0.74 : not_question (14/0)
|   |   |   |   |   |   |   |   |   |   |   |   |   |   |   |   f101 >= 0.74
|   |   |   |   |   |   |   |   |   |   |   |   |   |   |   |   |   f112 < -0.63 : question (1/0)
|   |   |   |   |   |   |   |   |   |   |   |   |   |   |   |   |   f112 >= -0.63 : not_question (1/0)
|   |   |   |   |   |   |   |   |   |   |   |   |   |   f561 >= 1.4 : question (3/0)
|   |   |   |   |   |   |   |   |   |   |   |   |   f495 >= -1.21 : not_question (30/0)
|   |   |   |   |   |   |   |   |   |   |   |   f54 >= 0.73
|   |   |   |   |   |   |   |   |   |   |   |   |   f650 < 0.27
|   |   |   |   |   |   |   |   |   |   |   |   |   |   f689 < 0.35 : not_question (10/0)
|   |   |   |   |   |   |   |   |   |   |   |   |   |   f689 >= 0.35
|   |   |   |   |   |   |   |   |   |   |   |   |   |   |   f180 < -0.14 : question (2/0)
|   |   |   |   |   |   |   |   |   |   |   |   |   |   |   f180 >= -0.14 : not_question (2/0)
|   |   |   |   |   |   |   |   |   |   |   |   |   f650 >= 0.27 : question (11/0)
|   |   |   |   |   |   |   |   |   |   |   f356 >= 0.02 : not_question (22/0)
|   |   |   |   |   |   |   |   |   |   f92 >= -0.86
|   |   |   |   |   |   |   |   |   |   |   f502 < 0.19
|   |   |   |   |   |   |   |   |   |   |   |   f1018 < 1.22
|   |   |   |   |   |   |   |   |   |   |   |   |   f547 < 1.16
|   |   |   |   |   |   |   |   |   |   |   |   |   |   f503 < 0.06
|   |   |   |   |   |   |   |   |   |   |   |   |   |   |   f62 < -0.37 : not_question (1/0)
|   |   |   |   |   |   |   |   |   |   |   |   |   |   |   f62 >= -0.37 : question (2/0)
|   |   |   |   |   |   |   |   |   |   |   |   |   |   f503 >= 0.06 : not_question (12/0)
|   |   |   |   |   |   |   |   |   |   |   |   |   f547 >= 1.16
|   |   |   |   |   |   |   |   |   |   |   |   |   |   f295 < -1.06 : not_question (1/0)
|   |   |   |   |   |   |   |   |   |   |   |   |   |   f295 >= -1.06 : question (5/0)
|   |   |   |   |   |   |   |   |   |   |   |   f1018 >= 1.22 : not_question (12/0)
|   |   |   |   |   |   |   |   |   |   |   f502 >= 0.19
|   |   |   |   |   |   |   |   |   |   |   |   f692 < 0.66
|   |   |   |   |   |   |   |   |   |   |   |   |   f1 < 0.4
|   |   |   |   |   |   |   |   |   |   |   |   |   |   f474 < 0.84 : question (8/0)
|   |   |   |   |   |   |   |   |   |   |   |   |   |   f474 >= 0.84
|   |   |   |   |   |   |   |   |   |   |   |   |   |   |   f65 < 0.35 : question (1/0)
|   |   |   |   |   |   |   |   |   |   |   |   |   |   |   f65 >= 0.35 : not_question (3/0)
|   |   |   |   |   |   |   |   |   |   |   |   |   f1 >= 0.4
|   |   |   |   |   |   |   |   |   |   |   |   |   |   f332 < -0.03 : question (4/0)
|   |   |   |   |   |   |   |   |   |   |   |   |   |   f332 >= -0.03
|   |   |   |   |   |   |   |   |   |   |   |   |   |   |   f46 < -0.9 : question (1/0)
|   |   |   |   |   |   |   |   |   |   |   |   |   |   |   f46 >= -0.9 : not_question (10/0)
|   |   |   |   |   |   |   |   |   |   |   |   f692 >= 0.66 : question (7/0)
|   |   |   |   |   |   |   |   |   f378 >= -0.26
|   |   |   |   |   |   |   |   |   |   f298 < -0.59 : question (10/0)
|   |   |   |   |   |   |   |   |   |   f298 >= -0.59
|   |   |   |   |   |   |   |   |   |   |   f164 < -0.22
|   |   |   |   |   |   |   |   |   |   |   |   f18 < 0.49
|   |   |   |   |   |   |   |   |   |   |   |   |   f808 < -1.14
|   |   |   |   |   |   |   |   |   |   |   |   |   |   f153 < 0.25 : question (1/0)
|   |   |   |   |   |   |   |   |   |   |   |   |   |   f153 >= 0.25 : not_question (1/0)
|   |   |   |   |   |   |   |   |   |   |   |   |   f808 >= -1.14 : not_question (13/0)
|   |   |   |   |   |   |   |   |   |   |   |   f18 >= 0.49
|   |   |   |   |   |   |   |   |   |   |   |   |   f428 < -0.23 : not_question (5/0)
|   |   |   |   |   |   |   |   |   |   |   |   |   f428 >= -0.23
|   |   |   |   |   |   |   |   |   |   |   |   |   |   f575 < 1 : question (7/0)
|   |   |   |   |   |   |   |   |   |   |   |   |   |   f575 >= 1 : not_question (2/0)
|   |   |   |   |   |   |   |   |   |   |   f164 >= -0.22
|   |   |   |   |   |   |   |   |   |   |   |   f657 < 0.08
|   |   |   |   |   |   |   |   |   |   |   |   |   f111 < 1.18
|   |   |   |   |   |   |   |   |   |   |   |   |   |   f918 < -0.94 : not_question (1/0)
|   |   |   |   |   |   |   |   |   |   |   |   |   |   f918 >= -0.94 : question (26/0)
|   |   |   |   |   |   |   |   |   |   |   |   |   f111 >= 1.18
|   |   |   |   |   |   |   |   |   |   |   |   |   |   f243 < 0.19 : not_question (4/0)
|   |   |   |   |   |   |   |   |   |   |   |   |   |   f243 >= 0.19 : question (1/0)
|   |   |   |   |   |   |   |   |   |   |   |   f657 >= 0.08
|   |   |   |   |   |   |   |   |   |   |   |   |   f218 < -0.03
|   |   |   |   |   |   |   |   |   |   |   |   |   |   f743 < 0.88
|   |   |   |   |   |   |   |   |   |   |   |   |   |   |   f699 < 0.18 : question (17/0)
|   |   |   |   |   |   |   |   |   |   |   |   |   |   |   f699 >= 0.18
|   |   |   |   |   |   |   |   |   |   |   |   |   |   |   |   f33 < 0.62
|   |   |   |   |   |   |   |   |   |   |   |   |   |   |   |   |   f21 < -0.26 : not_question (2/0)
|   |   |   |   |   |   |   |   |   |   |   |   |   |   |   |   |   f21 >= -0.26 : question (1/0)
|   |   |   |   |   |   |   |   |   |   |   |   |   |   |   |   f33 >= 0.62 : question (2/0)
|   |   |   |   |   |   |   |   |   |   |   |   |   |   f743 >= 0.88
|   |   |   |   |   |   |   |   |   |   |   |   |   |   |   f34 < 0.08
|   |   |   |   |   |   |   |   |   |   |   |   |   |   |   |   f100 < -0.53 : question (2/0)
|   |   |   |   |   |   |   |   |   |   |   |   |   |   |   |   f100 >= -0.53 : not_question (7/0)
|   |   |   |   |   |   |   |   |   |   |   |   |   |   |   f34 >= 0.08 : question (3/0)
|   |   |   |   |   |   |   |   |   |   |   |   |   f218 >= -0.03
|   |   |   |   |   |   |   |   |   |   |   |   |   |   f473 < -0.54
|   |   |   |   |   |   |   |   |   |   |   |   |   |   |   f58 < 1.3 : not_question (12/0)
|   |   |   |   |   |   |   |   |   |   |   |   |   |   |   f58 >= 1.3 : question (1/0)
|   |   |   |   |   |   |   |   |   |   |   |   |   |   f473 >= -0.54
|   |   |   |   |   |   |   |   |   |   |   |   |   |   |   f566 < -1.22 : question (5/0)
|   |   |   |   |   |   |   |   |   |   |   |   |   |   |   f566 >= -1.22
|   |   |   |   |   |   |   |   |   |   |   |   |   |   |   |   f962 < -0.42 : not_question (10/0)
|   |   |   |   |   |   |   |   |   |   |   |   |   |   |   |   f962 >= -0.42
|   |   |   |   |   |   |   |   |   |   |   |   |   |   |   |   |   f610 < -0.69
|   |   |   |   |   |   |   |   |   |   |   |   |   |   |   |   |   |   f120 < 1.24 : not_question (9/0)
|   |   |   |   |   |   |   |   |   |   |   |   |   |   |   |   |   |   f120 >= 1.24 : question (1/0)
|   |   |   |   |   |   |   |   |   |   |   |   |   |   |   |   |   f610 >= -0.69
|   |   |   |   |   |   |   |   |   |   |   |   |   |   |   |   |   |   f676 < 0.74
|   |   |   |   |   |   |   |   |   |   |   |   |   |   |   |   |   |   |   f901 < 0.22
|   |   |   |   |   |   |   |   |   |   |   |   |   |   |   |   |   |   |   |   f295 < 0.58 : question (14/0)
|   |   |   |   |   |   |   |   |   |   |   |   |   |   |   |   |   |   |   |   f295 >= 0.58 : not_question (2/0)
|   |   |   |   |   |   |   |   |   |   |   |   |   |   |   |   |   |   |   f901 >= 0.22
|   |   |   |   |   |   |   |   |   |   |   |   |   |   |   |   |   |   |   |   f136 < 0.15 : not_question (3/0)
|   |   |   |   |   |   |   |   |   |   |   |   |   |   |   |   |   |   |   |   f136 >= 0.15 : question (1/0)
|   |   |   |   |   |   |   |   |   |   |   |   |   |   |   |   |   |   f676 >= 0.74
|   |   |   |   |   |   |   |   |   |   |   |   |   |   |   |   |   |   |   f167 < -1.38
|   |   |   |   |   |   |   |   |   |   |   |   |   |   |   |   |   |   |   |   f123 < -0.76 : question (3/0)
|   |   |   |   |   |   |   |   |   |   |   |   |   |   |   |   |   |   |   |   f123 >= -0.76 : not_question (1/0)
|   |   |   |   |   |   |   |   |   |   |   |   |   |   |   |   |   |   |   f167 >= -1.38 : not_question (7/0)
|   |   |   |   |   |   |   |   f148 >= 0.77
|   |   |   |   |   |   |   |   |   f326 < -1.9
|   |   |   |   |   |   |   |   |   |   f413 < 0.35 : not_question (9/0)
|   |   |   |   |   |   |   |   |   |   f413 >= 0.35
|   |   |   |   |   |   |   |   |   |   |   f308 < 0.98 : not_question (2/0)
|   |   |   |   |   |   |   |   |   |   |   f308 >= 0.98
|   |   |   |   |   |   |   |   |   |   |   |   f98 < -0.41 : question (2/0)
|   |   |   |   |   |   |   |   |   |   |   |   f98 >= -0.41 : not_question (1/0)
|   |   |   |   |   |   |   |   |   f326 >= -1.9
|   |   |   |   |   |   |   |   |   |   f377 < 1.28
|   |   |   |   |   |   |   |   |   |   |   f128 < -0.5 : question (10/0)
|   |   |   |   |   |   |   |   |   |   |   f128 >= -0.5
|   |   |   |   |   |   |   |   |   |   |   |   f154 < -1.02
|   |   |   |   |   |   |   |   |   |   |   |   |   f816 < -1.23 : not_question (3/0)
|   |   |   |   |   |   |   |   |   |   |   |   |   f816 >= -1.23
|   |   |   |   |   |   |   |   |   |   |   |   |   |   f379 < 0.16
|   |   |   |   |   |   |   |   |   |   |   |   |   |   |   f111 < 1.69 : question (23/0)
|   |   |   |   |   |   |   |   |   |   |   |   |   |   |   f111 >= 1.69 : not_question (1/0)
|   |   |   |   |   |   |   |   |   |   |   |   |   |   f379 >= 0.16
|   |   |   |   |   |   |   |   |   |   |   |   |   |   |   f296 < 0.17
|   |   |   |   |   |   |   |   |   |   |   |   |   |   |   |   f770 < 0.4 : question (8/0)
|   |   |   |   |   |   |   |   |   |   |   |   |   |   |   |   f770 >= 0.4 : not_question (2/0)
|   |   |   |   |   |   |   |   |   |   |   |   |   |   |   f296 >= 0.17 : not_question (4/0)
|   |   |   |   |   |   |   |   |   |   |   |   f154 >= -1.02
|   |   |   |   |   |   |   |   |   |   |   |   |   f305 < 0.11
|   |   |   |   |   |   |   |   |   |   |   |   |   |   f730 < 0.11 : question (4/0)
|   |   |   |   |   |   |   |   |   |   |   |   |   |   f730 >= 0.11
|   |   |   |   |   |   |   |   |   |   |   |   |   |   |   f32 < -0.01
|   |   |   |   |   |   |   |   |   |   |   |   |   |   |   |   f385 < -0.11 : not_question (6/0)
|   |   |   |   |   |   |   |   |   |   |   |   |   |   |   |   f385 >= -0.11
|   |   |   |   |   |   |   |   |   |   |   |   |   |   |   |   |   f442 < 0.53
|   |   |   |   |   |   |   |   |   |   |   |   |   |   |   |   |   |   f9 < 0.82 : question (9/0)
|   |   |   |   |   |   |   |   |   |   |   |   |   |   |   |   |   |   f9 >= 0.82
|   |   |   |   |   |   |   |   |   |   |   |   |   |   |   |   |   |   |   f67 < 0.34 : not_question (2/0)
|   |   |   |   |   |   |   |   |   |   |   |   |   |   |   |   |   |   |   f67 >= 0.34 : question (2/0)
|   |   |   |   |   |   |   |   |   |   |   |   |   |   |   |   |   f442 >= 0.53
|   |   |   |   |   |   |   |   |   |   |   |   |   |   |   |   |   |   f390 < 0.73
|   |   |   |   |   |   |   |   |   |   |   |   |   |   |   |   |   |   |   f525 < 0.95
|   |   |   |   |   |   |   |   |   |   |   |   |   |   |   |   |   |   |   |   f331 < -1.3 : question (1/0)
|   |   |   |   |   |   |   |   |   |   |   |   |   |   |   |   |   |   |   |   f331 >= -1.3 : not_question (15/0)
|   |   |   |   |   |   |   |   |   |   |   |   |   |   |   |   |   |   |   f525 >= 0.95 : question (2/0)
|   |   |   |   |   |   |   |   |   |   |   |   |   |   |   |   |   |   f390 >= 0.73
|   |   |   |   |   |   |   |   |   |   |   |   |   |   |   |   |   |   |   f47 < -1.77 : not_question (1/0)
|   |   |   |   |   |   |   |   |   |   |   |   |   |   |   |   |   |   |   f47 >= -1.77 : question (5/0)
|   |   |   |   |   |   |   |   |   |   |   |   |   |   |   f32 >= -0.01
|   |   |   |   |   |   |   |   |   |   |   |   |   |   |   |   f28 < -0.88 : question (1/0)
|   |   |   |   |   |   |   |   |   |   |   |   |   |   |   |   f28 >= -0.88 : not_question (20/0)
|   |   |   |   |   |   |   |   |   |   |   |   |   f305 >= 0.11
|   |   |   |   |   |   |   |   |   |   |   |   |   |   f49 < -1.75 : not_question (9/0)
|   |   |   |   |   |   |   |   |   |   |   |   |   |   f49 >= -1.75
|   |   |   |   |   |   |   |   |   |   |   |   |   |   |   f895 < 0.24
|   |   |   |   |   |   |   |   |   |   |   |   |   |   |   |   f802 < 1.69
|   |   |   |   |   |   |   |   |   |   |   |   |   |   |   |   |   f232 < 0.57 : question (24/0)
|   |   |   |   |   |   |   |   |   |   |   |   |   |   |   |   |   f232 >= 0.57
|   |   |   |   |   |   |   |   |   |   |   |   |   |   |   |   |   |   f44 < -0.31 : question (1/0)
|   |   |   |   |   |   |   |   |   |   |   |   |   |   |   |   |   |   f44 >= -0.31 : not_question (1/0)
|   |   |   |   |   |   |   |   |   |   |   |   |   |   |   |   f802 >= 1.69 : not_question (2/0)
|   |   |   |   |   |   |   |   |   |   |   |   |   |   |   f895 >= 0.24
|   |   |   |   |   |   |   |   |   |   |   |   |   |   |   |   f479 < -0.58 : question (4/0)
|   |   |   |   |   |   |   |   |   |   |   |   |   |   |   |   f479 >= -0.58
|   |   |   |   |   |   |   |   |   |   |   |   |   |   |   |   |   f563 < -0.29
|   |   |   |   |   |   |   |   |   |   |   |   |   |   |   |   |   |   f48 < 0.13
|   |   |   |   |   |   |   |   |   |   |   |   |   |   |   |   |   |   |   f212 < 0.97 : not_question (18/0)
|   |   |   |   |   |   |   |   |   |   |   |   |   |   |   |   |   |   |   f212 >= 0.97 : question (1/0)
|   |   |   |   |   |   |   |   |   |   |   |   |   |   |   |   |   |   f48 >= 0.13
|   |   |   |   |   |   |   |   |   |   |   |   |   |   |   |   |   |   |   f78 < -0.76 : not_question (1/0)
|   |   |   |   |   |   |   |   |   |   |   |   |   |   |   |   |   |   |   f78 >= -0.76 : question (3/0)
|   |   |   |   |   |   |   |   |   |   |   |   |   |   |   |   |   f563 >= -0.29
|   |   |   |   |   |   |   |   |   |   |   |   |   |   |   |   |   |   f548 < 1.4 : question (14/0)
|   |   |   |   |   |   |   |   |   |   |   |   |   |   |   |   |   |   f548 >= 1.4 : not_question (1/0)
|   |   |   |   |   |   |   |   |   |   f377 >= 1.28
|   |   |   |   |   |   |   |   |   |   |   f253 < 0.77
|   |   |   |   |   |   |   |   |   |   |   |   f68 < -0.22 : question (1/0)
|   |   |   |   |   |   |   |   |   |   |   |   f68 >= -0.22 : not_question (1/0)
|   |   |   |   |   |   |   |   |   |   |   f253 >= 0.77 : question (16/0)
|   |   |   |   f881 >= -0.82
|   |   |   |   |   f795 < 0.43
|   |   |   |   |   |   f715 < 0.19
|   |   |   |   |   |   |   f1001 < 0.41
|   |   |   |   |   |   |   |   f814 < -0.92 : question (4/0)
|   |   |   |   |   |   |   |   f814 >= -0.92
|   |   |   |   |   |   |   |   |   f760 < 1.41
|   |   |   |   |   |   |   |   |   |   f845 < 0.22
|   |   |   |   |   |   |   |   |   |   |   f62 < 0.7
|   |   |   |   |   |   |   |   |   |   |   |   f956 < -0.62
|   |   |   |   |   |   |   |   |   |   |   |   |   f504 < 0.02
|   |   |   |   |   |   |   |   |   |   |   |   |   |   f55 < 0.16 : question (2/0)
|   |   |   |   |   |   |   |   |   |   |   |   |   |   f55 >= 0.16 : not_question (2/0)
|   |   |   |   |   |   |   |   |   |   |   |   |   f504 >= 0.02 : not_question (6/0)
|   |   |   |   |   |   |   |   |   |   |   |   f956 >= -0.62 : not_question (48/0)
|   |   |   |   |   |   |   |   |   |   |   f62 >= 0.7
|   |   |   |   |   |   |   |   |   |   |   |   f59 < 1.21
|   |   |   |   |   |   |   |   |   |   |   |   |   f1003 < 0.42 : not_question (15/0)
|   |   |   |   |   |   |   |   |   |   |   |   |   f1003 >= 0.42
|   |   |   |   |   |   |   |   |   |   |   |   |   |   f155 < 0.05
|   |   |   |   |   |   |   |   |   |   |   |   |   |   |   f28 < -0.08 : question (1/0)
|   |   |   |   |   |   |   |   |   |   |   |   |   |   |   f28 >= -0.08 : not_question (2/0)
|   |   |   |   |   |   |   |   |   |   |   |   |   |   f155 >= 0.05 : question (2/0)
|   |   |   |   |   |   |   |   |   |   |   |   f59 >= 1.21 : question (2/0)
|   |   |   |   |   |   |   |   |   |   f845 >= 0.22
|   |   |   |   |   |   |   |   |   |   |   f554 < -0.01
|   |   |   |   |   |   |   |   |   |   |   |   f297 < -0.39
|   |   |   |   |   |   |   |   |   |   |   |   |   f719 < 0.83
|   |   |   |   |   |   |   |   |   |   |   |   |   |   f499 < 0.2 : not_question (3/0)
|   |   |   |   |   |   |   |   |   |   |   |   |   |   f499 >= 0.2 : question (2/0)
|   |   |   |   |   |   |   |   |   |   |   |   |   f719 >= 0.83 : question (10/0)
|   |   |   |   |   |   |   |   |   |   |   |   f297 >= -0.39
|   |   |   |   |   |   |   |   |   |   |   |   |   f246 < 0.05
|   |   |   |   |   |   |   |   |   |   |   |   |   |   f801 < 1.06
|   |   |   |   |   |   |   |   |   |   |   |   |   |   |   f107 < -2.64 : question (8/0)
|   |   |   |   |   |   |   |   |   |   |   |   |   |   |   f107 >= -2.64
|   |   |   |   |   |   |   |   |   |   |   |   |   |   |   |   f286 < 0.03
|   |   |   |   |   |   |   |   |   |   |   |   |   |   |   |   |   f518 < -0.61
|   |   |   |   |   |   |   |   |   |   |   |   |   |   |   |   |   |   f239 < -0.15 : not_question (2/0)
|   |   |   |   |   |   |   |   |   |   |   |   |   |   |   |   |   |   f239 >= -0.15 : question (2/0)
|   |   |   |   |   |   |   |   |   |   |   |   |   |   |   |   |   f518 >= -0.61 : not_question (10/0)
|   |   |   |   |   |   |   |   |   |   |   |   |   |   |   |   f286 >= 0.03
|   |   |   |   |   |   |   |   |   |   |   |   |   |   |   |   |   f463 < -0.66
|   |   |   |   |   |   |   |   |   |   |   |   |   |   |   |   |   |   f164 < 0.4 : question (9/0)
|   |   |   |   |   |   |   |   |   |   |   |   |   |   |   |   |   |   f164 >= 0.4 : not_question (1/0)
|   |   |   |   |   |   |   |   |   |   |   |   |   |   |   |   |   f463 >= -0.66
|   |   |   |   |   |   |   |   |   |   |   |   |   |   |   |   |   |   f394 < -0.84 : not_question (5/0)
|   |   |   |   |   |   |   |   |   |   |   |   |   |   |   |   |   |   f394 >= -0.84
|   |   |   |   |   |   |   |   |   |   |   |   |   |   |   |   |   |   |   f1003 < 0.43
|   |   |   |   |   |   |   |   |   |   |   |   |   |   |   |   |   |   |   |   f450 < 2.47 : question (7/0)
|   |   |   |   |   |   |   |   |   |   |   |   |   |   |   |   |   |   |   |   f450 >= 2.47 : not_question (1/0)
|   |   |   |   |   |   |   |   |   |   |   |   |   |   |   |   |   |   |   f1003 >= 0.43 : not_question (3/0)
|   |   |   |   |   |   |   |   |   |   |   |   |   |   f801 >= 1.06 : not_question (8/0)
|   |   |   |   |   |   |   |   |   |   |   |   |   f246 >= 0.05
|   |   |   |   |   |   |   |   |   |   |   |   |   |   f565 < 0.6 : not_question (13/0)
|   |   |   |   |   |   |   |   |   |   |   |   |   |   f565 >= 0.6
|   |   |   |   |   |   |   |   |   |   |   |   |   |   |   f332 < 0.78
|   |   |   |   |   |   |   |   |   |   |   |   |   |   |   |   f106 < -0.14 : not_question (7/0)
|   |   |   |   |   |   |   |   |   |   |   |   |   |   |   |   f106 >= -0.14
|   |   |   |   |   |   |   |   |   |   |   |   |   |   |   |   |   f5 < -0.07 : question (1/0)
|   |   |   |   |   |   |   |   |   |   |   |   |   |   |   |   |   f5 >= -0.07 : not_question (1/0)
|   |   |   |   |   |   |   |   |   |   |   |   |   |   |   f332 >= 0.78 : question (2/0)
|   |   |   |   |   |   |   |   |   |   |   f554 >= -0.01
|   |   |   |   |   |   |   |   |   |   |   |   f1021 < 0.39
|   |   |   |   |   |   |   |   |   |   |   |   |   f454 < 0.22
|   |   |   |   |   |   |   |   |   |   |   |   |   |   f311 < -1.61 : question (5/0)
|   |   |   |   |   |   |   |   |   |   |   |   |   |   f311 >= -1.61
|   |   |   |   |   |   |   |   |   |   |   |   |   |   |   f825 < 1.26
|   |   |   |   |   |   |   |   |   |   |   |   |   |   |   |   f904 < -0.56
|   |   |   |   |   |   |   |   |   |   |   |   |   |   |   |   |   f376 < -1 : question (3/0)
|   |   |   |   |   |   |   |   |   |   |   |   |   |   |   |   |   f376 >= -1
|   |   |   |   |   |   |   |   |   |   |   |   |   |   |   |   |   |   f315 < -0.45
|   |   |   |   |   |   |   |   |   |   |   |   |   |   |   |   |   |   |   f20 < -0.31 : not_question (1/0)
|   |   |   |   |   |   |   |   |   |   |   |   |   |   |   |   |   |   |   f20 >= -0.31 : question (3/0)
|   |   |   |   |   |   |   |   |   |   |   |   |   |   |   |   |   |   f315 >= -0.45
|   |   |   |   |   |   |   |   |   |   |   |   |   |   |   |   |   |   |   f81 < 0.82 : not_question (12/0)
|   |   |   |   |   |   |   |   |   |   |   |   |   |   |   |   |   |   |   f81 >= 0.82 : question (1/0)
|   |   |   |   |   |   |   |   |   |   |   |   |   |   |   |   f904 >= -0.56
|   |   |   |   |   |   |   |   |   |   |   |   |   |   |   |   |   f994 < -1.09 : question (1/0)
|   |   |   |   |   |   |   |   |   |   |   |   |   |   |   |   |   f994 >= -1.09 : not_question (27/0)
|   |   |   |   |   |   |   |   |   |   |   |   |   |   |   f825 >= 1.26
|   |   |   |   |   |   |   |   |   |   |   |   |   |   |   |   f861 < 0.78
|   |   |   |   |   |   |   |   |   |   |   |   |   |   |   |   |   f591 < 1.42
|   |   |   |   |   |   |   |   |   |   |   |   |   |   |   |   |   |   f400 < 0.15
|   |   |   |   |   |   |   |   |   |   |   |   |   |   |   |   |   |   |   f379 < -0.25 : question (3/0)
|   |   |   |   |   |   |   |   |   |   |   |   |   |   |   |   |   |   |   f379 >= -0.25
|   |   |   |   |   |   |   |   |   |   |   |   |   |   |   |   |   |   |   |   f542 < 0.43 : not_question (3/0)
|   |   |   |   |   |   |   |   |   |   |   |   |   |   |   |   |   |   |   |   f542 >= 0.43 : question (1/0)
|   |   |   |   |   |   |   |   |   |   |   |   |   |   |   |   |   |   f400 >= 0.15
|   |   |   |   |   |   |   |   |   |   |   |   |   |   |   |   |   |   |   f41 < -1.18
|   |   |   |   |   |   |   |   |   |   |   |   |   |   |   |   |   |   |   |   f138 < -1.04
|   |   |   |   |   |   |   |   |   |   |   |   |   |   |   |   |   |   |   |   |   f390 < 0.6 : question (4/0)
|   |   |   |   |   |   |   |   |   |   |   |   |   |   |   |   |   |   |   |   |   f390 >= 0.6 : not_question (1/0)
|   |   |   |   |   |   |   |   |   |   |   |   |   |   |   |   |   |   |   |   f138 >= -1.04 : not_question (3/0)
|   |   |   |   |   |   |   |   |   |   |   |   |   |   |   |   |   |   |   f41 >= -1.18 : not_question (18/0)
|   |   |   |   |   |   |   |   |   |   |   |   |   |   |   |   |   f591 >= 1.42 : question (4/0)
|   |   |   |   |   |   |   |   |   |   |   |   |   |   |   |   f861 >= 0.78
|   |   |   |   |   |   |   |   |   |   |   |   |   |   |   |   |   f758 < -1.73 : not_question (3/0)
|   |   |   |   |   |   |   |   |   |   |   |   |   |   |   |   |   f758 >= -1.73
|   |   |   |   |   |   |   |   |   |   |   |   |   |   |   |   |   |   f162 < -1.2
|   |   |   |   |   |   |   |   |   |   |   |   |   |   |   |   |   |   |   f384 < -0.52 : not_question (3/0)
|   |   |   |   |   |   |   |   |   |   |   |   |   |   |   |   |   |   |   f384 >= -0.52
|   |   |   |   |   |   |   |   |   |   |   |   |   |   |   |   |   |   |   |   f58 < 0.47 : question (6/0)
|   |   |   |   |   |   |   |   |   |   |   |   |   |   |   |   |   |   |   |   f58 >= 0.47
|   |   |   |   |   |   |   |   |   |   |   |   |   |   |   |   |   |   |   |   |   f210 < 0.87 : question (1/0)
|   |   |   |   |   |   |   |   |   |   |   |   |   |   |   |   |   |   |   |   |   f210 >= 0.87 : not_question (2/0)
|   |   |   |   |   |   |   |   |   |   |   |   |   |   |   |   |   |   f162 >= -1.2 : question (9/0)
|   |   |   |   |   |   |   |   |   |   |   |   |   f454 >= 0.22
|   |   |   |   |   |   |   |   |   |   |   |   |   |   f513 < -1.72 : question (1/0)
|   |   |   |   |   |   |   |   |   |   |   |   |   |   f513 >= -1.72
|   |   |   |   |   |   |   |   |   |   |   |   |   |   |   f388 < 0.5 : not_question (30/0)
|   |   |   |   |   |   |   |   |   |   |   |   |   |   |   f388 >= 0.5
|   |   |   |   |   |   |   |   |   |   |   |   |   |   |   |   f25 < -1.03 : not_question (1/0)
|   |   |   |   |   |   |   |   |   |   |   |   |   |   |   |   f25 >= -1.03 : question (1/0)
|   |   |   |   |   |   |   |   |   |   |   |   f1021 >= 0.39
|   |   |   |   |   |   |   |   |   |   |   |   |   f254 < 0.97
|   |   |   |   |   |   |   |   |   |   |   |   |   |   f225 < 0.25
|   |   |   |   |   |   |   |   |   |   |   |   |   |   |   f459 < 0.73 : not_question (53/0)
|   |   |   |   |   |   |   |   |   |   |   |   |   |   |   f459 >= 0.73 : question (1/0)
|   |   |   |   |   |   |   |   |   |   |   |   |   |   f225 >= 0.25
|   |   |   |   |   |   |   |   |   |   |   |   |   |   |   f651 < 0.71
|   |   |   |   |   |   |   |   |   |   |   |   |   |   |   |   f263 < -1.1
|   |   |   |   |   |   |   |   |   |   |   |   |   |   |   |   |   f336 < 1.25
|   |   |   |   |   |   |   |   |   |   |   |   |   |   |   |   |   |   f779 < -0.75 : not_question (11/0)
|   |   |   |   |   |   |   |   |   |   |   |   |   |   |   |   |   |   f779 >= -0.75
|   |   |   |   |   |   |   |   |   |   |   |   |   |   |   |   |   |   |   f516 < -0.47
|   |   |   |   |   |   |   |   |   |   |   |   |   |   |   |   |   |   |   |   f27 < -0.71 : not_question (1/0)
|   |   |   |   |   |   |   |   |   |   |   |   |   |   |   |   |   |   |   |   f27 >= -0.71 : question (5/0)
|   |   |   |   |   |   |   |   |   |   |   |   |   |   |   |   |   |   |   f516 >= -0.47 : not_question (3/0)
|   |   |   |   |   |   |   |   |   |   |   |   |   |   |   |   |   f336 >= 1.25
|   |   |   |   |   |   |   |   |   |   |   |   |   |   |   |   |   |   f916 < -0.38 : not_question (2/0)
|   |   |   |   |   |   |   |   |   |   |   |   |   |   |   |   |   |   f916 >= -0.38 : question (6/0)
|   |   |   |   |   |   |   |   |   |   |   |   |   |   |   |   f263 >= -1.1
|   |   |   |   |   |   |   |   |   |   |   |   |   |   |   |   |   f359 < 1.23 : not_question (22/0)
|   |   |   |   |   |   |   |   |   |   |   |   |   |   |   |   |   f359 >= 1.23 : question (1/0)
|   |   |   |   |   |   |   |   |   |   |   |   |   |   |   f651 >= 0.71
|   |   |   |   |   |   |   |   |   |   |   |   |   |   |   |   f285 < -0.9
|   |   |   |   |   |   |   |   |   |   |   |   |   |   |   |   |   f736 < -0.56
|   |   |   |   |   |   |   |   |   |   |   |   |   |   |   |   |   |   f116 < 0.5 : not_question (1/0)
|   |   |   |   |   |   |   |   |   |   |   |   |   |   |   |   |   |   f116 >= 0.5 : question (2/0)
|   |   |   |   |   |   |   |   |   |   |   |   |   |   |   |   |   f736 >= -0.56 : not_question (7/0)
|   |   |   |   |   |   |   |   |   |   |   |   |   |   |   |   f285 >= -0.9 : not_question (26/0)
|   |   |   |   |   |   |   |   |   |   |   |   |   f254 >= 0.97
|   |   |   |   |   |   |   |   |   |   |   |   |   |   f813 < -0.47 : question (4/0)
|   |   |   |   |   |   |   |   |   |   |   |   |   |   f813 >= -0.47
|   |   |   |   |   |   |   |   |   |   |   |   |   |   |   f198 < -0.93
|   |   |   |   |   |   |   |   |   |   |   |   |   |   |   |   f229 < -0.24 : question (3/0)
|   |   |   |   |   |   |   |   |   |   |   |   |   |   |   |   f229 >= -0.24
|   |   |   |   |   |   |   |   |   |   |   |   |   |   |   |   |   f365 < 0.11 : question (1/0)
|   |   |   |   |   |   |   |   |   |   |   |   |   |   |   |   |   f365 >= 0.11 : not_question (3/0)
|   |   |   |   |   |   |   |   |   |   |   |   |   |   |   f198 >= -0.93 : not_question (7/0)
|   |   |   |   |   |   |   |   |   f760 >= 1.41 : question (6/0)
|   |   |   |   |   |   |   f1001 >= 0.41 : not_question (22/0)
|   |   |   |   |   |   f715 >= 0.19
|   |   |   |   |   |   |   f640 < -0.36
|   |   |   |   |   |   |   |   f946 < -0.93
|   |   |   |   |   |   |   |   |   f227 < -1.29
|   |   |   |   |   |   |   |   |   |   f975 < -0.74
|   |   |   |   |   |   |   |   |   |   |   f312 < 0.31
|   |   |   |   |   |   |   |   |   |   |   |   f885 < -0.46
|   |   |   |   |   |   |   |   |   |   |   |   |   f913 < -0.87 : question (1/0)
|   |   |   |   |   |   |   |   |   |   |   |   |   f913 >= -0.87 : not_question (9/0)
|   |   |   |   |   |   |   |   |   |   |   |   f885 >= -0.46
|   |   |   |   |   |   |   |   |   |   |   |   |   f508 < -2.54 : not_question (3/0)
|   |   |   |   |   |   |   |   |   |   |   |   |   f508 >= -2.54
|   |   |   |   |   |   |   |   |   |   |   |   |   |   f614 < -1.15
|   |   |   |   |   |   |   |   |   |   |   |   |   |   |   f203 < 0.35 : not_question (5/0)
|   |   |   |   |   |   |   |   |   |   |   |   |   |   |   f203 >= 0.35 : question (2/0)
|   |   |   |   |   |   |   |   |   |   |   |   |   |   f614 >= -1.15
|   |   |   |   |   |   |   |   |   |   |   |   |   |   |   f160 < -0.51 : question (11/0)
|   |   |   |   |   |   |   |   |   |   |   |   |   |   |   f160 >= -0.51 : not_question (1/0)
|   |   |   |   |   |   |   |   |   |   |   f312 >= 0.31 : not_question (16/0)
|   |   |   |   |   |   |   |   |   |   f975 >= -0.74
|   |   |   |   |   |   |   |   |   |   |   f660 < 0.27 : not_question (35/0)
|   |   |   |   |   |   |   |   |   |   |   f660 >= 0.27
|   |   |   |   |   |   |   |   |   |   |   |   f338 < -0.68
|   |   |   |   |   |   |   |   |   |   |   |   |   f25 < -0.65 : not_question (1/0)
|   |   |   |   |   |   |   |   |   |   |   |   |   f25 >= -0.65 : question (3/0)
|   |   |   |   |   |   |   |   |   |   |   |   f338 >= -0.68 : not_question (2/0)
|   |   |   |   |   |   |   |   |   f227 >= -1.29
|   |   |   |   |   |   |   |   |   |   f957 < 2.8
|   |   |   |   |   |   |   |   |   |   |   f607 < 1.87
|   |   |   |   |   |   |   |   |   |   |   |   f304 < 0.86
|   |   |   |   |   |   |   |   |   |   |   |   |   f773 < -0.09
|   |   |   |   |   |   |   |   |   |   |   |   |   |   f298 < 1.1
|   |   |   |   |   |   |   |   |   |   |   |   |   |   |   f66 < -1.48 : not_question (5/0)
|   |   |   |   |   |   |   |   |   |   |   |   |   |   |   f66 >= -1.48
|   |   |   |   |   |   |   |   |   |   |   |   |   |   |   |   f1014 < -0.88 : question (6/0)
|   |   |   |   |   |   |   |   |   |   |   |   |   |   |   |   f1014 >= -0.88
|   |   |   |   |   |   |   |   |   |   |   |   |   |   |   |   |   f935 < -0.08
|   |   |   |   |   |   |   |   |   |   |   |   |   |   |   |   |   |   f496 < 0.39
|   |   |   |   |   |   |   |   |   |   |   |   |   |   |   |   |   |   |   f20 < 0.93
|   |   |   |   |   |   |   |   |   |   |   |   |   |   |   |   |   |   |   |   f574 < 1.57
|   |   |   |   |   |   |   |   |   |   |   |   |   |   |   |   |   |   |   |   |   f504 < -1.63 : question (1/0)
|   |   |   |   |   |   |   |   |   |   |   |   |   |   |   |   |   |   |   |   |   f504 >= -1.63
|   |   |   |   |   |   |   |   |   |   |   |   |   |   |   |   |   |   |   |   |   |   f1003 < -0.84 : question (1/0)
|   |   |   |   |   |   |   |   |   |   |   |   |   |   |   |   |   |   |   |   |   |   f1003 >= -0.84 : not_question (16/0)
|   |   |   |   |   |   |   |   |   |   |   |   |   |   |   |   |   |   |   |   f574 >= 1.57 : question (5/0)
|   |   |   |   |   |   |   |   |   |   |   |   |   |   |   |   |   |   |   f20 >= 0.93 : question (4/0)
|   |   |   |   |   |   |   |   |   |   |   |   |   |   |   |   |   |   f496 >= 0.39 : not_question (12/0)
|   |   |   |   |   |   |   |   |   |   |   |   |   |   |   |   |   f935 >= -0.08 : question (4/0)
|   |   |   |   |   |   |   |   |   |   |   |   |   |   f298 >= 1.1
|   |   |   |   |   |   |   |   |   |   |   |   |   |   |   f281 < 0.78 : question (7/0)
|   |   |   |   |   |   |   |   |   |   |   |   |   |   |   f281 >= 0.78 : not_question (1/0)
|   |   |   |   |   |   |   |   |   |   |   |   |   f773 >= -0.09
|   |   |   |   |   |   |   |   |   |   |   |   |   |   f735 < 0.57
|   |   |   |   |   |   |   |   |   |   |   |   |   |   |   f630 < 0.92
|   |   |   |   |   |   |   |   |   |   |   |   |   |   |   |   f471 < -0.81
|   |   |   |   |   |   |   |   |   |   |   |   |   |   |   |   |   f694 < 0.92 : not_question (30/0)
|   |   |   |   |   |   |   |   |   |   |   |   |   |   |   |   |   f694 >= 0.92
|   |   |   |   |   |   |   |   |   |   |   |   |   |   |   |   |   |   f52 < 0.65 : not_question (1/0)
|   |   |   |   |   |   |   |   |   |   |   |   |   |   |   |   |   |   f52 >= 0.65 : question (2/0)
|   |   |   |   |   |   |   |   |   |   |   |   |   |   |   |   f471 >= -0.81
|   |   |   |   |   |   |   |   |   |   |   |   |   |   |   |   |   f240 < -1.48 : question (4/0)
|   |   |   |   |   |   |   |   |   |   |   |   |   |   |   |   |   f240 >= -1.48
|   |   |   |   |   |   |   |   |   |   |   |   |   |   |   |   |   |   f668 < 0.43
|   |   |   |   |   |   |   |   |   |   |   |   |   |   |   |   |   |   |   f195 < 0.6
|   |   |   |   |   |   |   |   |   |   |   |   |   |   |   |   |   |   |   |   f729 < 0.55
|   |   |   |   |   |   |   |   |   |   |   |   |   |   |   |   |   |   |   |   |   f801 < 0.07 : not_question (8/0)
|   |   |   |   |   |   |   |   |   |   |   |   |   |   |   |   |   |   |   |   |   f801 >= 0.07
|   |   |   |   |   |   |   |   |   |   |   |   |   |   |   |   |   |   |   |   |   |   f820 < -0.17
|   |   |   |   |   |   |   |   |   |   |   |   |   |   |   |   |   |   |   |   |   |   |   f297 < 1.59 : not_question (14/0)
|   |   |   |   |   |   |   |   |   |   |   |   |   |   |   |   |   |   |   |   |   |   |   f297 >= 1.59 : question (1/0)
|   |   |   |   |   |   |   |   |   |   |   |   |   |   |   |   |   |   |   |   |   |   f820 >= -0.17
|   |   |   |   |   |   |   |   |   |   |   |   |   |   |   |   |   |   |   |   |   |   |   f563 < -0.22
|   |   |   |   |   |   |   |   |   |   |   |   |   |   |   |   |   |   |   |   |   |   |   |   f165 < 0.96
|   |   |   |   |   |   |   |   |   |   |   |   |   |   |   |   |   |   |   |   |   |   |   |   |   f991 < -0.68 : question (10/0)
|   |   |   |   |   |   |   |   |   |   |   |   |   |   |   |   |   |   |   |   |   |   |   |   |   f991 >= -0.68
|   |   |   |   |   |   |   |   |   |   |   |   |   |   |   |   |   |   |   |   |   |   |   |   |   |   f55 < -0.82
|   |   |   |   |   |   |   |   |   |   |   |   |   |   |   |   |   |   |   |   |   |   |   |   |   |   |   f366 < 0.06
|   |   |   |   |   |   |   |   |   |   |   |   |   |   |   |   |   |   |   |   |   |   |   |   |   |   |   |   f113 < -0.67 : not_question (1/0)
|   |   |   |   |   |   |   |   |   |   |   |   |   |   |   |   |   |   |   |   |   |   |   |   |   |   |   |   f113 >= -0.67 : question (2/0)
|   |   |   |   |   |   |   |   |   |   |   |   |   |   |   |   |   |   |   |   |   |   |   |   |   |   |   f366 >= 0.06 : not_question (4/0)
|   |   |   |   |   |   |   |   |   |   |   |   |   |   |   |   |   |   |   |   |   |   |   |   |   |   f55 >= -0.82 : question (5/0)
|   |   |   |   |   |   |   |   |   |   |   |   |   |   |   |   |   |   |   |   |   |   |   |   f165 >= 0.96
|   |   |   |   |   |   |   |   |   |   |   |   |   |   |   |   |   |   |   |   |   |   |   |   |   f664 < 0.03
|   |   |   |   |   |   |   |   |   |   |   |   |   |   |   |   |   |   |   |   |   |   |   |   |   |   f207 < -0.73 : question (1/0)
|   |   |   |   |   |   |   |   |   |   |   |   |   |   |   |   |   |   |   |   |   |   |   |   |   |   f207 >= -0.73 : not_question (7/0)
|   |   |   |   |   |   |   |   |   |   |   |   |   |   |   |   |   |   |   |   |   |   |   |   |   f664 >= 0.03 : question (2/0)
|   |   |   |   |   |   |   |   |   |   |   |   |   |   |   |   |   |   |   |   |   |   |   f563 >= -0.22 : not_question (6/0)
|   |   |   |   |   |   |   |   |   |   |   |   |   |   |   |   |   |   |   |   f729 >= 0.55
|   |   |   |   |   |   |   |   |   |   |   |   |   |   |   |   |   |   |   |   |   f357 < 0.62 : question (6/0)
|   |   |   |   |   |   |   |   |   |   |   |   |   |   |   |   |   |   |   |   |   f357 >= 0.62 : not_question (1/0)
|   |   |   |   |   |   |   |   |   |   |   |   |   |   |   |   |   |   |   f195 >= 0.6 : not_question (12/0)
|   |   |   |   |   |   |   |   |   |   |   |   |   |   |   |   |   |   f668 >= 0.43
|   |   |   |   |   |   |   |   |   |   |   |   |   |   |   |   |   |   |   f594 < -0.45 : not_question (19/0)
|   |   |   |   |   |   |   |   |   |   |   |   |   |   |   |   |   |   |   f594 >= -0.45
|   |   |   |   |   |   |   |   |   |   |   |   |   |   |   |   |   |   |   |   f853 < -0.28 : not_question (19/0)
|   |   |   |   |   |   |   |   |   |   |   |   |   |   |   |   |   |   |   |   f853 >= -0.28
|   |   |   |   |   |   |   |   |   |   |   |   |   |   |   |   |   |   |   |   |   f543 < 0.33 : not_question (4/0)
|   |   |   |   |   |   |   |   |   |   |   |   |   |   |   |   |   |   |   |   |   f543 >= 0.33
|   |   |   |   |   |   |   |   |   |   |   |   |   |   |   |   |   |   |   |   |   |   f406 < 0.14 : question (5/0)
|   |   |   |   |   |   |   |   |   |   |   |   |   |   |   |   |   |   |   |   |   |   f406 >= 0.14
|   |   |   |   |   |   |   |   |   |   |   |   |   |   |   |   |   |   |   |   |   |   |   f62 < 0.29 : not_question (3/0)
|   |   |   |   |   |   |   |   |   |   |   |   |   |   |   |   |   |   |   |   |   |   |   f62 >= 0.29 : question (1/0)
|   |   |   |   |   |   |   |   |   |   |   |   |   |   |   f630 >= 0.92
|   |   |   |   |   |   |   |   |   |   |   |   |   |   |   |   f162 < -0.42
|   |   |   |   |   |   |   |   |   |   |   |   |   |   |   |   |   f819 < 0.84
|   |   |   |   |   |   |   |   |   |   |   |   |   |   |   |   |   |   f467 < -0.2 : question (3/0)
|   |   |   |   |   |   |   |   |   |   |   |   |   |   |   |   |   |   f467 >= -0.2
|   |   |   |   |   |   |   |   |   |   |   |   |   |   |   |   |   |   |   f158 < -0.61 : question (1/0)
|   |   |   |   |   |   |   |   |   |   |   |   |   |   |   |   |   |   |   f158 >= -0.61 : not_question (6/0)
|   |   |   |   |   |   |   |   |   |   |   |   |   |   |   |   |   f819 >= 0.84 : question (8/0)
|   |   |   |   |   |   |   |   |   |   |   |   |   |   |   |   f162 >= -0.42 : not_question (5/0)
|   |   |   |   |   |   |   |   |   |   |   |   |   |   f735 >= 0.57
|   |   |   |   |   |   |   |   |   |   |   |   |   |   |   f74 < -0.9
|   |   |   |   |   |   |   |   |   |   |   |   |   |   |   |   f136 < -0.67 : not_question (2/0)
|   |   |   |   |   |   |   |   |   |   |   |   |   |   |   |   f136 >= -0.67 : question (2/0)
|   |   |   |   |   |   |   |   |   |   |   |   |   |   |   f74 >= -0.9
|   |   |   |   |   |   |   |   |   |   |   |   |   |   |   |   f703 < 1.99 : not_question (39/0)
|   |   |   |   |   |   |   |   |   |   |   |   |   |   |   |   f703 >= 1.99 : question (1/0)
|   |   |   |   |   |   |   |   |   |   |   |   f304 >= 0.86
|   |   |   |   |   |   |   |   |   |   |   |   |   f19 < 0.43
|   |   |   |   |   |   |   |   |   |   |   |   |   |   f513 < -1.36
|   |   |   |   |   |   |   |   |   |   |   |   |   |   |   f15 < -1.69 : question (1/0)
|   |   |   |   |   |   |   |   |   |   |   |   |   |   |   f15 >= -1.69
|   |   |   |   |   |   |   |   |   |   |   |   |   |   |   |   f277 < -0.15 : question (1/0)
|   |   |   |   |   |   |   |   |   |   |   |   |   |   |   |   f277 >= -0.15 : not_question (9/0)
|   |   |   |   |   |   |   |   |   |   |   |   |   |   f513 >= -1.36
|   |   |   |   |   |   |   |   |   |   |   |   |   |   |   f408 < -1.85 : not_question (3/0)
|   |   |   |   |   |   |   |   |   |   |   |   |   |   |   f408 >= -1.85
|   |   |   |   |   |   |   |   |   |   |   |   |   |   |   |   f602 < -0.52
|   |   |   |   |   |   |   |   |   |   |   |   |   |   |   |   |   f161 < 0
|   |   |   |   |   |   |   |   |   |   |   |   |   |   |   |   |   |   f200 < -0.75
|   |   |   |   |   |   |   |   |   |   |   |   |   |   |   |   |   |   |   f120 < 0.37 : question (1/0)
|   |   |   |   |   |   |   |   |   |   |   |   |   |   |   |   |   |   |   f120 >= 0.37 : not_question (2/0)
|   |   |   |   |   |   |   |   |   |   |   |   |   |   |   |   |   |   f200 >= -0.75 : question (2/0)
|   |   |   |   |   |   |   |   |   |   |   |   |   |   |   |   |   f161 >= 0 : question (15/0)
|   |   |   |   |   |   |   |   |   |   |   |   |   |   |   |   f602 >= -0.52
|   |   |   |   |   |   |   |   |   |   |   |   |   |   |   |   |   f444 < -0.9
|   |   |   |   |   |   |   |   |   |   |   |   |   |   |   |   |   |   f375 < -1.33 : not_question (1/0)
|   |   |   |   |   |   |   |   |   |   |   |   |   |   |   |   |   |   f375 >= -1.33 : question (11/0)
|   |   |   |   |   |   |   |   |   |   |   |   |   |   |   |   |   f444 >= -0.9
|   |   |   |   |   |   |   |   |   |   |   |   |   |   |   |   |   |   f367 < -1.65
|   |   |   |   |   |   |   |   |   |   |   |   |   |   |   |   |   |   |   f193 < -0.17
|   |   |   |   |   |   |   |   |   |   |   |   |   |   |   |   |   |   |   |   f114 < -0.9
|   |   |   |   |   |   |   |   |   |   |   |   |   |   |   |   |   |   |   |   |   f240 < 0.38 : question (2/0)
|   |   |   |   |   |   |   |   |   |   |   |   |   |   |   |   |   |   |   |   |   f240 >= 0.38 : not_question (1/0)
|   |   |   |   |   |   |   |   |   |   |   |   |   |   |   |   |   |   |   |   f114 >= -0.9 : not_question (2/0)
|   |   |   |   |   |   |   |   |   |   |   |   |   |   |   |   |   |   |   f193 >= -0.17 : not_question (10/0)
|   |   |   |   |   |   |   |   |   |   |   |   |   |   |   |   |   |   f367 >= -1.65
|   |   |   |   |   |   |   |   |   |   |   |   |   |   |   |   |   |   |   f702 < 0.1
|   |   |   |   |   |   |   |   |   |   |   |   |   |   |   |   |   |   |   |   f246 < 0.18 : question (6/0)
|   |   |   |   |   |   |   |   |   |   |   |   |   |   |   |   |   |   |   |   f246 >= 0.18 : not_question (1/0)
|   |   |   |   |   |   |   |   |   |   |   |   |   |   |   |   |   |   |   f702 >= 0.1 : not_question (3/0)
|   |   |   |   |   |   |   |   |   |   |   |   |   f19 >= 0.43
|   |   |   |   |   |   |   |   |   |   |   |   |   |   f621 < 0.07
|   |   |   |   |   |   |   |   |   |   |   |   |   |   |   f347 < 0.45
|   |   |   |   |   |   |   |   |   |   |   |   |   |   |   |   f894 < -1.4 : question (2/0)
|   |   |   |   |   |   |   |   |   |   |   |   |   |   |   |   f894 >= -1.4
|   |   |   |   |   |   |   |   |   |   |   |   |   |   |   |   |   f36 < 0.16 : not_question (8/0)
|   |   |   |   |   |   |   |   |   |   |   |   |   |   |   |   |   f36 >= 0.16 : question (1/0)
|   |   |   |   |   |   |   |   |   |   |   |   |   |   |   f347 >= 0.45 : question (2/0)
|   |   |   |   |   |   |   |   |   |   |   |   |   |   f621 >= 0.07 : not_question (12/0)
|   |   |   |   |   |   |   |   |   |   |   f607 >= 1.87
|   |   |   |   |   |   |   |   |   |   |   |   f909 < 0.92
|   |   |   |   |   |   |   |   |   |   |   |   |   f216 < 0.67 : question (10/0)
|   |   |   |   |   |   |   |   |   |   |   |   |   f216 >= 0.67 : not_question (1/0)
|   |   |   |   |   |   |   |   |   |   |   |   f909 >= 0.92
|   |   |   |   |   |   |   |   |   |   |   |   |   f147 < 0.32
|   |   |   |   |   |   |   |   |   |   |   |   |   |   f915 < 0.14 : not_question (8/0)
|   |   |   |   |   |   |   |   |   |   |   |   |   |   f915 >= 0.14
|   |   |   |   |   |   |   |   |   |   |   |   |   |   |   f43 < 1.27 : not_question (1/0)
|   |   |   |   |   |   |   |   |   |   |   |   |   |   |   f43 >= 1.27 : question (2/0)
|   |   |   |   |   |   |   |   |   |   |   |   |   f147 >= 0.32 : question (7/0)
|   |   |   |   |   |   |   |   |   |   f957 >= 2.8
|   |   |   |   |   |   |   |   |   |   |   f107 < -3.04 : not_question (1/0)
|   |   |   |   |   |   |   |   |   |   |   f107 >= -3.04
|   |   |   |   |   |   |   |   |   |   |   |   f408 < -1.3 : not_question (1/0)
|   |   |   |   |   |   |   |   |   |   |   |   f408 >= -1.3 : question (14/0)
|   |   |   |   |   |   |   |   f946 >= -0.93
|   |   |   |   |   |   |   |   |   f172 < 0.6
|   |   |   |   |   |   |   |   |   |   f288 < -1.51 : not_question (17/0)
|   |   |   |   |   |   |   |   |   |   f288 >= -1.51
|   |   |   |   |   |   |   |   |   |   |   f195 < -0.47
|   |   |   |   |   |   |   |   |   |   |   |   f347 < -1.2 : not_question (11/0)
|   |   |   |   |   |   |   |   |   |   |   |   f347 >= -1.2
|   |   |   |   |   |   |   |   |   |   |   |   |   f76 < 0.51
|   |   |   |   |   |   |   |   |   |   |   |   |   |   f131 < 0.32
|   |   |   |   |   |   |   |   |   |   |   |   |   |   |   f178 < -0.7 : question (3/0)
|   |   |   |   |   |   |   |   |   |   |   |   |   |   |   f178 >= -0.7
|   |   |   |   |   |   |   |   |   |   |   |   |   |   |   |   f501 < 0.2
|   |   |   |   |   |   |   |   |   |   |   |   |   |   |   |   |   f425 < 0.67
|   |   |   |   |   |   |   |   |   |   |   |   |   |   |   |   |   |   f366 < 0.86 : question (4/0)
|   |   |   |   |   |   |   |   |   |   |   |   |   |   |   |   |   |   f366 >= 0.86 : not_question (1/0)
|   |   |   |   |   |   |   |   |   |   |   |   |   |   |   |   |   f425 >= 0.67 : not_question (3/0)
|   |   |   |   |   |   |   |   |   |   |   |   |   |   |   |   f501 >= 0.2 : not_question (11/0)
|   |   |   |   |   |   |   |   |   |   |   |   |   |   f131 >= 0.32 : question (5/0)
|   |   |   |   |   |   |   |   |   |   |   |   |   f76 >= 0.51
|   |   |   |   |   |   |   |   |   |   |   |   |   |   f260 < -1.53 : question (1/0)
|   |   |   |   |   |   |   |   |   |   |   |   |   |   f260 >= -1.53 : not_question (25/0)
|   |   |   |   |   |   |   |   |   |   |   f195 >= -0.47
|   |   |   |   |   |   |   |   |   |   |   |   f651 < 0.32
|   |   |   |   |   |   |   |   |   |   |   |   |   f268 < -0.32 : question (11/0)
|   |   |   |   |   |   |   |   |   |   |   |   |   f268 >= -0.32
|   |   |   |   |   |   |   |   |   |   |   |   |   |   f679 < 0.24 : not_question (4/0)
|   |   |   |   |   |   |   |   |   |   |   |   |   |   f679 >= 0.24
|   |   |   |   |   |   |   |   |   |   |   |   |   |   |   f820 < 0.44
|   |   |   |   |   |   |   |   |   |   |   |   |   |   |   |   f755 < 0.92 : question (12/0)
|   |   |   |   |   |   |   |   |   |   |   |   |   |   |   |   f755 >= 0.92
|   |   |   |   |   |   |   |   |   |   |   |   |   |   |   |   |   f97 < -0.04 : question (1/0)
|   |   |   |   |   |   |   |   |   |   |   |   |   |   |   |   |   f97 >= -0.04 : not_question (2/0)
|   |   |   |   |   |   |   |   |   |   |   |   |   |   |   f820 >= 0.44
|   |   |   |   |   |   |   |   |   |   |   |   |   |   |   |   f473 < 0.73
|   |   |   |   |   |   |   |   |   |   |   |   |   |   |   |   |   f669 < -0.53 : question (1/0)
|   |   |   |   |   |   |   |   |   |   |   |   |   |   |   |   |   f669 >= -0.53 : not_question (8/0)
|   |   |   |   |   |   |   |   |   |   |   |   |   |   |   |   f473 >= 0.73 : question (3/0)
|   |   |   |   |   |   |   |   |   |   |   |   f651 >= 0.32
|   |   |   |   |   |   |   |   |   |   |   |   |   f723 < -1.62 : not_question (10/0)
|   |   |   |   |   |   |   |   |   |   |   |   |   f723 >= -1.62
|   |   |   |   |   |   |   |   |   |   |   |   |   |   f990 < -0.83 : question (5/0)
|   |   |   |   |   |   |   |   |   |   |   |   |   |   f990 >= -0.83
|   |   |   |   |   |   |   |   |   |   |   |   |   |   |   f705 < -0.51 : question (3/0)
|   |   |   |   |   |   |   |   |   |   |   |   |   |   |   f705 >= -0.51
|   |   |   |   |   |   |   |   |   |   |   |   |   |   |   |   f403 < 0.13
|   |   |   |   |   |   |   |   |   |   |   |   |   |   |   |   |   f949 < -1.44 : not_question (11/0)
|   |   |   |   |   |   |   |   |   |   |   |   |   |   |   |   |   f949 >= -1.44
|   |   |   |   |   |   |   |   |   |   |   |   |   |   |   |   |   |   f713 < 0.29 : not_question (10/0)
|   |   |   |   |   |   |   |   |   |   |   |   |   |   |   |   |   |   f713 >= 0.29
|   |   |   |   |   |   |   |   |   |   |   |   |   |   |   |   |   |   |   f73 < 0.6
|   |   |   |   |   |   |   |   |   |   |   |   |   |   |   |   |   |   |   |   f564 < 0.55
|   |   |   |   |   |   |   |   |   |   |   |   |   |   |   |   |   |   |   |   |   f45 < 1.27 : not_question (6/0)
|   |   |   |   |   |   |   |   |   |   |   |   |   |   |   |   |   |   |   |   |   f45 >= 1.27 : question (2/0)
|   |   |   |   |   |   |   |   |   |   |   |   |   |   |   |   |   |   |   |   f564 >= 0.55 : question (5/0)
|   |   |   |   |   |   |   |   |   |   |   |   |   |   |   |   |   |   |   f73 >= 0.6 : not_question (5/0)
|   |   |   |   |   |   |   |   |   |   |   |   |   |   |   |   f403 >= 0.13 : question (2/0)
|   |   |   |   |   |   |   |   |   f172 >= 0.6
|   |   |   |   |   |   |   |   |   |   f192 < 2.49
|   |   |   |   |   |   |   |   |   |   |   f20 < 0.94
|   |   |   |   |   |   |   |   |   |   |   |   f511 < -0.84
|   |   |   |   |   |   |   |   |   |   |   |   |   f417 < -1.58 : not_question (3/0)
|   |   |   |   |   |   |   |   |   |   |   |   |   f417 >= -1.58
|   |   |   |   |   |   |   |   |   |   |   |   |   |   f993 < -1.22 : question (16/0)
|   |   |   |   |   |   |   |   |   |   |   |   |   |   f993 >= -1.22
|   |   |   |   |   |   |   |   |   |   |   |   |   |   |   f678 < -0.56
|   |   |   |   |   |   |   |   |   |   |   |   |   |   |   |   f471 < 0.66
|   |   |   |   |   |   |   |   |   |   |   |   |   |   |   |   |   f602 < 0.72
|   |   |   |   |   |   |   |   |   |   |   |   |   |   |   |   |   |   f793 < -0.14 : question (12/0)
|   |   |   |   |   |   |   |   |   |   |   |   |   |   |   |   |   |   f793 >= -0.14
|   |   |   |   |   |   |   |   |   |   |   |   |   |   |   |   |   |   |   f24 < -0.31 : not_question (3/0)
|   |   |   |   |   |   |   |   |   |   |   |   |   |   |   |   |   |   |   f24 >= -0.31
|   |   |   |   |   |   |   |   |   |   |   |   |   |   |   |   |   |   |   |   f255 < 0.36 : question (8/0)
|   |   |   |   |   |   |   |   |   |   |   |   |   |   |   |   |   |   |   |   f255 >= 0.36 : not_question (2/0)
|   |   |   |   |   |   |   |   |   |   |   |   |   |   |   |   |   f602 >= 0.72 : not_question (3/0)
|   |   |   |   |   |   |   |   |   |   |   |   |   |   |   |   f471 >= 0.66
|   |   |   |   |   |   |   |   |   |   |   |   |   |   |   |   |   f360 < 0.53 : not_question (6/0)
|   |   |   |   |   |   |   |   |   |   |   |   |   |   |   |   |   f360 >= 0.53 : question (1/0)
|   |   |   |   |   |   |   |   |   |   |   |   |   |   |   f678 >= -0.56 : question (24/0)
|   |   |   |   |   |   |   |   |   |   |   |   f511 >= -0.84
|   |   |   |   |   |   |   |   |   |   |   |   |   f489 < 0.13
|   |   |   |   |   |   |   |   |   |   |   |   |   |   f57 < 1.38
|   |   |   |   |   |   |   |   |   |   |   |   |   |   |   f232 < -0.78 : question (6/0)
|   |   |   |   |   |   |   |   |   |   |   |   |   |   |   f232 >= -0.78
|   |   |   |   |   |   |   |   |   |   |   |   |   |   |   |   f1003 < -0.36 : not_question (10/0)
|   |   |   |   |   |   |   |   |   |   |   |   |   |   |   |   f1003 >= -0.36
|   |   |   |   |   |   |   |   |   |   |   |   |   |   |   |   |   f83 < 0.43
|   |   |   |   |   |   |   |   |   |   |   |   |   |   |   |   |   |   f953 < 0.61
|   |   |   |   |   |   |   |   |   |   |   |   |   |   |   |   |   |   |   f44 < -0.04 : not_question (13/0)
|   |   |   |   |   |   |   |   |   |   |   |   |   |   |   |   |   |   |   f44 >= -0.04
|   |   |   |   |   |   |   |   |   |   |   |   |   |   |   |   |   |   |   |   f683 < -0.18 : not_question (6/0)
|   |   |   |   |   |   |   |   |   |   |   |   |   |   |   |   |   |   |   |   f683 >= -0.18
|   |   |   |   |   |   |   |   |   |   |   |   |   |   |   |   |   |   |   |   |   f881 < -0.58 : question (6/0)
|   |   |   |   |   |   |   |   |   |   |   |   |   |   |   |   |   |   |   |   |   f881 >= -0.58
|   |   |   |   |   |   |   |   |   |   |   |   |   |   |   |   |   |   |   |   |   |   f50 < 0.35
|   |   |   |   |   |   |   |   |   |   |   |   |   |   |   |   |   |   |   |   |   |   |   f137 < -0.3
|   |   |   |   |   |   |   |   |   |   |   |   |   |   |   |   |   |   |   |   |   |   |   |   f191 < -0.62 : not_question (3/0)
|   |   |   |   |   |   |   |   |   |   |   |   |   |   |   |   |   |   |   |   |   |   |   |   f191 >= -0.62 : question (1/0)
|   |   |   |   |   |   |   |   |   |   |   |   |   |   |   |   |   |   |   |   |   |   |   f137 >= -0.3 : question (2/0)
|   |   |   |   |   |   |   |   |   |   |   |   |   |   |   |   |   |   |   |   |   |   f50 >= 0.35 : not_question (6/0)
|   |   |   |   |   |   |   |   |   |   |   |   |   |   |   |   |   |   f953 >= 0.61
|   |   |   |   |   |   |   |   |   |   |   |   |   |   |   |   |   |   |   f20 < 0.1
|   |   |   |   |   |   |   |   |   |   |   |   |   |   |   |   |   |   |   |   f171 < -0.64 : not_question (2/0)
|   |   |   |   |   |   |   |   |   |   |   |   |   |   |   |   |   |   |   |   f171 >= -0.64 : question (1/0)
|   |   |   |   |   |   |   |   |   |   |   |   |   |   |   |   |   |   |   f20 >= 0.1 : question (5/0)
|   |   |   |   |   |   |   |   |   |   |   |   |   |   |   |   |   f83 >= 0.43
|   |   |   |   |   |   |   |   |   |   |   |   |   |   |   |   |   |   f953 < 0.2
|   |   |   |   |   |   |   |   |   |   |   |   |   |   |   |   |   |   |   f20 < 0.25 : question (3/0)
|   |   |   |   |   |   |   |   |   |   |   |   |   |   |   |   |   |   |   f20 >= 0.25
|   |   |   |   |   |   |   |   |   |   |   |   |   |   |   |   |   |   |   |   f91 < 0.72 : not_question (4/0)
|   |   |   |   |   |   |   |   |   |   |   |   |   |   |   |   |   |   |   |   f91 >= 0.72 : question (1/0)
|   |   |   |   |   |   |   |   |   |   |   |   |   |   |   |   |   |   f953 >= 0.2 : question (7/0)
|   |   |   |   |   |   |   |   |   |   |   |   |   |   f57 >= 1.38
|   |   |   |   |   |   |   |   |   |   |   |   |   |   |   f365 < -0.72 : question (13/0)
|   |   |   |   |   |   |   |   |   |   |   |   |   |   |   f365 >= -0.72
|   |   |   |   |   |   |   |   |   |   |   |   |   |   |   |   f516 < -2.06 : question (5/0)
|   |   |   |   |   |   |   |   |   |   |   |   |   |   |   |   f516 >= -2.06
|   |   |   |   |   |   |   |   |   |   |   |   |   |   |   |   |   f768 < -1
|   |   |   |   |   |   |   |   |   |   |   |   |   |   |   |   |   |   f102 < 0.74 : not_question (2/0)
|   |   |   |   |   |   |   |   |   |   |   |   |   |   |   |   |   |   f102 >= 0.74 : question (5/0)
|   |   |   |   |   |   |   |   |   |   |   |   |   |   |   |   |   f768 >= -1 : not_question (5/0)
|   |   |   |   |   |   |   |   |   |   |   |   |   f489 >= 0.13
|   |   |   |   |   |   |   |   |   |   |   |   |   |   f314 < -0.75 : not_question (2/0)
|   |   |   |   |   |   |   |   |   |   |   |   |   |   f314 >= -0.75
|   |   |   |   |   |   |   |   |   |   |   |   |   |   |   f472 < 0.81
|   |   |   |   |   |   |   |   |   |   |   |   |   |   |   |   f211 < 1.43 : question (18/0)
|   |   |   |   |   |   |   |   |   |   |   |   |   |   |   |   f211 >= 1.43 : not_question (1/0)
|   |   |   |   |   |   |   |   |   |   |   |   |   |   |   f472 >= 0.81 : not_question (1/0)
|   |   |   |   |   |   |   |   |   |   |   f20 >= 0.94
|   |   |   |   |   |   |   |   |   |   |   |   f386 < 0.85
|   |   |   |   |   |   |   |   |   |   |   |   |   f176 < -0.1
|   |   |   |   |   |   |   |   |   |   |   |   |   |   f158 < 0.7
|   |   |   |   |   |   |   |   |   |   |   |   |   |   |   f844 < -0.36 : question (10/0)
|   |   |   |   |   |   |   |   |   |   |   |   |   |   |   f844 >= -0.36
|   |   |   |   |   |   |   |   |   |   |   |   |   |   |   |   f400 < 0.58 : not_question (2/0)
|   |   |   |   |   |   |   |   |   |   |   |   |   |   |   |   f400 >= 0.58
|   |   |   |   |   |   |   |   |   |   |   |   |   |   |   |   |   f38 < -1.35 : not_question (1/0)
|   |   |   |   |   |   |   |   |   |   |   |   |   |   |   |   |   f38 >= -1.35 : question (5/0)
|   |   |   |   |   |   |   |   |   |   |   |   |   |   f158 >= 0.7
|   |   |   |   |   |   |   |   |   |   |   |   |   |   |   f186 < -0.25 : question (1/0)
|   |   |   |   |   |   |   |   |   |   |   |   |   |   |   f186 >= -0.25 : not_question (7/0)
|   |   |   |   |   |   |   |   |   |   |   |   |   f176 >= -0.1 : not_question (4/0)
|   |   |   |   |   |   |   |   |   |   |   |   f386 >= 0.85
|   |   |   |   |   |   |   |   |   |   |   |   |   f86 < -1.18 : question (1/0)
|   |   |   |   |   |   |   |   |   |   |   |   |   f86 >= -1.18
|   |   |   |   |   |   |   |   |   |   |   |   |   |   f450 < 0.58
|   |   |   |   |   |   |   |   |   |   |   |   |   |   |   f189 < 0.69 : not_question (2/0)
|   |   |   |   |   |   |   |   |   |   |   |   |   |   |   f189 >= 0.69 : question (1/0)
|   |   |   |   |   |   |   |   |   |   |   |   |   |   f450 >= 0.58 : not_question (16/0)
|   |   |   |   |   |   |   |   |   |   f192 >= 2.49 : not_question (8/0)
|   |   |   |   |   |   |   f640 >= -0.36
|   |   |   |   |   |   |   |   f482 < 0.83
|   |   |   |   |   |   |   |   |   f985 < 0.34
|   |   |   |   |   |   |   |   |   |   f604 < 0.35
|   |   |   |   |   |   |   |   |   |   |   f111 < 0.45
|   |   |   |   |   |   |   |   |   |   |   |   f838 < -1.02
|   |   |   |   |   |   |   |   |   |   |   |   |   f208 < -0.2 : not_question (1/0)
|   |   |   |   |   |   |   |   |   |   |   |   |   f208 >= -0.2 : question (4/0)
|   |   |   |   |   |   |   |   |   |   |   |   f838 >= -1.02
|   |   |   |   |   |   |   |   |   |   |   |   |   f2 < -0.32
|   |   |   |   |   |   |   |   |   |   |   |   |   |   f804 < 0.69 : not_question (7/0)
|   |   |   |   |   |   |   |   |   |   |   |   |   |   f804 >= 0.69
|   |   |   |   |   |   |   |   |   |   |   |   |   |   |   f127 < 0.19 : question (3/0)
|   |   |   |   |   |   |   |   |   |   |   |   |   |   |   f127 >= 0.19 : not_question (2/0)
|   |   |   |   |   |   |   |   |   |   |   |   |   f2 >= -0.32 : not_question (18/0)
|   |   |   |   |   |   |   |   |   |   |   f111 >= 0.45 : not_question (19/0)
|   |   |   |   |   |   |   |   |   |   f604 >= 0.35
|   |   |   |   |   |   |   |   |   |   |   f995 < -1.02
|   |   |   |   |   |   |   |   |   |   |   |   f497 < -1.17 : not_question (1/0)
|   |   |   |   |   |   |   |   |   |   |   |   f497 >= -1.17 : question (7/0)
|   |   |   |   |   |   |   |   |   |   |   f995 >= -1.02 : not_question (4/0)
|   |   |   |   |   |   |   |   |   f985 >= 0.34
|   |   |   |   |   |   |   |   |   |   f458 < 2.35 : not_question (45/0)
|   |   |   |   |   |   |   |   |   |   f458 >= 2.35 : question (1/0)
|   |   |   |   |   |   |   |   f482 >= 0.83
|   |   |   |   |   |   |   |   |   f207 < 0.26
|   |   |   |   |   |   |   |   |   |   f996 < 0.3
|   |   |   |   |   |   |   |   |   |   |   f245 < -0.17
|   |   |   |   |   |   |   |   |   |   |   |   f152 < -1.04 : not_question (1/0)
|   |   |   |   |   |   |   |   |   |   |   |   f152 >= -1.04 : question (8/0)
|   |   |   |   |   |   |   |   |   |   |   f245 >= -0.17
|   |   |   |   |   |   |   |   |   |   |   |   f545 < -0.69
|   |   |   |   |   |   |   |   |   |   |   |   |   f5 < -1.08 : question (2/0)
|   |   |   |   |   |   |   |   |   |   |   |   |   f5 >= -1.08 : not_question (1/0)
|   |   |   |   |   |   |   |   |   |   |   |   f545 >= -0.69 : not_question (16/0)
|   |   |   |   |   |   |   |   |   |   f996 >= 0.3 : question (7/0)
|   |   |   |   |   |   |   |   |   f207 >= 0.26
|   |   |   |   |   |   |   |   |   |   f460 < -0.81
|   |   |   |   |   |   |   |   |   |   |   f148 < -0.54 : question (2/0)
|   |   |   |   |   |   |   |   |   |   |   f148 >= -0.54 : not_question (2/0)
|   |   |   |   |   |   |   |   |   |   f460 >= -0.81 : not_question (13/0)
|   |   |   |   |   f795 >= 0.43
|   |   |   |   |   |   f133 < -0.5 : not_question (27/0)
|   |   |   |   |   |   f133 >= -0.5
|   |   |   |   |   |   |   f923 < 0.43
|   |   |   |   |   |   |   |   f851 < 0.81
|   |   |   |   |   |   |   |   |   f885 < 0.82
|   |   |   |   |   |   |   |   |   |   f271 < -0.83
|   |   |   |   |   |   |   |   |   |   |   f60 < 0.4 : question (2/0)
|   |   |   |   |   |   |   |   |   |   |   f60 >= 0.4 : not_question (2/0)
|   |   |   |   |   |   |   |   |   |   f271 >= -0.83 : not_question (32/0)
|   |   |   |   |   |   |   |   |   f885 >= 0.82
|   |   |   |   |   |   |   |   |   |   f71 < 0.66 : question (3/0)
|   |   |   |   |   |   |   |   |   |   f71 >= 0.66
|   |   |   |   |   |   |   |   |   |   |   f172 < 0.17 : question (1/0)
|   |   |   |   |   |   |   |   |   |   |   f172 >= 0.17 : not_question (4/0)
|   |   |   |   |   |   |   |   f851 >= 0.81
|   |   |   |   |   |   |   |   |   f290 < -0.39
|   |   |   |   |   |   |   |   |   |   f68 < -0.17 : not_question (5/0)
|   |   |   |   |   |   |   |   |   |   f68 >= -0.17 : question (4/0)
|   |   |   |   |   |   |   |   |   f290 >= -0.39 : question (5/0)
|   |   |   |   |   |   |   f923 >= 0.43
|   |   |   |   |   |   |   |   f70 < 0.02
|   |   |   |   |   |   |   |   |   f729 < 1.42
|   |   |   |   |   |   |   |   |   |   f121 < 1.04 : not_question (54/0)
|   |   |   |   |   |   |   |   |   |   f121 >= 1.04
|   |   |   |   |   |   |   |   |   |   |   f314 < 0.29 : not_question (1/0)
|   |   |   |   |   |   |   |   |   |   |   f314 >= 0.29 : question (1/0)
|   |   |   |   |   |   |   |   |   f729 >= 1.42 : question (1/0)
|   |   |   |   |   |   |   |   f70 >= 0.02
|   |   |   |   |   |   |   |   |   f31 < 0.86 : question (3/0)
|   |   |   |   |   |   |   |   |   f31 >= 0.86 : not_question (4/0)
|   |   |   f373 >= -0.06
|   |   |   |   f955 < 0.18
|   |   |   |   |   f380 < -0.62
|   |   |   |   |   |   f893 < -0.75
|   |   |   |   |   |   |   f257 < 0.21 : not_question (8/0)
|   |   |   |   |   |   |   f257 >= 0.21
|   |   |   |   |   |   |   |   f69 < 0.18
|   |   |   |   |   |   |   |   |   f675 < -0.27 : question (8/0)
|   |   |   |   |   |   |   |   |   f675 >= -0.27
|   |   |   |   |   |   |   |   |   |   f77 < -0.74 : question (1/0)
|   |   |   |   |   |   |   |   |   |   f77 >= -0.74 : not_question (3/0)
|   |   |   |   |   |   |   |   f69 >= 0.18 : not_question (10/0)
|   |   |   |   |   |   f893 >= -0.75
|   |   |   |   |   |   |   f593 < 1.11
|   |   |   |   |   |   |   |   f633 < -0.51
|   |   |   |   |   |   |   |   |   f841 < 0.07
|   |   |   |   |   |   |   |   |   |   f639 < -0.69 : not_question (10/0)
|   |   |   |   |   |   |   |   |   |   f639 >= -0.69
|   |   |   |   |   |   |   |   |   |   |   f579 < -0.1
|   |   |   |   |   |   |   |   |   |   |   |   f646 < 0.71 : question (5/0)
|   |   |   |   |   |   |   |   |   |   |   |   f646 >= 0.71 : not_question (2/0)
|   |   |   |   |   |   |   |   |   |   |   f579 >= -0.1
|   |   |   |   |   |   |   |   |   |   |   |   f630 < 0.86 : not_question (6/0)
|   |   |   |   |   |   |   |   |   |   |   |   f630 >= 0.86 : question (1/0)
|   |   |   |   |   |   |   |   |   f841 >= 0.07
|   |   |   |   |   |   |   |   |   |   f44 < -0.93 : not_question (3/0)
|   |   |   |   |   |   |   |   |   |   f44 >= -0.93
|   |   |   |   |   |   |   |   |   |   |   f30 < 0.11 : question (10/0)
|   |   |   |   |   |   |   |   |   |   |   f30 >= 0.11
|   |   |   |   |   |   |   |   |   |   |   |   f947 < -0
|   |   |   |   |   |   |   |   |   |   |   |   |   f243 < -1.96 : not_question (1/0)
|   |   |   |   |   |   |   |   |   |   |   |   |   f243 >= -1.96 : question (6/0)
|   |   |   |   |   |   |   |   |   |   |   |   f947 >= -0 : not_question (5/0)
|   |   |   |   |   |   |   |   f633 >= -0.51
|   |   |   |   |   |   |   |   |   f472 < -0.47
|   |   |   |   |   |   |   |   |   |   f356 < -0.05
|   |   |   |   |   |   |   |   |   |   |   f423 < -0.92
|   |   |   |   |   |   |   |   |   |   |   |   f710 < -0.19 : not_question (3/0)
|   |   |   |   |   |   |   |   |   |   |   |   f710 >= -0.19
|   |   |   |   |   |   |   |   |   |   |   |   |   f865 < -0.27
|   |   |   |   |   |   |   |   |   |   |   |   |   |   f307 < -0.45 : not_question (2/0)
|   |   |   |   |   |   |   |   |   |   |   |   |   |   f307 >= -0.45 : question (4/0)
|   |   |   |   |   |   |   |   |   |   |   |   |   f865 >= -0.27 : question (21/0)
|   |   |   |   |   |   |   |   |   |   |   f423 >= -0.92 : question (56/0)
|   |   |   |   |   |   |   |   |   |   f356 >= -0.05
|   |   |   |   |   |   |   |   |   |   |   f490 < 0.48
|   |   |   |   |   |   |   |   |   |   |   |   f41 < -1.21 : question (19/0)
|   |   |   |   |   |   |   |   |   |   |   |   f41 >= -1.21
|   |   |   |   |   |   |   |   |   |   |   |   |   f664 < -0.74 : question (15/0)
|   |   |   |   |   |   |   |   |   |   |   |   |   f664 >= -0.74
|   |   |   |   |   |   |   |   |   |   |   |   |   |   f883 < -0.12
|   |   |   |   |   |   |   |   |   |   |   |   |   |   |   f605 < 0.5
|   |   |   |   |   |   |   |   |   |   |   |   |   |   |   |   f713 < 0.39
|   |   |   |   |   |   |   |   |   |   |   |   |   |   |   |   |   f125 < -0.94 : not_question (1/0)
|   |   |   |   |   |   |   |   |   |   |   |   |   |   |   |   |   f125 >= -0.94 : question (1/0)
|   |   |   |   |   |   |   |   |   |   |   |   |   |   |   |   f713 >= 0.39 : question (29/0)
|   |   |   |   |   |   |   |   |   |   |   |   |   |   |   f605 >= 0.5 : not_question (1/0)
|   |   |   |   |   |   |   |   |   |   |   |   |   |   f883 >= -0.12
|   |   |   |   |   |   |   |   |   |   |   |   |   |   |   f484 < 1.52
|   |   |   |   |   |   |   |   |   |   |   |   |   |   |   |   f499 < 0.41
|   |   |   |   |   |   |   |   |   |   |   |   |   |   |   |   |   f785 < 0.96
|   |   |   |   |   |   |   |   |   |   |   |   |   |   |   |   |   |   f377 < 0.3
|   |   |   |   |   |   |   |   |   |   |   |   |   |   |   |   |   |   |   f224 < -0.59 : question (2/0)
|   |   |   |   |   |   |   |   |   |   |   |   |   |   |   |   |   |   |   f224 >= -0.59 : not_question (2/0)
|   |   |   |   |   |   |   |   |   |   |   |   |   |   |   |   |   |   f377 >= 0.3 : not_question (8/0)
|   |   |   |   |   |   |   |   |   |   |   |   |   |   |   |   |   f785 >= 0.96
|   |   |   |   |   |   |   |   |   |   |   |   |   |   |   |   |   |   f32 < -0.69 : not_question (1/0)
|   |   |   |   |   |   |   |   |   |   |   |   |   |   |   |   |   |   f32 >= -0.69 : question (6/0)
|   |   |   |   |   |   |   |   |   |   |   |   |   |   |   |   f499 >= 0.41 : not_question (6/0)
|   |   |   |   |   |   |   |   |   |   |   |   |   |   |   f484 >= 1.52 : question (6/0)
|   |   |   |   |   |   |   |   |   |   |   f490 >= 0.48 : not_question (5/0)
|   |   |   |   |   |   |   |   |   f472 >= -0.47
|   |   |   |   |   |   |   |   |   |   f673 < -1.05
|   |   |   |   |   |   |   |   |   |   |   f83 < 0.21
|   |   |   |   |   |   |   |   |   |   |   |   f72 < -0.35
|   |   |   |   |   |   |   |   |   |   |   |   |   f98 < -1.15 : not_question (1/0)
|   |   |   |   |   |   |   |   |   |   |   |   |   f98 >= -1.15 : question (2/0)
|   |   |   |   |   |   |   |   |   |   |   |   f72 >= -0.35 : question (37/0)
|   |   |   |   |   |   |   |   |   |   |   f83 >= 0.21 : not_question (1/0)
|   |   |   |   |   |   |   |   |   |   f673 >= -1.05
|   |   |   |   |   |   |   |   |   |   |   f271 < -0.42
|   |   |   |   |   |   |   |   |   |   |   |   f105 < 0.26
|   |   |   |   |   |   |   |   |   |   |   |   |   f923 < -0.17
|   |   |   |   |   |   |   |   |   |   |   |   |   |   f2 < -0.21
|   |   |   |   |   |   |   |   |   |   |   |   |   |   |   f954 < 0.25
|   |   |   |   |   |   |   |   |   |   |   |   |   |   |   |   f373 < 0.18 : not_question (2/0)
|   |   |   |   |   |   |   |   |   |   |   |   |   |   |   |   f373 >= 0.18 : question (1/0)
|   |   |   |   |   |   |   |   |   |   |   |   |   |   |   f954 >= 0.25 : question (4/0)
|   |   |   |   |   |   |   |   |   |   |   |   |   |   f2 >= -0.21 : not_question (7/0)
|   |   |   |   |   |   |   |   |   |   |   |   |   f923 >= -0.17
|   |   |   |   |   |   |   |   |   |   |   |   |   |   f954 < 0.95
|   |   |   |   |   |   |   |   |   |   |   |   |   |   |   f550 < 0.42 : question (30/0)
|   |   |   |   |   |   |   |   |   |   |   |   |   |   |   f550 >= 0.42
|   |   |   |   |   |   |   |   |   |   |   |   |   |   |   |   f166 < -0.12 : not_question (1/0)
|   |   |   |   |   |   |   |   |   |   |   |   |   |   |   |   f166 >= -0.12 : question (1/0)
|   |   |   |   |   |   |   |   |   |   |   |   |   |   f954 >= 0.95
|   |   |   |   |   |   |   |   |   |   |   |   |   |   |   f129 < -1.21 : question (7/0)
|   |   |   |   |   |   |   |   |   |   |   |   |   |   |   f129 >= -1.21
|   |   |   |   |   |   |   |   |   |   |   |   |   |   |   |   f77 < -0.23
|   |   |   |   |   |   |   |   |   |   |   |   |   |   |   |   |   f122 < 0.03
|   |   |   |   |   |   |   |   |   |   |   |   |   |   |   |   |   |   f732 < -0.14 : question (7/0)
|   |   |   |   |   |   |   |   |   |   |   |   |   |   |   |   |   |   f732 >= -0.14
|   |   |   |   |   |   |   |   |   |   |   |   |   |   |   |   |   |   |   f59 < 0.14 : question (2/0)
|   |   |   |   |   |   |   |   |   |   |   |   |   |   |   |   |   |   |   f59 >= 0.14 : not_question (4/0)
|   |   |   |   |   |   |   |   |   |   |   |   |   |   |   |   |   f122 >= 0.03 : not_question (9/0)
|   |   |   |   |   |   |   |   |   |   |   |   |   |   |   |   f77 >= -0.23 : question (3/0)
|   |   |   |   |   |   |   |   |   |   |   |   f105 >= 0.26 : question (11/0)
|   |   |   |   |   |   |   |   |   |   |   f271 >= -0.42
|   |   |   |   |   |   |   |   |   |   |   |   f292 < 0.43
|   |   |   |   |   |   |   |   |   |   |   |   |   f300 < -0.59
|   |   |   |   |   |   |   |   |   |   |   |   |   |   f597 < -0.18 : not_question (9/0)
|   |   |   |   |   |   |   |   |   |   |   |   |   |   f597 >= -0.18
|   |   |   |   |   |   |   |   |   |   |   |   |   |   |   f677 < -0.9 : question (4/0)
|   |   |   |   |   |   |   |   |   |   |   |   |   |   |   f677 >= -0.9
|   |   |   |   |   |   |   |   |   |   |   |   |   |   |   |   f554 < -0.5 : question (4/0)
|   |   |   |   |   |   |   |   |   |   |   |   |   |   |   |   f554 >= -0.5
|   |   |   |   |   |   |   |   |   |   |   |   |   |   |   |   |   f285 < -1.34 : not_question (10/0)
|   |   |   |   |   |   |   |   |   |   |   |   |   |   |   |   |   f285 >= -1.34
|   |   |   |   |   |   |   |   |   |   |   |   |   |   |   |   |   |   f661 < 0.81
|   |   |   |   |   |   |   |   |   |   |   |   |   |   |   |   |   |   |   f131 < -0.71 : not_question (5/0)
|   |   |   |   |   |   |   |   |   |   |   |   |   |   |   |   |   |   |   f131 >= -0.71
|   |   |   |   |   |   |   |   |   |   |   |   |   |   |   |   |   |   |   |   f581 < 0.24
|   |   |   |   |   |   |   |   |   |   |   |   |   |   |   |   |   |   |   |   |   f122 < -0.85
|   |   |   |   |   |   |   |   |   |   |   |   |   |   |   |   |   |   |   |   |   |   f11 < -0.24 : not_question (3/0)
|   |   |   |   |   |   |   |   |   |   |   |   |   |   |   |   |   |   |   |   |   |   f11 >= -0.24 : question (1/0)
|   |   |   |   |   |   |   |   |   |   |   |   |   |   |   |   |   |   |   |   |   f122 >= -0.85 : question (11/0)
|   |   |   |   |   |   |   |   |   |   |   |   |   |   |   |   |   |   |   |   f581 >= 0.24 : not_question (4/0)
|   |   |   |   |   |   |   |   |   |   |   |   |   |   |   |   |   |   f661 >= 0.81 : not_question (9/0)
|   |   |   |   |   |   |   |   |   |   |   |   |   f300 >= -0.59
|   |   |   |   |   |   |   |   |   |   |   |   |   |   f557 < 0.2
|   |   |   |   |   |   |   |   |   |   |   |   |   |   |   f592 < -0.56
|   |   |   |   |   |   |   |   |   |   |   |   |   |   |   |   f586 < -0.08 : question (3/0)
|   |   |   |   |   |   |   |   |   |   |   |   |   |   |   |   f586 >= -0.08 : not_question (6/0)
|   |   |   |   |   |   |   |   |   |   |   |   |   |   |   f592 >= -0.56
|   |   |   |   |   |   |   |   |   |   |   |   |   |   |   |   f331 < -0.01
|   |   |   |   |   |   |   |   |   |   |   |   |   |   |   |   |   f448 < -1.37
|   |   |   |   |   |   |   |   |   |   |   |   |   |   |   |   |   |   f166 < -0.57 : not_question (5/0)
|   |   |   |   |   |   |   |   |   |   |   |   |   |   |   |   |   |   f166 >= -0.57 : question (1/0)
|   |   |   |   |   |   |   |   |   |   |   |   |   |   |   |   |   f448 >= -1.37
|   |   |   |   |   |   |   |   |   |   |   |   |   |   |   |   |   |   f284 < -0.24
|   |   |   |   |   |   |   |   |   |   |   |   |   |   |   |   |   |   |   f913 < 0.01
|   |   |   |   |   |   |   |   |   |   |   |   |   |   |   |   |   |   |   |   f455 < -0.92 : question (9/0)
|   |   |   |   |   |   |   |   |   |   |   |   |   |   |   |   |   |   |   |   f455 >= -0.92
|   |   |   |   |   |   |   |   |   |   |   |   |   |   |   |   |   |   |   |   |   f313 < -0.79 : question (4/0)
|   |   |   |   |   |   |   |   |   |   |   |   |   |   |   |   |   |   |   |   |   f313 >= -0.79
|   |   |   |   |   |   |   |   |   |   |   |   |   |   |   |   |   |   |   |   |   |   f305 < 0.6 : not_question (5/0)
|   |   |   |   |   |   |   |   |   |   |   |   |   |   |   |   |   |   |   |   |   |   f305 >= 0.6 : question (2/0)
|   |   |   |   |   |   |   |   |   |   |   |   |   |   |   |   |   |   |   f913 >= 0.01 : not_question (4/0)
|   |   |   |   |   |   |   |   |   |   |   |   |   |   |   |   |   |   f284 >= -0.24 : question (12/0)
|   |   |   |   |   |   |   |   |   |   |   |   |   |   |   |   f331 >= -0.01
|   |   |   |   |   |   |   |   |   |   |   |   |   |   |   |   |   f560 < -0.7 : not_question (1/0)
|   |   |   |   |   |   |   |   |   |   |   |   |   |   |   |   |   f560 >= -0.7 : question (23/0)
|   |   |   |   |   |   |   |   |   |   |   |   |   |   f557 >= 0.2
|   |   |   |   |   |   |   |   |   |   |   |   |   |   |   f252 < 0.91
|   |   |   |   |   |   |   |   |   |   |   |   |   |   |   |   f200 < -0.83
|   |   |   |   |   |   |   |   |   |   |   |   |   |   |   |   |   f777 < 0.05 : not_question (10/0)
|   |   |   |   |   |   |   |   |   |   |   |   |   |   |   |   |   f777 >= 0.05
|   |   |   |   |   |   |   |   |   |   |   |   |   |   |   |   |   |   f44 < -1.15 : not_question (1/0)
|   |   |   |   |   |   |   |   |   |   |   |   |   |   |   |   |   |   f44 >= -1.15 : question (1/0)
|   |   |   |   |   |   |   |   |   |   |   |   |   |   |   |   f200 >= -0.83
|   |   |   |   |   |   |   |   |   |   |   |   |   |   |   |   |   f3 < -0.19
|   |   |   |   |   |   |   |   |   |   |   |   |   |   |   |   |   |   f263 < -2.12 : question (1/0)
|   |   |   |   |   |   |   |   |   |   |   |   |   |   |   |   |   |   f263 >= -2.12 : not_question (5/0)
|   |   |   |   |   |   |   |   |   |   |   |   |   |   |   |   |   f3 >= -0.19 : question (3/0)
|   |   |   |   |   |   |   |   |   |   |   |   |   |   |   f252 >= 0.91 : question (4/0)
|   |   |   |   |   |   |   |   |   |   |   |   f292 >= 0.43 : not_question (6/0)
|   |   |   |   |   |   |   f593 >= 1.11
|   |   |   |   |   |   |   |   f988 < -0.98
|   |   |   |   |   |   |   |   |   f403 < -1.17 : not_question (1/0)
|   |   |   |   |   |   |   |   |   f403 >= -1.17 : question (2/0)
|   |   |   |   |   |   |   |   f988 >= -0.98 : not_question (11/0)
|   |   |   |   |   f380 >= -0.62
|   |   |   |   |   |   f794 < -1.19
|   |   |   |   |   |   |   f796 < -0.76
|   |   |   |   |   |   |   |   f669 < -0.27
|   |   |   |   |   |   |   |   |   f793 < 0.31
|   |   |   |   |   |   |   |   |   |   f841 < 0.18 : not_question (7/0)
|   |   |   |   |   |   |   |   |   |   f841 >= 0.18
|   |   |   |   |   |   |   |   |   |   |   f335 < 1.44
|   |   |   |   |   |   |   |   |   |   |   |   f3 < 0.17
|   |   |   |   |   |   |   |   |   |   |   |   |   f396 < -0.78 : question (2/0)
|   |   |   |   |   |   |   |   |   |   |   |   |   f396 >= -0.78 : not_question (7/0)
|   |   |   |   |   |   |   |   |   |   |   |   f3 >= 0.17 : question (2/0)
|   |   |   |   |   |   |   |   |   |   |   f335 >= 1.44 : question (8/0)
|   |   |   |   |   |   |   |   |   f793 >= 0.31 : question (7/0)
|   |   |   |   |   |   |   |   f669 >= -0.27
|   |   |   |   |   |   |   |   |   f564 < 1.14
|   |   |   |   |   |   |   |   |   |   f455 < -1
|   |   |   |   |   |   |   |   |   |   |   f296 < 0.55
|   |   |   |   |   |   |   |   |   |   |   |   f75 < -1.23 : question (1/0)
|   |   |   |   |   |   |   |   |   |   |   |   f75 >= -1.23 : not_question (7/0)
|   |   |   |   |   |   |   |   |   |   |   f296 >= 0.55
|   |   |   |   |   |   |   |   |   |   |   |   f514 < 0.97 : question (4/0)
|   |   |   |   |   |   |   |   |   |   |   |   f514 >= 0.97 : not_question (1/0)
|   |   |   |   |   |   |   |   |   |   f455 >= -1 : not_question (17/0)
|   |   |   |   |   |   |   |   |   f564 >= 1.14 : question (2/0)
|   |   |   |   |   |   |   f796 >= -0.76
|   |   |   |   |   |   |   |   f308 < 1.17
|   |   |   |   |   |   |   |   |   f758 < 0.47
|   |   |   |   |   |   |   |   |   |   f126 < -1.85 : question (11/0)
|   |   |   |   |   |   |   |   |   |   f126 >= -1.85
|   |   |   |   |   |   |   |   |   |   |   f870 < -0.78 : not_question (8/0)
|   |   |   |   |   |   |   |   |   |   |   f870 >= -0.78
|   |   |   |   |   |   |   |   |   |   |   |   f715 < -0.17
|   |   |   |   |   |   |   |   |   |   |   |   |   f185 < 1.48 : not_question (12/0)
|   |   |   |   |   |   |   |   |   |   |   |   |   f185 >= 1.48 : question (1/0)
|   |   |   |   |   |   |   |   |   |   |   |   f715 >= -0.17
|   |   |   |   |   |   |   |   |   |   |   |   |   f890 < 0.96
|   |   |   |   |   |   |   |   |   |   |   |   |   |   f563 < 0.27
|   |   |   |   |   |   |   |   |   |   |   |   |   |   |   f29 < -1.16
|   |   |   |   |   |   |   |   |   |   |   |   |   |   |   |   f719 < 0.69
|   |   |   |   |   |   |   |   |   |   |   |   |   |   |   |   |   f952 < 0.82
|   |   |   |   |   |   |   |   |   |   |   |   |   |   |   |   |   |   f482 < 1.21 : not_question (5/0)
|   |   |   |   |   |   |   |   |   |   |   |   |   |   |   |   |   |   f482 >= 1.21 : question (1/0)
|   |   |   |   |   |   |   |   |   |   |   |   |   |   |   |   |   f952 >= 0.82 : question (7/0)
|   |   |   |   |   |   |   |   |   |   |   |   |   |   |   |   f719 >= 0.69 : question (10/0)
|   |   |   |   |   |   |   |   |   |   |   |   |   |   |   f29 >= -1.16
|   |   |   |   |   |   |   |   |   |   |   |   |   |   |   |   f640 < -0.5
|   |   |   |   |   |   |   |   |   |   |   |   |   |   |   |   |   f449 < -0.23
|   |   |   |   |   |   |   |   |   |   |   |   |   |   |   |   |   |   f700 < 0.43
|   |   |   |   |   |   |   |   |   |   |   |   |   |   |   |   |   |   |   f592 < 0.62
|   |   |   |   |   |   |   |   |   |   |   |   |   |   |   |   |   |   |   |   f259 < 0.85 : question (5/0)
|   |   |   |   |   |   |   |   |   |   |   |   |   |   |   |   |   |   |   |   f259 >= 0.85 : not_question (2/0)
|   |   |   |   |   |   |   |   |   |   |   |   |   |   |   |   |   |   |   f592 >= 0.62 : not_question (3/0)
|   |   |   |   |   |   |   |   |   |   |   |   |   |   |   |   |   |   f700 >= 0.43 : question (10/0)
|   |   |   |   |   |   |   |   |   |   |   |   |   |   |   |   |   f449 >= -0.23
|   |   |   |   |   |   |   |   |   |   |   |   |   |   |   |   |   |   f434 < -1.27 : question (2/0)
|   |   |   |   |   |   |   |   |   |   |   |   |   |   |   |   |   |   f434 >= -1.27
|   |   |   |   |   |   |   |   |   |   |   |   |   |   |   |   |   |   |   f998 < -0.33
|   |   |   |   |   |   |   |   |   |   |   |   |   |   |   |   |   |   |   |   f186 < 1.05 : question (3/0)
|   |   |   |   |   |   |   |   |   |   |   |   |   |   |   |   |   |   |   |   f186 >= 1.05 : not_question (2/0)
|   |   |   |   |   |   |   |   |   |   |   |   |   |   |   |   |   |   |   f998 >= -0.33 : not_question (12/0)
|   |   |   |   |   |   |   |   |   |   |   |   |   |   |   |   f640 >= -0.5 : not_question (7/0)
|   |   |   |   |   |   |   |   |   |   |   |   |   |   f563 >= 0.27 : not_question (7/0)
|   |   |   |   |   |   |   |   |   |   |   |   |   f890 >= 0.96
|   |   |   |   |   |   |   |   |   |   |   |   |   |   f900 < 0.55
|   |   |   |   |   |   |   |   |   |   |   |   |   |   |   f431 < -1.05
|   |   |   |   |   |   |   |   |   |   |   |   |   |   |   |   f930 < -0.96
|   |   |   |   |   |   |   |   |   |   |   |   |   |   |   |   |   f153 < 0.62 : not_question (6/0)
|   |   |   |   |   |   |   |   |   |   |   |   |   |   |   |   |   f153 >= 0.62 : question (2/0)
|   |   |   |   |   |   |   |   |   |   |   |   |   |   |   |   f930 >= -0.96
|   |   |   |   |   |   |   |   |   |   |   |   |   |   |   |   |   f94 < -0.57
|   |   |   |   |   |   |   |   |   |   |   |   |   |   |   |   |   |   f23 < 0.33 : question (1/0)
|   |   |   |   |   |   |   |   |   |   |   |   |   |   |   |   |   |   f23 >= 0.33 : not_question (1/0)
|   |   |   |   |   |   |   |   |   |   |   |   |   |   |   |   |   f94 >= -0.57 : question (10/0)
|   |   |   |   |   |   |   |   |   |   |   |   |   |   |   f431 >= -1.05 : question (21/0)
|   |   |   |   |   |   |   |   |   |   |   |   |   |   f900 >= 0.55
|   |   |   |   |   |   |   |   |   |   |   |   |   |   |   f641 < -0.12 : not_question (5/0)
|   |   |   |   |   |   |   |   |   |   |   |   |   |   |   f641 >= -0.12 : question (2/0)
|   |   |   |   |   |   |   |   |   f758 >= 0.47
|   |   |   |   |   |   |   |   |   |   f375 < 0.22 : not_question (9/0)
|   |   |   |   |   |   |   |   |   |   f375 >= 0.22 : question (1/0)
|   |   |   |   |   |   |   |   f308 >= 1.17
|   |   |   |   |   |   |   |   |   f451 < 1.18
|   |   |   |   |   |   |   |   |   |   f801 < 1.47
|   |   |   |   |   |   |   |   |   |   |   f553 < -0.43
|   |   |   |   |   |   |   |   |   |   |   |   f117 < 0.19 : question (11/0)
|   |   |   |   |   |   |   |   |   |   |   |   f117 >= 0.19
|   |   |   |   |   |   |   |   |   |   |   |   |   f575 < 0.81
|   |   |   |   |   |   |   |   |   |   |   |   |   |   f19 < -0.51 : question (1/0)
|   |   |   |   |   |   |   |   |   |   |   |   |   |   f19 >= -0.51 : not_question (4/0)
|   |   |   |   |   |   |   |   |   |   |   |   |   f575 >= 0.81 : question (3/0)
|   |   |   |   |   |   |   |   |   |   |   f553 >= -0.43 : question (30/0)
|   |   |   |   |   |   |   |   |   |   f801 >= 1.47
|   |   |   |   |   |   |   |   |   |   |   f915 < 0.36
|   |   |   |   |   |   |   |   |   |   |   |   f766 < 0.72
|   |   |   |   |   |   |   |   |   |   |   |   |   f750 < -1.7 : not_question (5/0)
|   |   |   |   |   |   |   |   |   |   |   |   |   f750 >= -1.7
|   |   |   |   |   |   |   |   |   |   |   |   |   |   f414 < 1.24
|   |   |   |   |   |   |   |   |   |   |   |   |   |   |   f879 < -0.35
|   |   |   |   |   |   |   |   |   |   |   |   |   |   |   |   f25 < 1.11 : question (3/0)
|   |   |   |   |   |   |   |   |   |   |   |   |   |   |   |   f25 >= 1.11 : not_question (1/0)
|   |   |   |   |   |   |   |   |   |   |   |   |   |   |   f879 >= -0.35 : not_question (5/0)
|   |   |   |   |   |   |   |   |   |   |   |   |   |   f414 >= 1.24 : question (6/0)
|   |   |   |   |   |   |   |   |   |   |   |   f766 >= 0.72 : question (6/0)
|   |   |   |   |   |   |   |   |   |   |   f915 >= 0.36 : question (9/0)
|   |   |   |   |   |   |   |   |   f451 >= 1.18 : not_question (4/0)
|   |   |   |   |   |   f794 >= -1.19
|   |   |   |   |   |   |   f593 < -1.01
|   |   |   |   |   |   |   |   f909 < 1.25
|   |   |   |   |   |   |   |   |   f608 < 2.07
|   |   |   |   |   |   |   |   |   |   f244 < -1.09 : not_question (10/0)
|   |   |   |   |   |   |   |   |   |   f244 >= -1.09
|   |   |   |   |   |   |   |   |   |   |   f497 < 0.51
|   |   |   |   |   |   |   |   |   |   |   |   f942 < -0.51 : not_question (1/0)
|   |   |   |   |   |   |   |   |   |   |   |   f942 >= -0.51 : question (6/0)
|   |   |   |   |   |   |   |   |   |   |   f497 >= 0.51
|   |   |   |   |   |   |   |   |   |   |   |   f397 < 0.2 : not_question (5/0)
|   |   |   |   |   |   |   |   |   |   |   |   f397 >= 0.2 : question (1/0)
|   |   |   |   |   |   |   |   |   f608 >= 2.07 : question (4/0)
|   |   |   |   |   |   |   |   f909 >= 1.25
|   |   |   |   |   |   |   |   |   f889 < -0.28 : question (12/0)
|   |   |   |   |   |   |   |   |   f889 >= -0.28
|   |   |   |   |   |   |   |   |   |   f144 < 0.62 : not_question (3/0)
|   |   |   |   |   |   |   |   |   |   f144 >= 0.62 : question (4/0)
|   |   |   |   |   |   |   f593 >= -1.01
|   |   |   |   |   |   |   |   f637 < -0.48
|   |   |   |   |   |   |   |   |   f35 < -0.17 : not_question (1/0)
|   |   |   |   |   |   |   |   |   f35 >= -0.17
|   |   |   |   |   |   |   |   |   |   f52 < 1.93 : question (11/0)
|   |   |   |   |   |   |   |   |   |   f52 >= 1.93 : not_question (1/0)
|   |   |   |   |   |   |   |   f637 >= -0.48
|   |   |   |   |   |   |   |   |   f91 < 1.2
|   |   |   |   |   |   |   |   |   |   f173 < -0.4
|   |   |   |   |   |   |   |   |   |   |   f250 < 2.36
|   |   |   |   |   |   |   |   |   |   |   |   f233 < 0.85
|   |   |   |   |   |   |   |   |   |   |   |   |   f936 < -1.33 : question (2/0)
|   |   |   |   |   |   |   |   |   |   |   |   |   f936 >= -1.33 : not_question (36/0)
|   |   |   |   |   |   |   |   |   |   |   |   f233 >= 0.85 : question (2/0)
|   |   |   |   |   |   |   |   |   |   |   f250 >= 2.36 : question (2/0)
